<?xml version="1.0"?>
<MethodSetup Method="BDT::BDTG">
  <GeneralInfo>
    <Info name="TMVA Release" value="4.2.0 [262656]"/>
    <Info name="ROOT Release" value="5.34/18 [336402]"/>
    <Info name="Creator" value="pandolf"/>
    <Info name="Date" value="Tue May 27 17:25:38 2014"/>
    <Info name="Host" value="Darwin pb-d-128-141-154-112.cern.ch 13.1.0 Darwin Kernel Version 13.1.0: Wed Apr 2 23:52:02 PDT 2014; root:xnu-2422.92.1~2/RELEASE_X86_64 x86_64"/>
    <Info name="Dir" value="/Users/pandolf/BTFAnalysis/PositionAnalysis/TMVA"/>
    <Info name="Training events" value="24714"/>
    <Info name="TrainingTime" value="3.86108804e+00"/>
    <Info name="AnalysisType" value="Regression"/>
  </GeneralInfo>
  <Options>
    <Option name="V" modified="Yes">False</Option>
    <Option name="VerbosityLevel" modified="No">Default</Option>
    <Option name="VarTransform" modified="No">None</Option>
    <Option name="H" modified="Yes">False</Option>
    <Option name="CreateMVAPdfs" modified="No">False</Option>
    <Option name="IgnoreNegWeightsInTraining" modified="No">False</Option>
    <Option name="NTrees" modified="Yes">200</Option>
    <Option name="MaxDepth" modified="No">2</Option>
    <Option name="MinNodeSize" modified="No">0.2%</Option>
    <Option name="nCuts" modified="Yes">20</Option>
    <Option name="BoostType" modified="Yes">Grad</Option>
    <Option name="AdaBoostR2Loss" modified="No">quadratic</Option>
    <Option name="UseBaggedBoost" modified="No">True</Option>
    <Option name="Shrinkage" modified="Yes">1.000000e+00</Option>
    <Option name="AdaBoostBeta" modified="No">5.000000e-01</Option>
    <Option name="UseRandomisedTrees" modified="No">False</Option>
    <Option name="UseNvars" modified="No">1</Option>
    <Option name="UsePoissonNvars" modified="No">True</Option>
    <Option name="BaggedSampleFraction" modified="No">6.000000e-01</Option>
    <Option name="UseYesNoLeaf" modified="No">False</Option>
    <Option name="NegWeightTreatment" modified="No">ignorenegweightsintraining</Option>
    <Option name="Css" modified="No">1.000000e+00</Option>
    <Option name="Cts_sb" modified="No">1.000000e+00</Option>
    <Option name="Ctb_ss" modified="No">1.000000e+00</Option>
    <Option name="Cbb" modified="No">1.000000e+00</Option>
    <Option name="NodePurityLimit" modified="No">5.000000e-01</Option>
    <Option name="SeparationType" modified="Yes">giniindex</Option>
    <Option name="DoBoostMonitor" modified="No">False</Option>
    <Option name="UseFisherCuts" modified="No">False</Option>
    <Option name="MinLinCorrForFisher" modified="No">8.000000e-01</Option>
    <Option name="UseExclusiveVars" modified="No">False</Option>
    <Option name="DoPreselection" modified="No">False</Option>
    <Option name="SigToBkgFraction" modified="No">1.000000e+00</Option>
    <Option name="PruneMethod" modified="No">nopruning</Option>
    <Option name="PruneStrength" modified="No">0.000000e+00</Option>
    <Option name="PruningValFraction" modified="No">5.000000e-01</Option>
    <Option name="nEventsMin" modified="No">0</Option>
    <Option name="UseBaggedGrad" modified="Yes">True</Option>
    <Option name="GradBaggingFraction" modified="No">6.000000e-01</Option>
    <Option name="UseNTrainEvents" modified="No">0</Option>
    <Option name="NNodesMax" modified="Yes">5</Option>
  </Options>
  <Variables NVar="1">
    <Variable VarIndex="0" Expression="r02" Label="r02" Title="r02" Unit="" Internal="r02" Type="F" Min="1.35494135e-02" Max="1.55196518e+02"/>
  </Variables>
  <Spectators NSpec="0"/>
  <Classes NClass="1">
    <Class Name="Regression" Index="0"/>
  </Classes>
  <Targets NTrgt="1">
    <Target TargetIndex="0" Expression="diag02_calo" Label="diag02_calo" Title="diag02_calo" Unit="" Internal="diag02_calo" Type="F" Min="-2.85540791e+01" Max="2.45501080e+01"/>
  </Targets>
  <Transformations NTransformations="0"/>
  <MVAPdfs/>
  <Weights NTrees="200" AnalysisType="1">
    <BinaryTree type="DecisionTree" boostWeight="1.3201066255569458e+00" itree="0">
      <Node pos="s" depth="0" NCoef="0" IVar="-1" Cut="0.0000000000000000e+00" cType="1" res="9.1702528297901154e-02" rms="4.6922736167907715e+00" purity="1.0000000000000000e+00" nType="-99"/>
    </BinaryTree>
    <BinaryTree type="DecisionTree" boostWeight="1.0000000000000000e+00" itree="1">
      <Node pos="s" depth="0" NCoef="0" IVar="0" Cut="2.5055336952209473e+00" cType="1" res="7.0205026865005493e-01" rms="5.8631029129028320e+00" purity="1.0000000000000000e+00" nType="0">
        <Node pos="l" depth="1" NCoef="0" IVar="0" Cut="7.2392344474792480e-01" cType="1" res="6.2316757440567017e-01" rms="5.8148550987243652e+00" purity="1.0000000000000000e+00" nType="0">
          <Node pos="l" depth="2" NCoef="0" IVar="-1" Cut="0.0000000000000000e+00" cType="1" res="-4.1759657859802246e+00" rms="6.1518611907958984e+00" purity="1.0000000000000000e+00" nType="-99"/>
          <Node pos="r" depth="2" NCoef="0" IVar="-1" Cut="0.0000000000000000e+00" cType="1" res="5.9537792205810547e-01" rms="5.4971480369567871e+00" purity="1.0000000000000000e+00" nType="-99"/>
        </Node>
        <Node pos="r" depth="1" NCoef="0" IVar="0" Cut="4.8821568489074707e+00" cType="1" res="5.6449227333068848e+00" rms="6.6977105140686035e+00" purity="1.0000000000000000e+00" nType="0">
          <Node pos="l" depth="2" NCoef="0" IVar="-1" Cut="0.0000000000000000e+00" cType="1" res="6.8658728599548340e+00" rms="6.7511682510375977e+00" purity="1.0000000000000000e+00" nType="-99"/>
          <Node pos="r" depth="2" NCoef="0" IVar="-1" Cut="0.0000000000000000e+00" cType="1" res="1.0783811569213867e+01" rms="6.3490867614746094e+00" purity="1.0000000000000000e+00" nType="-99"/>
        </Node>
      </Node>
    </BinaryTree>
    <BinaryTree type="DecisionTree" boostWeight="1.0000000000000000e+00" itree="2">
      <Node pos="s" depth="0" NCoef="0" IVar="-1" Cut="0.0000000000000000e+00" cType="1" res="-9.3017414212226868e-02" rms="5.3278956413269043e+00" purity="1.0000000000000000e+00" nType="-99"/>
    </BinaryTree>
    <BinaryTree type="DecisionTree" boostWeight="1.0000000000000000e+00" itree="3">
      <Node pos="s" depth="0" NCoef="0" IVar="-1" Cut="0.0000000000000000e+00" cType="1" res="-7.9322777688503265e-02" rms="5.0305080413818359e+00" purity="1.0000000000000000e+00" nType="-99"/>
    </BinaryTree>
    <BinaryTree type="DecisionTree" boostWeight="1.0000000000000000e+00" itree="4">
      <Node pos="s" depth="0" NCoef="0" IVar="0" Cut="3.7055754661560059e+00" cType="1" res="1.8141485750675201e-01" rms="4.8112702369689941e+00" purity="1.0000000000000000e+00" nType="0">
        <Node pos="l" depth="1" NCoef="0" IVar="0" Cut="1.0674188137054443e+00" cType="1" res="1.8234416842460632e-01" rms="4.8070549964904785e+00" purity="1.0000000000000000e+00" nType="0">
          <Node pos="l" depth="2" NCoef="0" IVar="-1" Cut="0.0000000000000000e+00" cType="1" res="-6.0174435377120972e-01" rms="4.7085909843444824e+00" purity="1.0000000000000000e+00" nType="-99"/>
          <Node pos="r" depth="2" NCoef="0" IVar="-1" Cut="0.0000000000000000e+00" cType="1" res="1.1876609325408936e+00" rms="4.7954998016357422e+00" purity="1.0000000000000000e+00" nType="-99"/>
        </Node>
        <Node pos="r" depth="1" NCoef="0" IVar="-1" Cut="0.0000000000000000e+00" cType="1" res="2.8120364993810654e-02" rms="5.5939345359802246e+00" purity="1.0000000000000000e+00" nType="-99"/>
      </Node>
    </BinaryTree>
    <BinaryTree type="DecisionTree" boostWeight="1.0000000000000000e+00" itree="5">
      <Node pos="s" depth="0" NCoef="0" IVar="0" Cut="1.5688811540603638e+00" cType="1" res="9.2680051922798157e-02" rms="4.7257585525512695e+00" purity="1.0000000000000000e+00" nType="0">
        <Node pos="l" depth="1" NCoef="0" IVar="0" Cut="3.8810458779335022e-01" cType="1" res="-3.9714284241199493e-02" rms="4.6323733329772949e+00" purity="1.0000000000000000e+00" nType="0">
          <Node pos="l" depth="2" NCoef="0" IVar="-1" Cut="0.0000000000000000e+00" cType="1" res="-7.4283680915832520e+00" rms="4.5770883560180664e+00" purity="1.0000000000000000e+00" nType="-99"/>
          <Node pos="r" depth="2" NCoef="0" IVar="-1" Cut="0.0000000000000000e+00" cType="1" res="1.2133051641285419e-02" rms="4.5811333656311035e+00" purity="1.0000000000000000e+00" nType="-99"/>
        </Node>
        <Node pos="r" depth="1" NCoef="0" IVar="0" Cut="2.2703166007995605e+00" cType="1" res="1.3144274950027466e+00" rms="5.3612399101257324e+00" purity="1.0000000000000000e+00" nType="0">
          <Node pos="l" depth="2" NCoef="0" IVar="-1" Cut="0.0000000000000000e+00" cType="1" res="1.9695856571197510e+00" rms="4.9908709526062012e+00" purity="1.0000000000000000e+00" nType="-99"/>
          <Node pos="r" depth="2" NCoef="0" IVar="-1" Cut="0.0000000000000000e+00" cType="1" res="-8.3584994077682495e-02" rms="6.3741626739501953e+00" purity="1.0000000000000000e+00" nType="-99"/>
        </Node>
      </Node>
    </BinaryTree>
    <BinaryTree type="DecisionTree" boostWeight="1.0000000000000000e+00" itree="6">
      <Node pos="s" depth="0" NCoef="0" IVar="-1" Cut="0.0000000000000000e+00" cType="1" res="3.6201064940541983e-03" rms="4.6303677558898926e+00" purity="1.0000000000000000e+00" nType="-99"/>
    </BinaryTree>
    <BinaryTree type="DecisionTree" boostWeight="1.0000000000000000e+00" itree="7">
      <Node pos="s" depth="0" NCoef="0" IVar="0" Cut="1.8438208103179932e+00" cType="1" res="4.0323179215192795e-02" rms="4.5410203933715820e+00" purity="1.0000000000000000e+00" nType="0">
        <Node pos="l" depth="1" NCoef="0" IVar="0" Cut="7.1030467748641968e-01" cType="1" res="2.2623436525464058e-02" rms="4.5124430656433105e+00" purity="1.0000000000000000e+00" nType="0">
          <Node pos="l" depth="2" NCoef="0" IVar="-1" Cut="0.0000000000000000e+00" cType="1" res="1.6739934682846069e+00" rms="4.8354439735412598e+00" purity="1.0000000000000000e+00" nType="-99"/>
          <Node pos="r" depth="2" NCoef="0" IVar="-1" Cut="0.0000000000000000e+00" cType="1" res="-2.8953149914741516e-01" rms="4.4349226951599121e+00" purity="1.0000000000000000e+00" nType="-99"/>
        </Node>
        <Node pos="r" depth="1" NCoef="0" IVar="0" Cut="2.6718764305114746e+00" cType="1" res="4.3071001768112183e-01" rms="5.1154603958129883e+00" purity="1.0000000000000000e+00" nType="0">
          <Node pos="l" depth="2" NCoef="0" IVar="-1" Cut="0.0000000000000000e+00" cType="1" res="4.5935985445976257e-01" rms="5.1718726158142090e+00" purity="1.0000000000000000e+00" nType="-99"/>
          <Node pos="r" depth="2" NCoef="0" IVar="-1" Cut="0.0000000000000000e+00" cType="1" res="-2.5228258967399597e-01" rms="4.8998513221740723e+00" purity="1.0000000000000000e+00" nType="-99"/>
        </Node>
      </Node>
    </BinaryTree>
    <BinaryTree type="DecisionTree" boostWeight="1.0000000000000000e+00" itree="8">
      <Node pos="s" depth="0" NCoef="0" IVar="0" Cut="9.2868512868881226e-01" cType="1" res="4.8483997583389282e-02" rms="4.4738135337829590e+00" purity="1.0000000000000000e+00" nType="0">
        <Node pos="l" depth="1" NCoef="0" IVar="0" Cut="4.9288344383239746e-01" cType="1" res="-9.8750613629817963e-02" rms="4.4580922126770020e+00" purity="1.0000000000000000e+00" nType="0">
          <Node pos="l" depth="2" NCoef="0" IVar="-1" Cut="0.0000000000000000e+00" cType="1" res="-2.5710558891296387e+00" rms="4.7206535339355469e+00" purity="1.0000000000000000e+00" nType="-99"/>
          <Node pos="r" depth="2" NCoef="0" IVar="-1" Cut="0.0000000000000000e+00" cType="1" res="2.5796769186854362e-02" rms="4.3905272483825684e+00" purity="1.0000000000000000e+00" nType="-99"/>
        </Node>
        <Node pos="r" depth="1" NCoef="0" IVar="0" Cut="4.4149518013000488e+00" cType="1" res="1.4541441202163696e-01" rms="4.4814939498901367e+00" purity="1.0000000000000000e+00" nType="0">
          <Node pos="l" depth="2" NCoef="0" IVar="-1" Cut="0.0000000000000000e+00" cType="1" res="2.2998878359794617e-01" rms="4.4789719581604004e+00" purity="1.0000000000000000e+00" nType="-99"/>
          <Node pos="r" depth="2" NCoef="0" IVar="-1" Cut="0.0000000000000000e+00" cType="1" res="-1.8160685300827026e+00" rms="4.5243482589721680e+00" purity="1.0000000000000000e+00" nType="-99"/>
        </Node>
      </Node>
    </BinaryTree>
    <BinaryTree type="DecisionTree" boostWeight="1.0000000000000000e+00" itree="9">
      <Node pos="s" depth="0" NCoef="0" IVar="0" Cut="5.7915669679641724e-01" cType="1" res="2.4228835478425026e-02" rms="4.4493536949157715e+00" purity="1.0000000000000000e+00" nType="0">
        <Node pos="l" depth="1" NCoef="0" IVar="0" Cut="1.7951351404190063e-01" cType="1" res="-3.4084901213645935e-01" rms="4.8390350341796875e+00" purity="1.0000000000000000e+00" nType="0">
          <Node pos="l" depth="2" NCoef="0" IVar="-1" Cut="0.0000000000000000e+00" cType="1" res="-1.0066537857055664e+00" rms="4.3914713859558105e+00" purity="1.0000000000000000e+00" nType="-99"/>
          <Node pos="r" depth="2" NCoef="0" IVar="-1" Cut="0.0000000000000000e+00" cType="1" res="4.8171445727348328e-01" rms="4.8561811447143555e+00" purity="1.0000000000000000e+00" nType="-99"/>
        </Node>
        <Node pos="r" depth="1" NCoef="0" IVar="0" Cut="1.6447913646697998e+00" cType="1" res="5.0774719566106796e-02" rms="4.4185028076171875e+00" purity="1.0000000000000000e+00" nType="0">
          <Node pos="l" depth="2" NCoef="0" IVar="-1" Cut="0.0000000000000000e+00" cType="1" res="-5.4383076727390289e-02" rms="4.3713092803955078e+00" purity="1.0000000000000000e+00" nType="-99"/>
          <Node pos="r" depth="2" NCoef="0" IVar="-1" Cut="0.0000000000000000e+00" cType="1" res="4.0183728933334351e-01" rms="4.9160161018371582e+00" purity="1.0000000000000000e+00" nType="-99"/>
        </Node>
      </Node>
    </BinaryTree>
    <BinaryTree type="DecisionTree" boostWeight="1.0000000000000000e+00" itree="10">
      <Node pos="s" depth="0" NCoef="0" IVar="0" Cut="5.5752551555633545e-01" cType="1" res="2.5434490293264389e-02" rms="4.4185571670532227e+00" purity="1.0000000000000000e+00" nType="0">
        <Node pos="l" depth="1" NCoef="0" IVar="0" Cut="4.0197145938873291e-01" cType="1" res="-5.5456286668777466e-01" rms="4.6952805519104004e+00" purity="1.0000000000000000e+00" nType="0">
          <Node pos="l" depth="2" NCoef="0" IVar="-1" Cut="0.0000000000000000e+00" cType="1" res="7.6777952909469604e-01" rms="4.5384893417358398e+00" purity="1.0000000000000000e+00" nType="-99"/>
          <Node pos="r" depth="2" NCoef="0" IVar="-1" Cut="0.0000000000000000e+00" cType="1" res="-1.9258643388748169e+00" rms="4.7206864356994629e+00" purity="1.0000000000000000e+00" nType="-99"/>
        </Node>
        <Node pos="r" depth="1" NCoef="0" IVar="0" Cut="1.0743393898010254e+00" cType="1" res="6.4814448356628418e-02" rms="4.3963642120361328e+00" purity="1.0000000000000000e+00" nType="0">
          <Node pos="l" depth="2" NCoef="0" IVar="-1" Cut="0.0000000000000000e+00" cType="1" res="3.5743534564971924e-01" rms="4.3087487220764160e+00" purity="1.0000000000000000e+00" nType="-99"/>
          <Node pos="r" depth="2" NCoef="0" IVar="-1" Cut="0.0000000000000000e+00" cType="1" res="-3.2503569126129150e-01" rms="4.4916272163391113e+00" purity="1.0000000000000000e+00" nType="-99"/>
        </Node>
      </Node>
    </BinaryTree>
    <BinaryTree type="DecisionTree" boostWeight="1.0000000000000000e+00" itree="11">
      <Node pos="s" depth="0" NCoef="0" IVar="0" Cut="3.7070457935333252e+00" cType="1" res="-1.3958233408629894e-02" rms="4.4129323959350586e+00" purity="1.0000000000000000e+00" nType="0">
        <Node pos="l" depth="1" NCoef="0" IVar="0" Cut="7.1734052896499634e-01" cType="1" res="-9.6844695508480072e-03" rms="4.4064159393310547e+00" purity="1.0000000000000000e+00" nType="0">
          <Node pos="l" depth="2" NCoef="0" IVar="-1" Cut="0.0000000000000000e+00" cType="1" res="6.4902245998382568e-01" rms="4.5182194709777832e+00" purity="1.0000000000000000e+00" nType="-99"/>
          <Node pos="r" depth="2" NCoef="0" IVar="-1" Cut="0.0000000000000000e+00" cType="1" res="-1.8341219425201416e-01" rms="4.3790922164916992e+00" purity="1.0000000000000000e+00" nType="-99"/>
        </Node>
        <Node pos="r" depth="1" NCoef="0" IVar="-1" Cut="0.0000000000000000e+00" cType="1" res="-6.9396376609802246e-01" rms="5.3439893722534180e+00" purity="1.0000000000000000e+00" nType="-99"/>
      </Node>
    </BinaryTree>
    <BinaryTree type="DecisionTree" boostWeight="1.0000000000000000e+00" itree="12">
      <Node pos="s" depth="0" NCoef="0" IVar="-1" Cut="0.0000000000000000e+00" cType="1" res="-5.2186632528901100e-03" rms="4.3974680900573730e+00" purity="1.0000000000000000e+00" nType="-99"/>
    </BinaryTree>
    <BinaryTree type="DecisionTree" boostWeight="1.0000000000000000e+00" itree="13">
      <Node pos="s" depth="0" NCoef="0" IVar="0" Cut="9.3456310033798218e-01" cType="1" res="-2.4848271161317825e-02" rms="4.4082989692687988e+00" purity="1.0000000000000000e+00" nType="0">
        <Node pos="l" depth="1" NCoef="0" IVar="0" Cut="7.6024091243743896e-01" cType="1" res="-2.4515378475189209e-01" rms="4.3746676445007324e+00" purity="1.0000000000000000e+00" nType="0">
          <Node pos="l" depth="2" NCoef="0" IVar="-1" Cut="0.0000000000000000e+00" cType="1" res="-2.4815379083156586e-01" rms="4.5371356010437012e+00" purity="1.0000000000000000e+00" nType="-99"/>
          <Node pos="r" depth="2" NCoef="0" IVar="-1" Cut="0.0000000000000000e+00" cType="1" res="-5.1493787765502930e-01" rms="4.2053003311157227e+00" purity="1.0000000000000000e+00" nType="-99"/>
        </Node>
        <Node pos="r" depth="1" NCoef="0" IVar="0" Cut="4.4197993278503418e+00" cType="1" res="1.2590558826923370e-01" rms="4.4248495101928711e+00" purity="1.0000000000000000e+00" nType="0">
          <Node pos="l" depth="2" NCoef="0" IVar="-1" Cut="0.0000000000000000e+00" cType="1" res="2.2564476728439331e-01" rms="4.4195909500122070e+00" purity="1.0000000000000000e+00" nType="-99"/>
          <Node pos="r" depth="2" NCoef="0" IVar="-1" Cut="0.0000000000000000e+00" cType="1" res="-1.3467074632644653e+00" rms="5.2516698837280273e+00" purity="1.0000000000000000e+00" nType="-99"/>
        </Node>
      </Node>
    </BinaryTree>
    <BinaryTree type="DecisionTree" boostWeight="1.0000000000000000e+00" itree="14">
      <Node pos="s" depth="0" NCoef="0" IVar="0" Cut="3.6752886772155762e+00" cType="1" res="5.9273585677146912e-02" rms="4.3884515762329102e+00" purity="1.0000000000000000e+00" nType="0">
        <Node pos="l" depth="1" NCoef="0" IVar="0" Cut="2.4419550895690918e+00" cType="1" res="5.0557069480419159e-02" rms="4.3806982040405273e+00" purity="1.0000000000000000e+00" nType="0">
          <Node pos="l" depth="2" NCoef="0" IVar="-1" Cut="0.0000000000000000e+00" cType="1" res="1.0117436200380325e-01" rms="4.3740620613098145e+00" purity="1.0000000000000000e+00" nType="-99"/>
          <Node pos="r" depth="2" NCoef="0" IVar="-1" Cut="0.0000000000000000e+00" cType="1" res="-2.0255756378173828e+00" rms="4.6835923194885254e+00" purity="1.0000000000000000e+00" nType="-99"/>
        </Node>
        <Node pos="r" depth="1" NCoef="0" IVar="0" Cut="4.4209704399108887e+00" cType="1" res="1.4215537309646606e+00" rms="5.2930631637573242e+00" purity="1.0000000000000000e+00" nType="0">
          <Node pos="l" depth="2" NCoef="0" IVar="-1" Cut="0.0000000000000000e+00" cType="1" res="4.5515913963317871e+00" rms="4.9053912162780762e+00" purity="1.0000000000000000e+00" nType="-99"/>
          <Node pos="r" depth="2" NCoef="0" IVar="-1" Cut="0.0000000000000000e+00" cType="1" res="3.6003453731536865e+00" rms="5.4658474922180176e+00" purity="1.0000000000000000e+00" nType="-99"/>
        </Node>
      </Node>
    </BinaryTree>
    <BinaryTree type="DecisionTree" boostWeight="1.0000000000000000e+00" itree="15">
      <Node pos="s" depth="0" NCoef="0" IVar="-1" Cut="0.0000000000000000e+00" cType="1" res="-1.5748237073421478e-01" rms="4.4049401283264160e+00" purity="1.0000000000000000e+00" nType="-99"/>
    </BinaryTree>
    <BinaryTree type="DecisionTree" boostWeight="1.0000000000000000e+00" itree="16">
      <Node pos="s" depth="0" NCoef="0" IVar="0" Cut="4.9975180625915527e+00" cType="1" res="3.4718785434961319e-02" rms="4.4035186767578125e+00" purity="1.0000000000000000e+00" nType="0">
        <Node pos="l" depth="1" NCoef="0" IVar="0" Cut="1.4098440408706665e+00" cType="1" res="3.9826698601245880e-02" rms="4.4015336036682129e+00" purity="1.0000000000000000e+00" nType="0">
          <Node pos="l" depth="2" NCoef="0" IVar="-1" Cut="0.0000000000000000e+00" cType="1" res="5.3294524550437927e-02" rms="4.3439373970031738e+00" purity="1.0000000000000000e+00" nType="-99"/>
          <Node pos="r" depth="2" NCoef="0" IVar="-1" Cut="0.0000000000000000e+00" cType="1" res="5.6370723247528076e-01" rms="4.7108130455017090e+00" purity="1.0000000000000000e+00" nType="-99"/>
        </Node>
        <Node pos="r" depth="1" NCoef="0" IVar="-1" Cut="0.0000000000000000e+00" cType="1" res="-3.7130661010742188e+00" rms="4.7209658622741699e+00" purity="1.0000000000000000e+00" nType="-99"/>
      </Node>
    </BinaryTree>
    <BinaryTree type="DecisionTree" boostWeight="1.0000000000000000e+00" itree="17">
      <Node pos="s" depth="0" NCoef="0" IVar="-1" Cut="0.0000000000000000e+00" cType="1" res="-6.8343885242938995e-02" rms="4.3980450630187988e+00" purity="1.0000000000000000e+00" nType="-99"/>
    </BinaryTree>
    <BinaryTree type="DecisionTree" boostWeight="1.0000000000000000e+00" itree="18">
      <Node pos="s" depth="0" NCoef="0" IVar="-1" Cut="0.0000000000000000e+00" cType="1" res="3.9909835904836655e-02" rms="4.3931713104248047e+00" purity="1.0000000000000000e+00" nType="-99"/>
    </BinaryTree>
    <BinaryTree type="DecisionTree" boostWeight="1.0000000000000000e+00" itree="19">
      <Node pos="s" depth="0" NCoef="0" IVar="-1" Cut="0.0000000000000000e+00" cType="1" res="4.7368858009576797e-02" rms="4.3795318603515625e+00" purity="1.0000000000000000e+00" nType="-99"/>
    </BinaryTree>
    <BinaryTree type="DecisionTree" boostWeight="1.0000000000000000e+00" itree="20">
      <Node pos="s" depth="0" NCoef="0" IVar="0" Cut="3.7101867198944092e+00" cType="1" res="-1.3892271555960178e-02" rms="4.3929867744445801e+00" purity="1.0000000000000000e+00" nType="0">
        <Node pos="l" depth="1" NCoef="0" IVar="0" Cut="1.9479489326477051e+00" cType="1" res="-1.0798216797411442e-02" rms="4.3880181312561035e+00" purity="1.0000000000000000e+00" nType="0">
          <Node pos="l" depth="2" NCoef="0" IVar="-1" Cut="0.0000000000000000e+00" cType="1" res="-8.0734230577945709e-02" rms="4.3634176254272461e+00" purity="1.0000000000000000e+00" nType="-99"/>
          <Node pos="r" depth="2" NCoef="0" IVar="-1" Cut="0.0000000000000000e+00" cType="1" res="1.8264237642288208e+00" rms="5.0304751396179199e+00" purity="1.0000000000000000e+00" nType="-99"/>
        </Node>
        <Node pos="r" depth="1" NCoef="0" IVar="-1" Cut="0.0000000000000000e+00" cType="1" res="-1.0945901870727539e+00" rms="5.2208518981933594e+00" purity="1.0000000000000000e+00" nType="-99"/>
      </Node>
    </BinaryTree>
    <BinaryTree type="DecisionTree" boostWeight="1.0000000000000000e+00" itree="21">
      <Node pos="s" depth="0" NCoef="0" IVar="-1" Cut="0.0000000000000000e+00" cType="1" res="-1.0831196606159210e-01" rms="4.4057688713073730e+00" purity="1.0000000000000000e+00" nType="-99"/>
    </BinaryTree>
    <BinaryTree type="DecisionTree" boostWeight="1.0000000000000000e+00" itree="22">
      <Node pos="s" depth="0" NCoef="0" IVar="-1" Cut="0.0000000000000000e+00" cType="1" res="1.2958917021751404e-01" rms="4.3835926055908203e+00" purity="1.0000000000000000e+00" nType="-99"/>
    </BinaryTree>
    <BinaryTree type="DecisionTree" boostWeight="1.0000000000000000e+00" itree="23">
      <Node pos="s" depth="0" NCoef="0" IVar="0" Cut="3.7101867198944092e+00" cType="1" res="4.0212620049715042e-02" rms="4.3634009361267090e+00" purity="1.0000000000000000e+00" nType="0">
        <Node pos="l" depth="1" NCoef="0" IVar="0" Cut="1.5971202850341797e+00" cType="1" res="3.8155231624841690e-02" rms="4.3563213348388672e+00" purity="1.0000000000000000e+00" nType="0">
          <Node pos="l" depth="2" NCoef="0" IVar="-1" Cut="0.0000000000000000e+00" cType="1" res="7.0902504026889801e-02" rms="4.3198752403259277e+00" purity="1.0000000000000000e+00" nType="-99"/>
          <Node pos="r" depth="2" NCoef="0" IVar="-1" Cut="0.0000000000000000e+00" cType="1" res="-7.5761973857879639e-01" rms="4.7153167724609375e+00" purity="1.0000000000000000e+00" nType="-99"/>
        </Node>
        <Node pos="r" depth="1" NCoef="0" IVar="-1" Cut="0.0000000000000000e+00" cType="1" res="1.8547472953796387e+00" rms="5.4218664169311523e+00" purity="1.0000000000000000e+00" nType="-99"/>
      </Node>
    </BinaryTree>
    <BinaryTree type="DecisionTree" boostWeight="1.0000000000000000e+00" itree="24">
      <Node pos="s" depth="0" NCoef="0" IVar="-1" Cut="0.0000000000000000e+00" cType="1" res="-3.5573899745941162e-02" rms="4.3971214294433594e+00" purity="1.0000000000000000e+00" nType="-99"/>
    </BinaryTree>
    <BinaryTree type="DecisionTree" boostWeight="1.0000000000000000e+00" itree="25">
      <Node pos="s" depth="0" NCoef="0" IVar="0" Cut="3.7069830894470215e+00" cType="1" res="-5.3099254146218300e-03" rms="4.3859782218933105e+00" purity="1.0000000000000000e+00" nType="0">
        <Node pos="l" depth="1" NCoef="0" IVar="0" Cut="3.1751966476440430e+00" cType="1" res="-3.7308391183614731e-03" rms="4.3800020217895508e+00" purity="1.0000000000000000e+00" nType="0">
          <Node pos="l" depth="2" NCoef="0" IVar="-1" Cut="0.0000000000000000e+00" cType="1" res="-1.2887824326753616e-02" rms="4.3793954849243164e+00" purity="1.0000000000000000e+00" nType="-99"/>
          <Node pos="r" depth="2" NCoef="0" IVar="-1" Cut="0.0000000000000000e+00" cType="1" res="2.6841213703155518e+00" rms="4.2307372093200684e+00" purity="1.0000000000000000e+00" nType="-99"/>
        </Node>
        <Node pos="r" depth="1" NCoef="0" IVar="-1" Cut="0.0000000000000000e+00" cType="1" res="-3.4144741296768188e-01" rms="5.2835588455200195e+00" purity="1.0000000000000000e+00" nType="-99"/>
      </Node>
    </BinaryTree>
    <BinaryTree type="DecisionTree" boostWeight="1.0000000000000000e+00" itree="26">
      <Node pos="s" depth="0" NCoef="0" IVar="0" Cut="5.5043635368347168e+00" cType="1" res="4.2473621666431427e-02" rms="4.4021697044372559e+00" purity="1.0000000000000000e+00" nType="0">
        <Node pos="l" depth="1" NCoef="0" IVar="0" Cut="7.9743695259094238e-01" cType="1" res="3.8421727716922760e-02" rms="4.3982009887695312e+00" purity="1.0000000000000000e+00" nType="0">
          <Node pos="l" depth="2" NCoef="0" IVar="-1" Cut="0.0000000000000000e+00" cType="1" res="-9.8805949091911316e-02" rms="4.4242091178894043e+00" purity="1.0000000000000000e+00" nType="-99"/>
          <Node pos="r" depth="2" NCoef="0" IVar="-1" Cut="0.0000000000000000e+00" cType="1" res="1.1369939893484116e-01" rms="4.3894643783569336e+00" purity="1.0000000000000000e+00" nType="-99"/>
        </Node>
        <Node pos="r" depth="1" NCoef="0" IVar="-1" Cut="0.0000000000000000e+00" cType="1" res="3.8610219955444336e+00" rms="5.5085692405700684e+00" purity="1.0000000000000000e+00" nType="-99"/>
      </Node>
    </BinaryTree>
    <BinaryTree type="DecisionTree" boostWeight="1.0000000000000000e+00" itree="27">
      <Node pos="s" depth="0" NCoef="0" IVar="0" Cut="2.5101449489593506e+00" cType="1" res="-9.0070590376853943e-02" rms="4.3751649856567383e+00" purity="1.0000000000000000e+00" nType="0">
        <Node pos="l" depth="1" NCoef="0" IVar="0" Cut="1.2043973207473755e+00" cType="1" res="-7.9805292189121246e-02" rms="4.3654465675354004e+00" purity="1.0000000000000000e+00" nType="0">
          <Node pos="l" depth="2" NCoef="0" IVar="-1" Cut="0.0000000000000000e+00" cType="1" res="-2.1666295826435089e-01" rms="4.2942156791687012e+00" purity="1.0000000000000000e+00" nType="-99"/>
          <Node pos="r" depth="2" NCoef="0" IVar="-1" Cut="0.0000000000000000e+00" cType="1" res="4.5588746666908264e-02" rms="4.5498962402343750e+00" purity="1.0000000000000000e+00" nType="-99"/>
        </Node>
        <Node pos="r" depth="1" NCoef="0" IVar="0" Cut="4.8952288627624512e+00" cType="1" res="-7.2188448905944824e-01" rms="4.8953809738159180e+00" purity="1.0000000000000000e+00" nType="0">
          <Node pos="l" depth="2" NCoef="0" IVar="-1" Cut="0.0000000000000000e+00" cType="1" res="-1.3830089569091797e+00" rms="4.8254718780517578e+00" purity="1.0000000000000000e+00" nType="-99"/>
          <Node pos="r" depth="2" NCoef="0" IVar="-1" Cut="0.0000000000000000e+00" cType="1" res="-7.1210855245590210e-01" rms="5.0746474266052246e+00" purity="1.0000000000000000e+00" nType="-99"/>
        </Node>
      </Node>
    </BinaryTree>
    <BinaryTree type="DecisionTree" boostWeight="1.0000000000000000e+00" itree="28">
      <Node pos="s" depth="0" NCoef="0" IVar="-1" Cut="0.0000000000000000e+00" cType="1" res="7.2275757789611816e-02" rms="4.3557963371276855e+00" purity="1.0000000000000000e+00" nType="-99"/>
    </BinaryTree>
    <BinaryTree type="DecisionTree" boostWeight="1.0000000000000000e+00" itree="29">
      <Node pos="s" depth="0" NCoef="0" IVar="0" Cut="9.2868512868881226e-01" cType="1" res="2.4456521496176720e-02" rms="4.3521318435668945e+00" purity="1.0000000000000000e+00" nType="0">
        <Node pos="l" depth="1" NCoef="0" IVar="0" Cut="8.8503640890121460e-01" cType="1" res="1.5652348101139069e-01" rms="4.3056464195251465e+00" purity="1.0000000000000000e+00" nType="0">
          <Node pos="l" depth="2" NCoef="0" IVar="-1" Cut="0.0000000000000000e+00" cType="1" res="1.2949949502944946e-01" rms="4.3408737182617188e+00" purity="1.0000000000000000e+00" nType="-99"/>
          <Node pos="r" depth="2" NCoef="0" IVar="-1" Cut="0.0000000000000000e+00" cType="1" res="8.4134715795516968e-01" rms="4.0564308166503906e+00" purity="1.0000000000000000e+00" nType="-99"/>
        </Node>
        <Node pos="r" depth="1" NCoef="0" IVar="0" Cut="3.5433621406555176e+00" cType="1" res="-6.4516760408878326e-02" rms="4.3809266090393066e+00" purity="1.0000000000000000e+00" nType="0">
          <Node pos="l" depth="2" NCoef="0" IVar="-1" Cut="0.0000000000000000e+00" cType="1" res="-1.1845805495977402e-01" rms="4.3747305870056152e+00" purity="1.0000000000000000e+00" nType="-99"/>
          <Node pos="r" depth="2" NCoef="0" IVar="-1" Cut="0.0000000000000000e+00" cType="1" res="-8.8555490970611572e-01" rms="4.9568619728088379e+00" purity="1.0000000000000000e+00" nType="-99"/>
        </Node>
      </Node>
    </BinaryTree>
    <BinaryTree type="DecisionTree" boostWeight="1.0000000000000000e+00" itree="30">
      <Node pos="s" depth="0" NCoef="0" IVar="-1" Cut="0.0000000000000000e+00" cType="1" res="6.8097591400146484e-02" rms="4.3539285659790039e+00" purity="1.0000000000000000e+00" nType="-99"/>
    </BinaryTree>
    <BinaryTree type="DecisionTree" boostWeight="1.0000000000000000e+00" itree="31">
      <Node pos="s" depth="0" NCoef="0" IVar="0" Cut="2.5069413185119629e+00" cType="1" res="-1.0762353427708149e-02" rms="4.3557796478271484e+00" purity="1.0000000000000000e+00" nType="0">
        <Node pos="l" depth="1" NCoef="0" IVar="0" Cut="1.4168001413345337e+00" cType="1" res="-4.9365130253136158e-03" rms="4.3445305824279785e+00" purity="1.0000000000000000e+00" nType="0">
          <Node pos="l" depth="2" NCoef="0" IVar="-1" Cut="0.0000000000000000e+00" cType="1" res="-8.1261042505502701e-03" rms="4.2953758239746094e+00" purity="1.0000000000000000e+00" nType="-99"/>
          <Node pos="r" depth="2" NCoef="0" IVar="-1" Cut="0.0000000000000000e+00" cType="1" res="-4.4744858145713806e-01" rms="4.6375012397766113e+00" purity="1.0000000000000000e+00" nType="-99"/>
        </Node>
        <Node pos="r" depth="1" NCoef="0" IVar="0" Cut="4.8821568489074707e+00" cType="1" res="-3.7698325514793396e-01" rms="4.9988956451416016e+00" purity="1.0000000000000000e+00" nType="0">
          <Node pos="l" depth="2" NCoef="0" IVar="-1" Cut="0.0000000000000000e+00" cType="1" res="-5.4283875972032547e-02" rms="4.8940339088439941e+00" purity="1.0000000000000000e+00" nType="-99"/>
          <Node pos="r" depth="2" NCoef="0" IVar="-1" Cut="0.0000000000000000e+00" cType="1" res="1.7492353916168213e+00" rms="5.4612603187561035e+00" purity="1.0000000000000000e+00" nType="-99"/>
        </Node>
      </Node>
    </BinaryTree>
    <BinaryTree type="DecisionTree" boostWeight="1.0000000000000000e+00" itree="32">
      <Node pos="s" depth="0" NCoef="0" IVar="-1" Cut="0.0000000000000000e+00" cType="1" res="9.8443571478128433e-03" rms="4.3681292533874512e+00" purity="1.0000000000000000e+00" nType="-99"/>
    </BinaryTree>
    <BinaryTree type="DecisionTree" boostWeight="1.0000000000000000e+00" itree="33">
      <Node pos="s" depth="0" NCoef="0" IVar="0" Cut="3.7055754661560059e+00" cType="1" res="-1.6175970435142517e-02" rms="4.3712468147277832e+00" purity="1.0000000000000000e+00" nType="0">
        <Node pos="l" depth="1" NCoef="0" IVar="0" Cut="7.1609079837799072e-01" cType="1" res="-9.6280965954065323e-03" rms="4.3674755096435547e+00" purity="1.0000000000000000e+00" nType="0">
          <Node pos="l" depth="2" NCoef="0" IVar="-1" Cut="0.0000000000000000e+00" cType="1" res="3.9443999528884888e-01" rms="4.5093641281127930e+00" purity="1.0000000000000000e+00" nType="-99"/>
          <Node pos="r" depth="2" NCoef="0" IVar="-1" Cut="0.0000000000000000e+00" cType="1" res="-9.7754478454589844e-02" rms="4.3395419120788574e+00" purity="1.0000000000000000e+00" nType="-99"/>
        </Node>
        <Node pos="r" depth="1" NCoef="0" IVar="-1" Cut="0.0000000000000000e+00" cType="1" res="-2.0802326202392578e+00" rms="4.8826189041137695e+00" purity="1.0000000000000000e+00" nType="-99"/>
      </Node>
    </BinaryTree>
    <BinaryTree type="DecisionTree" boostWeight="1.0000000000000000e+00" itree="34">
      <Node pos="s" depth="0" NCoef="0" IVar="0" Cut="4.9989147186279297e+00" cType="1" res="2.4235956370830536e-02" rms="4.4015841484069824e+00" purity="1.0000000000000000e+00" nType="0">
        <Node pos="l" depth="1" NCoef="0" IVar="0" Cut="1.1774688959121704e+00" cType="1" res="2.7501571923494339e-02" rms="4.3990173339843750e+00" purity="1.0000000000000000e+00" nType="0">
          <Node pos="l" depth="2" NCoef="0" IVar="-1" Cut="0.0000000000000000e+00" cType="1" res="-9.5477491617202759e-02" rms="4.3032622337341309e+00" purity="1.0000000000000000e+00" nType="-99"/>
          <Node pos="r" depth="2" NCoef="0" IVar="-1" Cut="0.0000000000000000e+00" cType="1" res="3.9752709865570068e-01" rms="4.5984139442443848e+00" purity="1.0000000000000000e+00" nType="-99"/>
        </Node>
        <Node pos="r" depth="1" NCoef="0" IVar="-1" Cut="0.0000000000000000e+00" cType="1" res="-5.0399112701416016e-01" rms="5.1442918777465820e+00" purity="1.0000000000000000e+00" nType="-99"/>
      </Node>
    </BinaryTree>
    <BinaryTree type="DecisionTree" boostWeight="1.0000000000000000e+00" itree="35">
      <Node pos="s" depth="0" NCoef="0" IVar="0" Cut="3.7108938694000244e+00" cType="1" res="-2.9853429645299911e-02" rms="4.3977441787719727e+00" purity="1.0000000000000000e+00" nType="0">
        <Node pos="l" depth="1" NCoef="0" IVar="0" Cut="3.0004138946533203e+00" cType="1" res="-2.8962960466742516e-02" rms="4.3928709030151367e+00" purity="1.0000000000000000e+00" nType="0">
          <Node pos="l" depth="2" NCoef="0" IVar="-1" Cut="0.0000000000000000e+00" cType="1" res="-7.5663879513740540e-02" rms="4.3922147750854492e+00" purity="1.0000000000000000e+00" nType="-99"/>
          <Node pos="r" depth="2" NCoef="0" IVar="-1" Cut="0.0000000000000000e+00" cType="1" res="2.0083248615264893e+00" rms="4.3112454414367676e+00" purity="1.0000000000000000e+00" nType="-99"/>
        </Node>
        <Node pos="r" depth="1" NCoef="0" IVar="-1" Cut="0.0000000000000000e+00" cType="1" res="1.5320504903793335e+00" rms="5.1636099815368652e+00" purity="1.0000000000000000e+00" nType="-99"/>
      </Node>
    </BinaryTree>
    <BinaryTree type="DecisionTree" boostWeight="1.0000000000000000e+00" itree="36">
      <Node pos="s" depth="0" NCoef="0" IVar="0" Cut="3.7055754661560059e+00" cType="1" res="1.8957732245326042e-02" rms="4.3717961311340332e+00" purity="1.0000000000000000e+00" nType="0">
        <Node pos="l" depth="1" NCoef="0" IVar="0" Cut="3.1749856472015381e+00" cType="1" res="2.1093320101499557e-02" rms="4.3657627105712891e+00" purity="1.0000000000000000e+00" nType="0">
          <Node pos="l" depth="2" NCoef="0" IVar="-1" Cut="0.0000000000000000e+00" cType="1" res="3.9890911430120468e-02" rms="4.3666915893554688e+00" purity="1.0000000000000000e+00" nType="-99"/>
          <Node pos="r" depth="2" NCoef="0" IVar="-1" Cut="0.0000000000000000e+00" cType="1" res="8.7416207790374756e-01" rms="3.5186161994934082e+00" purity="1.0000000000000000e+00" nType="-99"/>
        </Node>
        <Node pos="r" depth="1" NCoef="0" IVar="-1" Cut="0.0000000000000000e+00" cType="1" res="-1.4163058996200562e+00" rms="5.5436511039733887e+00" purity="1.0000000000000000e+00" nType="-99"/>
      </Node>
    </BinaryTree>
    <BinaryTree type="DecisionTree" boostWeight="1.0000000000000000e+00" itree="37">
      <Node pos="s" depth="0" NCoef="0" IVar="0" Cut="3.7070457935333252e+00" cType="1" res="3.2469015568494797e-02" rms="4.3913207054138184e+00" purity="1.0000000000000000e+00" nType="0">
        <Node pos="l" depth="1" NCoef="0" IVar="0" Cut="7.1737873554229736e-01" cType="1" res="3.3436916768550873e-02" rms="4.3845443725585938e+00" purity="1.0000000000000000e+00" nType="0">
          <Node pos="l" depth="2" NCoef="0" IVar="-1" Cut="0.0000000000000000e+00" cType="1" res="-2.6316046714782715e-01" rms="4.5032119750976562e+00" purity="1.0000000000000000e+00" nType="-99"/>
          <Node pos="r" depth="2" NCoef="0" IVar="-1" Cut="0.0000000000000000e+00" cType="1" res="9.1031558811664581e-02" rms="4.3605842590332031e+00" purity="1.0000000000000000e+00" nType="-99"/>
        </Node>
        <Node pos="r" depth="1" NCoef="0" IVar="-1" Cut="0.0000000000000000e+00" cType="1" res="3.8044878840446472e-01" rms="5.5678873062133789e+00" purity="1.0000000000000000e+00" nType="-99"/>
      </Node>
    </BinaryTree>
    <BinaryTree type="DecisionTree" boostWeight="1.0000000000000000e+00" itree="38">
      <Node pos="s" depth="0" NCoef="0" IVar="0" Cut="3.7101867198944092e+00" cType="1" res="1.7226844793185592e-03" rms="4.3777098655700684e+00" purity="1.0000000000000000e+00" nType="0">
        <Node pos="l" depth="1" NCoef="0" IVar="0" Cut="2.8250205516815186e+00" cType="1" res="2.8763627051375806e-04" rms="4.3732061386108398e+00" purity="1.0000000000000000e+00" nType="0">
          <Node pos="l" depth="2" NCoef="0" IVar="-1" Cut="0.0000000000000000e+00" cType="1" res="-3.4430291503667831e-02" rms="4.3722925186157227e+00" purity="1.0000000000000000e+00" nType="-99"/>
          <Node pos="r" depth="2" NCoef="0" IVar="-1" Cut="0.0000000000000000e+00" cType="1" res="-2.2608573436737061e+00" rms="4.2830028533935547e+00" purity="1.0000000000000000e+00" nType="-99"/>
        </Node>
        <Node pos="r" depth="1" NCoef="0" IVar="-1" Cut="0.0000000000000000e+00" cType="1" res="1.7213842868804932e+00" rms="5.2114038467407227e+00" purity="1.0000000000000000e+00" nType="-99"/>
      </Node>
    </BinaryTree>
    <BinaryTree type="DecisionTree" boostWeight="1.0000000000000000e+00" itree="39">
      <Node pos="s" depth="0" NCoef="0" IVar="-1" Cut="0.0000000000000000e+00" cType="1" res="-7.2152614593505859e-02" rms="4.3746771812438965e+00" purity="1.0000000000000000e+00" nType="-99"/>
    </BinaryTree>
    <BinaryTree type="DecisionTree" boostWeight="1.0000000000000000e+00" itree="40">
      <Node pos="s" depth="0" NCoef="0" IVar="-1" Cut="0.0000000000000000e+00" cType="1" res="1.0613730549812317e-01" rms="4.3817238807678223e+00" purity="1.0000000000000000e+00" nType="-99"/>
    </BinaryTree>
    <BinaryTree type="DecisionTree" boostWeight="1.0000000000000000e+00" itree="41">
      <Node pos="s" depth="0" NCoef="0" IVar="0" Cut="3.7055754661560059e+00" cType="1" res="-5.0848849117755890e-02" rms="4.3647022247314453e+00" purity="1.0000000000000000e+00" nType="0">
        <Node pos="l" depth="1" NCoef="0" IVar="0" Cut="1.0674188137054443e+00" cType="1" res="-5.4954871535301208e-02" rms="4.3621087074279785e+00" purity="1.0000000000000000e+00" nType="0">
          <Node pos="l" depth="2" NCoef="0" IVar="-1" Cut="0.0000000000000000e+00" cType="1" res="2.1672623232007027e-02" rms="4.2985234260559082e+00" purity="1.0000000000000000e+00" nType="-99"/>
          <Node pos="r" depth="2" NCoef="0" IVar="-1" Cut="0.0000000000000000e+00" cType="1" res="-3.0389970541000366e-01" rms="4.4417300224304199e+00" purity="1.0000000000000000e+00" nType="-99"/>
        </Node>
        <Node pos="r" depth="1" NCoef="0" IVar="-1" Cut="0.0000000000000000e+00" cType="1" res="1.4487626552581787e+00" rms="4.8173413276672363e+00" purity="1.0000000000000000e+00" nType="-99"/>
      </Node>
    </BinaryTree>
    <BinaryTree type="DecisionTree" boostWeight="1.0000000000000000e+00" itree="42">
      <Node pos="s" depth="0" NCoef="0" IVar="0" Cut="1.1495209932327271e+00" cType="1" res="-4.4427506625652313e-02" rms="4.3891096115112305e+00" purity="1.0000000000000000e+00" nType="0">
        <Node pos="l" depth="1" NCoef="0" IVar="0" Cut="2.3109535872936249e-01" cType="1" res="3.4022640436887741e-02" rms="4.2829055786132812e+00" purity="1.0000000000000000e+00" nType="0">
          <Node pos="l" depth="2" NCoef="0" IVar="-1" Cut="0.0000000000000000e+00" cType="1" res="-9.9346208572387695e-01" rms="4.4255170822143555e+00" purity="1.0000000000000000e+00" nType="-99"/>
          <Node pos="r" depth="2" NCoef="0" IVar="-1" Cut="0.0000000000000000e+00" cType="1" res="5.5107984691858292e-02" rms="4.2797732353210449e+00" purity="1.0000000000000000e+00" nType="-99"/>
        </Node>
        <Node pos="r" depth="1" NCoef="0" IVar="0" Cut="4.2288780212402344e+00" cType="1" res="-2.0012013614177704e-01" rms="4.5886440277099609e+00" purity="1.0000000000000000e+00" nType="0">
          <Node pos="l" depth="2" NCoef="0" IVar="-1" Cut="0.0000000000000000e+00" cType="1" res="-1.7218229174613953e-01" rms="4.5814127922058105e+00" purity="1.0000000000000000e+00" nType="-99"/>
          <Node pos="r" depth="2" NCoef="0" IVar="-1" Cut="0.0000000000000000e+00" cType="1" res="-3.5291891098022461e+00" rms="5.0790529251098633e+00" purity="1.0000000000000000e+00" nType="-99"/>
        </Node>
      </Node>
    </BinaryTree>
    <BinaryTree type="DecisionTree" boostWeight="1.0000000000000000e+00" itree="43">
      <Node pos="s" depth="0" NCoef="0" IVar="-1" Cut="0.0000000000000000e+00" cType="1" res="1.6655379533767700e-01" rms="4.3541498184204102e+00" purity="1.0000000000000000e+00" nType="-99"/>
    </BinaryTree>
    <BinaryTree type="DecisionTree" boostWeight="1.0000000000000000e+00" itree="44">
      <Node pos="s" depth="0" NCoef="0" IVar="-1" Cut="0.0000000000000000e+00" cType="1" res="-6.6663376986980438e-02" rms="4.3753309249877930e+00" purity="1.0000000000000000e+00" nType="-99"/>
    </BinaryTree>
    <BinaryTree type="DecisionTree" boostWeight="1.0000000000000000e+00" itree="45">
      <Node pos="s" depth="0" NCoef="0" IVar="0" Cut="2.5101449489593506e+00" cType="1" res="-2.5283044204115868e-02" rms="4.3558588027954102e+00" purity="1.0000000000000000e+00" nType="0">
        <Node pos="l" depth="1" NCoef="0" IVar="0" Cut="2.2719466686248779e+00" cType="1" res="-1.9618395715951920e-02" rms="4.3454275131225586e+00" purity="1.0000000000000000e+00" nType="0">
          <Node pos="l" depth="2" NCoef="0" IVar="-1" Cut="0.0000000000000000e+00" cType="1" res="-5.1245316863059998e-02" rms="4.3419494628906250e+00" purity="1.0000000000000000e+00" nType="-99"/>
          <Node pos="r" depth="2" NCoef="0" IVar="-1" Cut="0.0000000000000000e+00" cType="1" res="2.6949000358581543e+00" rms="4.5323200225830078e+00" purity="1.0000000000000000e+00" nType="-99"/>
        </Node>
        <Node pos="r" depth="1" NCoef="0" IVar="-1" Cut="0.0000000000000000e+00" cType="1" res="9.1868139803409576e-02" rms="4.9735970497131348e+00" purity="1.0000000000000000e+00" nType="-99"/>
      </Node>
    </BinaryTree>
    <BinaryTree type="DecisionTree" boostWeight="1.0000000000000000e+00" itree="46">
      <Node pos="s" depth="0" NCoef="0" IVar="0" Cut="3.7055754661560059e+00" cType="1" res="2.8670728206634521e-02" rms="4.3813333511352539e+00" purity="1.0000000000000000e+00" nType="0">
        <Node pos="l" depth="1" NCoef="0" IVar="0" Cut="8.9177387952804565e-01" cType="1" res="2.8881600126624107e-02" rms="4.3764715194702148e+00" purity="1.0000000000000000e+00" nType="0">
          <Node pos="l" depth="2" NCoef="0" IVar="-1" Cut="0.0000000000000000e+00" cType="1" res="-1.3220220804214478e-01" rms="4.3676471710205078e+00" purity="1.0000000000000000e+00" nType="-99"/>
          <Node pos="r" depth="2" NCoef="0" IVar="-1" Cut="0.0000000000000000e+00" cType="1" res="1.7353531718254089e-01" rms="4.3795247077941895e+00" purity="1.0000000000000000e+00" nType="-99"/>
        </Node>
        <Node pos="r" depth="1" NCoef="0" IVar="-1" Cut="0.0000000000000000e+00" cType="1" res="7.2227853536605835e-01" rms="5.1242456436157227e+00" purity="1.0000000000000000e+00" nType="-99"/>
      </Node>
    </BinaryTree>
    <BinaryTree type="DecisionTree" boostWeight="1.0000000000000000e+00" itree="47">
      <Node pos="s" depth="0" NCoef="0" IVar="0" Cut="3.7070457935333252e+00" cType="1" res="3.1814642250537872e-02" rms="4.3571028709411621e+00" purity="1.0000000000000000e+00" nType="0">
        <Node pos="l" depth="1" NCoef="0" IVar="0" Cut="2.2975211143493652e+00" cType="1" res="3.3993974328041077e-02" rms="4.3507504463195801e+00" purity="1.0000000000000000e+00" nType="0">
          <Node pos="l" depth="2" NCoef="0" IVar="-1" Cut="0.0000000000000000e+00" cType="1" res="3.3863410353660583e-02" rms="4.3423604965209961e+00" purity="1.0000000000000000e+00" nType="-99"/>
          <Node pos="r" depth="2" NCoef="0" IVar="-1" Cut="0.0000000000000000e+00" cType="1" res="-1.1341886520385742e+00" rms="4.7842688560485840e+00" purity="1.0000000000000000e+00" nType="-99"/>
        </Node>
        <Node pos="r" depth="1" NCoef="0" IVar="-1" Cut="0.0000000000000000e+00" cType="1" res="-6.2122899293899536e-01" rms="5.3998537063598633e+00" purity="1.0000000000000000e+00" nType="-99"/>
      </Node>
    </BinaryTree>
    <BinaryTree type="DecisionTree" boostWeight="1.0000000000000000e+00" itree="48">
      <Node pos="s" depth="0" NCoef="0" IVar="0" Cut="3.7055754661560059e+00" cType="1" res="1.5116061083972454e-02" rms="4.3804473876953125e+00" purity="1.0000000000000000e+00" nType="0">
        <Node pos="l" depth="1" NCoef="0" IVar="0" Cut="1.9456431865692139e+00" cType="1" res="1.8658097833395004e-02" rms="4.3751153945922852e+00" purity="1.0000000000000000e+00" nType="0">
          <Node pos="l" depth="2" NCoef="0" IVar="-1" Cut="0.0000000000000000e+00" cType="1" res="2.3964947089552879e-02" rms="4.3524079322814941e+00" purity="1.0000000000000000e+00" nType="-99"/>
          <Node pos="r" depth="2" NCoef="0" IVar="-1" Cut="0.0000000000000000e+00" cType="1" res="-1.1017851829528809e+00" rms="4.9741878509521484e+00" purity="1.0000000000000000e+00" nType="-99"/>
        </Node>
        <Node pos="r" depth="1" NCoef="0" IVar="-1" Cut="0.0000000000000000e+00" cType="1" res="-1.0988422632217407e+00" rms="5.3039932250976562e+00" purity="1.0000000000000000e+00" nType="-99"/>
      </Node>
    </BinaryTree>
    <BinaryTree type="DecisionTree" boostWeight="1.0000000000000000e+00" itree="49">
      <Node pos="s" depth="0" NCoef="0" IVar="-1" Cut="0.0000000000000000e+00" cType="1" res="3.4849181771278381e-02" rms="4.3951444625854492e+00" purity="1.0000000000000000e+00" nType="-99"/>
    </BinaryTree>
    <BinaryTree type="DecisionTree" boostWeight="1.0000000000000000e+00" itree="50">
      <Node pos="s" depth="0" NCoef="0" IVar="-1" Cut="0.0000000000000000e+00" cType="1" res="-8.7531156837940216e-02" rms="4.3678703308105469e+00" purity="1.0000000000000000e+00" nType="-99"/>
    </BinaryTree>
    <BinaryTree type="DecisionTree" boostWeight="1.0000000000000000e+00" itree="51">
      <Node pos="s" depth="0" NCoef="0" IVar="-1" Cut="0.0000000000000000e+00" cType="1" res="-5.7723306119441986e-02" rms="4.3885903358459473e+00" purity="1.0000000000000000e+00" nType="-99"/>
    </BinaryTree>
    <BinaryTree type="DecisionTree" boostWeight="1.0000000000000000e+00" itree="52">
      <Node pos="s" depth="0" NCoef="0" IVar="-1" Cut="0.0000000000000000e+00" cType="1" res="9.3435280025005341e-02" rms="4.3747735023498535e+00" purity="1.0000000000000000e+00" nType="-99"/>
    </BinaryTree>
    <BinaryTree type="DecisionTree" boostWeight="1.0000000000000000e+00" itree="53">
      <Node pos="s" depth="0" NCoef="0" IVar="0" Cut="2.5123424530029297e+00" cType="1" res="3.6065913736820221e-02" rms="4.3985657691955566e+00" purity="1.0000000000000000e+00" nType="0">
        <Node pos="l" depth="1" NCoef="0" IVar="0" Cut="1.4426782131195068e+00" cType="1" res="1.7644837498664856e-02" rms="4.3845858573913574e+00" purity="1.0000000000000000e+00" nType="0">
          <Node pos="l" depth="2" NCoef="0" IVar="-1" Cut="0.0000000000000000e+00" cType="1" res="-6.8295620381832123e-02" rms="4.3348345756530762e+00" purity="1.0000000000000000e+00" nType="-99"/>
          <Node pos="r" depth="2" NCoef="0" IVar="-1" Cut="0.0000000000000000e+00" cType="1" res="5.7294118404388428e-01" rms="4.7024850845336914e+00" purity="1.0000000000000000e+00" nType="-99"/>
        </Node>
        <Node pos="r" depth="1" NCoef="0" IVar="0" Cut="4.8877563476562500e+00" cType="1" res="1.1878217458724976e+00" rms="5.0672354698181152e+00" purity="1.0000000000000000e+00" nType="0">
          <Node pos="l" depth="2" NCoef="0" IVar="-1" Cut="0.0000000000000000e+00" cType="1" res="3.1761848926544189e+00" rms="4.9754767417907715e+00" purity="1.0000000000000000e+00" nType="-99"/>
          <Node pos="r" depth="2" NCoef="0" IVar="-1" Cut="0.0000000000000000e+00" cType="1" res="9.8633462190628052e-01" rms="5.3895621299743652e+00" purity="1.0000000000000000e+00" nType="-99"/>
        </Node>
      </Node>
    </BinaryTree>
    <BinaryTree type="DecisionTree" boostWeight="1.0000000000000000e+00" itree="54">
      <Node pos="s" depth="0" NCoef="0" IVar="-1" Cut="0.0000000000000000e+00" cType="1" res="1.7789730802178383e-02" rms="4.4014930725097656e+00" purity="1.0000000000000000e+00" nType="-99"/>
    </BinaryTree>
    <BinaryTree type="DecisionTree" boostWeight="1.0000000000000000e+00" itree="55">
      <Node pos="s" depth="0" NCoef="0" IVar="-1" Cut="0.0000000000000000e+00" cType="1" res="-1.0097189992666245e-01" rms="4.3646941184997559e+00" purity="1.0000000000000000e+00" nType="-99"/>
    </BinaryTree>
    <BinaryTree type="DecisionTree" boostWeight="1.0000000000000000e+00" itree="56">
      <Node pos="s" depth="0" NCoef="0" IVar="-1" Cut="0.0000000000000000e+00" cType="1" res="-1.2981974519789219e-02" rms="4.3696293830871582e+00" purity="1.0000000000000000e+00" nType="-99"/>
    </BinaryTree>
    <BinaryTree type="DecisionTree" boostWeight="1.0000000000000000e+00" itree="57">
      <Node pos="s" depth="0" NCoef="0" IVar="0" Cut="4.9989147186279297e+00" cType="1" res="1.6849858686327934e-02" rms="4.3695845603942871e+00" purity="1.0000000000000000e+00" nType="0">
        <Node pos="l" depth="1" NCoef="0" IVar="0" Cut="3.7174608707427979e+00" cType="1" res="1.5405229292809963e-02" rms="4.3671383857727051e+00" purity="1.0000000000000000e+00" nType="0">
          <Node pos="l" depth="2" NCoef="0" IVar="-1" Cut="0.0000000000000000e+00" cType="1" res="6.1859078705310822e-02" rms="4.3661136627197266e+00" purity="1.0000000000000000e+00" nType="-99"/>
          <Node pos="r" depth="2" NCoef="0" IVar="-1" Cut="0.0000000000000000e+00" cType="1" res="-2.5138823986053467e+00" rms="4.4585075378417969e+00" purity="1.0000000000000000e+00" nType="-99"/>
        </Node>
        <Node pos="r" depth="1" NCoef="0" IVar="-1" Cut="0.0000000000000000e+00" cType="1" res="1.3624632358551025e+00" rms="5.0044379234313965e+00" purity="1.0000000000000000e+00" nType="-99"/>
      </Node>
    </BinaryTree>
    <BinaryTree type="DecisionTree" boostWeight="1.0000000000000000e+00" itree="58">
      <Node pos="s" depth="0" NCoef="0" IVar="-1" Cut="0.0000000000000000e+00" cType="1" res="-5.9001293033361435e-02" rms="4.3747458457946777e+00" purity="1.0000000000000000e+00" nType="-99"/>
    </BinaryTree>
    <BinaryTree type="DecisionTree" boostWeight="1.0000000000000000e+00" itree="59">
      <Node pos="s" depth="0" NCoef="0" IVar="-1" Cut="0.0000000000000000e+00" cType="1" res="-4.7660313546657562e-02" rms="4.3844857215881348e+00" purity="1.0000000000000000e+00" nType="-99"/>
    </BinaryTree>
    <BinaryTree type="DecisionTree" boostWeight="1.0000000000000000e+00" itree="60">
      <Node pos="s" depth="0" NCoef="0" IVar="0" Cut="3.7055754661560059e+00" cType="1" res="1.7354419454932213e-02" rms="4.3653273582458496e+00" purity="1.0000000000000000e+00" nType="0">
        <Node pos="l" depth="1" NCoef="0" IVar="0" Cut="1.4185571670532227e+00" cType="1" res="2.3861583322286606e-02" rms="4.3613677024841309e+00" purity="1.0000000000000000e+00" nType="0">
          <Node pos="l" depth="2" NCoef="0" IVar="-1" Cut="0.0000000000000000e+00" cType="1" res="1.4371797442436218e-01" rms="4.2957921028137207e+00" purity="1.0000000000000000e+00" nType="-99"/>
          <Node pos="r" depth="2" NCoef="0" IVar="-1" Cut="0.0000000000000000e+00" cType="1" res="-4.1299617290496826e-01" rms="4.7099056243896484e+00" purity="1.0000000000000000e+00" nType="-99"/>
        </Node>
        <Node pos="r" depth="1" NCoef="0" IVar="-1" Cut="0.0000000000000000e+00" cType="1" res="-1.6651300191879272e+00" rms="4.9106888771057129e+00" purity="1.0000000000000000e+00" nType="-99"/>
      </Node>
    </BinaryTree>
    <BinaryTree type="DecisionTree" boostWeight="1.0000000000000000e+00" itree="61">
      <Node pos="s" depth="0" NCoef="0" IVar="0" Cut="3.7055754661560059e+00" cType="1" res="5.7101264595985413e-02" rms="4.3574719429016113e+00" purity="1.0000000000000000e+00" nType="0">
        <Node pos="l" depth="1" NCoef="0" IVar="0" Cut="7.1612900495529175e-01" cType="1" res="6.0610957443714142e-02" rms="4.3526887893676758e+00" purity="1.0000000000000000e+00" nType="0">
          <Node pos="l" depth="2" NCoef="0" IVar="-1" Cut="0.0000000000000000e+00" cType="1" res="5.2757656574249268e-01" rms="4.5293402671813965e+00" purity="1.0000000000000000e+00" nType="-99"/>
          <Node pos="r" depth="2" NCoef="0" IVar="-1" Cut="0.0000000000000000e+00" cType="1" res="-7.7324477024376392e-03" rms="4.3155660629272461e+00" purity="1.0000000000000000e+00" nType="-99"/>
        </Node>
        <Node pos="r" depth="1" NCoef="0" IVar="-1" Cut="0.0000000000000000e+00" cType="1" res="-8.5910540819168091e-01" rms="5.1856665611267090e+00" purity="1.0000000000000000e+00" nType="-99"/>
      </Node>
    </BinaryTree>
    <BinaryTree type="DecisionTree" boostWeight="1.0000000000000000e+00" itree="62">
      <Node pos="s" depth="0" NCoef="0" IVar="0" Cut="4.9975180625915527e+00" cType="1" res="4.5331258326768875e-02" rms="4.3624653816223145e+00" purity="1.0000000000000000e+00" nType="0">
        <Node pos="l" depth="1" NCoef="0" IVar="0" Cut="2.4626517295837402e-01" cType="1" res="4.3298479169607162e-02" rms="4.3593034744262695e+00" purity="1.0000000000000000e+00" nType="0">
          <Node pos="l" depth="2" NCoef="0" IVar="-1" Cut="0.0000000000000000e+00" cType="1" res="5.6853753328323364e-01" rms="4.1203775405883789e+00" purity="1.0000000000000000e+00" nType="-99"/>
          <Node pos="r" depth="2" NCoef="0" IVar="-1" Cut="0.0000000000000000e+00" cType="1" res="1.8258355557918549e-02" rms="4.3607649803161621e+00" purity="1.0000000000000000e+00" nType="-99"/>
        </Node>
        <Node pos="r" depth="1" NCoef="0" IVar="-1" Cut="0.0000000000000000e+00" cType="1" res="3.9065897464752197e+00" rms="5.4288954734802246e+00" purity="1.0000000000000000e+00" nType="-99"/>
      </Node>
    </BinaryTree>
    <BinaryTree type="DecisionTree" boostWeight="1.0000000000000000e+00" itree="63">
      <Node pos="s" depth="0" NCoef="0" IVar="-1" Cut="0.0000000000000000e+00" cType="1" res="-1.0324639827013016e-01" rms="4.3950796127319336e+00" purity="1.0000000000000000e+00" nType="-99"/>
    </BinaryTree>
    <BinaryTree type="DecisionTree" boostWeight="1.0000000000000000e+00" itree="64">
      <Node pos="s" depth="0" NCoef="0" IVar="-1" Cut="0.0000000000000000e+00" cType="1" res="5.0506409257650375e-02" rms="4.3618130683898926e+00" purity="1.0000000000000000e+00" nType="-99"/>
    </BinaryTree>
    <BinaryTree type="DecisionTree" boostWeight="1.0000000000000000e+00" itree="65">
      <Node pos="s" depth="0" NCoef="0" IVar="-1" Cut="0.0000000000000000e+00" cType="1" res="-5.6842714548110962e-02" rms="4.3411316871643066e+00" purity="1.0000000000000000e+00" nType="-99"/>
    </BinaryTree>
    <BinaryTree type="DecisionTree" boostWeight="1.0000000000000000e+00" itree="66">
      <Node pos="s" depth="0" NCoef="0" IVar="0" Cut="3.6740922927856445e+00" cType="1" res="4.1484955698251724e-02" rms="4.3413720130920410e+00" purity="1.0000000000000000e+00" nType="0">
        <Node pos="l" depth="1" NCoef="0" IVar="0" Cut="3.1366698741912842e+00" cType="1" res="4.9858722835779190e-02" rms="4.3374414443969727e+00" purity="1.0000000000000000e+00" nType="0">
          <Node pos="l" depth="2" NCoef="0" IVar="-1" Cut="0.0000000000000000e+00" cType="1" res="1.1879960447549820e-01" rms="4.3364343643188477e+00" purity="1.0000000000000000e+00" nType="-99"/>
          <Node pos="r" depth="2" NCoef="0" IVar="-1" Cut="0.0000000000000000e+00" cType="1" res="-2.5433683395385742e+00" rms="4.2141761779785156e+00" purity="1.0000000000000000e+00" nType="-99"/>
        </Node>
        <Node pos="r" depth="1" NCoef="0" IVar="-1" Cut="0.0000000000000000e+00" cType="1" res="-4.7949266433715820e+00" rms="4.7936244010925293e+00" purity="1.0000000000000000e+00" nType="-99"/>
      </Node>
    </BinaryTree>
    <BinaryTree type="DecisionTree" boostWeight="1.0000000000000000e+00" itree="67">
      <Node pos="s" depth="0" NCoef="0" IVar="-1" Cut="0.0000000000000000e+00" cType="1" res="-3.1349141150712967e-02" rms="4.3429818153381348e+00" purity="1.0000000000000000e+00" nType="-99"/>
    </BinaryTree>
    <BinaryTree type="DecisionTree" boostWeight="1.0000000000000000e+00" itree="68">
      <Node pos="s" depth="0" NCoef="0" IVar="0" Cut="3.7055754661560059e+00" cType="1" res="-6.5558291971683502e-02" rms="4.3537421226501465e+00" purity="1.0000000000000000e+00" nType="0">
        <Node pos="l" depth="1" NCoef="0" IVar="0" Cut="7.1605330705642700e-01" cType="1" res="-6.8130746483802795e-02" rms="4.3479743003845215e+00" purity="1.0000000000000000e+00" nType="0">
          <Node pos="l" depth="2" NCoef="0" IVar="-1" Cut="0.0000000000000000e+00" cType="1" res="-5.1623958349227905e-01" rms="4.4256834983825684e+00" purity="1.0000000000000000e+00" nType="-99"/>
          <Node pos="r" depth="2" NCoef="0" IVar="-1" Cut="0.0000000000000000e+00" cType="1" res="-4.3278463184833527e-02" rms="4.3316874504089355e+00" purity="1.0000000000000000e+00" nType="-99"/>
        </Node>
        <Node pos="r" depth="1" NCoef="0" IVar="-1" Cut="0.0000000000000000e+00" cType="1" res="4.1348061561584473e+00" rms="5.2271189689636230e+00" purity="1.0000000000000000e+00" nType="-99"/>
      </Node>
    </BinaryTree>
    <BinaryTree type="DecisionTree" boostWeight="1.0000000000000000e+00" itree="69">
      <Node pos="s" depth="0" NCoef="0" IVar="0" Cut="9.2868512868881226e-01" cType="1" res="-2.7285812422633171e-02" rms="4.3311619758605957e+00" purity="1.0000000000000000e+00" nType="0">
        <Node pos="l" depth="1" NCoef="0" IVar="0" Cut="8.8506585359573364e-01" cType="1" res="-1.4511296153068542e-01" rms="4.3000044822692871e+00" purity="1.0000000000000000e+00" nType="0">
          <Node pos="l" depth="2" NCoef="0" IVar="-1" Cut="0.0000000000000000e+00" cType="1" res="6.0920040123164654e-03" rms="4.3229823112487793e+00" purity="1.0000000000000000e+00" nType="-99"/>
          <Node pos="r" depth="2" NCoef="0" IVar="-1" Cut="0.0000000000000000e+00" cType="1" res="-6.8115925788879395e-01" rms="4.1472020149230957e+00" purity="1.0000000000000000e+00" nType="-99"/>
        </Node>
        <Node pos="r" depth="1" NCoef="0" IVar="0" Cut="2.6718716621398926e+00" cType="1" res="5.1514595746994019e-02" rms="4.3500943183898926e+00" purity="1.0000000000000000e+00" nType="0">
          <Node pos="l" depth="2" NCoef="0" IVar="-1" Cut="0.0000000000000000e+00" cType="1" res="4.8299778252840042e-02" rms="4.3382782936096191e+00" purity="1.0000000000000000e+00" nType="-99"/>
          <Node pos="r" depth="2" NCoef="0" IVar="-1" Cut="0.0000000000000000e+00" cType="1" res="2.0653960704803467e+00" rms="4.8787341117858887e+00" purity="1.0000000000000000e+00" nType="-99"/>
        </Node>
      </Node>
    </BinaryTree>
    <BinaryTree type="DecisionTree" boostWeight="1.0000000000000000e+00" itree="70">
      <Node pos="s" depth="0" NCoef="0" IVar="0" Cut="2.5101449489593506e+00" cType="1" res="6.8305437453091145e-03" rms="4.3375000953674316e+00" purity="1.0000000000000000e+00" nType="0">
        <Node pos="l" depth="1" NCoef="0" IVar="0" Cut="6.1143213510513306e-01" cType="1" res="2.0741973072290421e-02" rms="4.3269553184509277e+00" purity="1.0000000000000000e+00" nType="0">
          <Node pos="l" depth="2" NCoef="0" IVar="-1" Cut="0.0000000000000000e+00" cType="1" res="-6.0676163434982300e-01" rms="4.5854654312133789e+00" purity="1.0000000000000000e+00" nType="-99"/>
          <Node pos="r" depth="2" NCoef="0" IVar="-1" Cut="0.0000000000000000e+00" cType="1" res="1.1798931658267975e-01" rms="4.2988948822021484e+00" purity="1.0000000000000000e+00" nType="-99"/>
        </Node>
        <Node pos="r" depth="1" NCoef="0" IVar="0" Cut="4.8877563476562500e+00" cType="1" res="-9.0985602140426636e-01" rms="4.8970808982849121e+00" purity="1.0000000000000000e+00" nType="0">
          <Node pos="l" depth="2" NCoef="0" IVar="-1" Cut="0.0000000000000000e+00" cType="1" res="-2.0322430133819580e+00" rms="4.9691262245178223e+00" purity="1.0000000000000000e+00" nType="-99"/>
          <Node pos="r" depth="2" NCoef="0" IVar="-1" Cut="0.0000000000000000e+00" cType="1" res="-3.8450706005096436e+00" rms="4.4725079536437988e+00" purity="1.0000000000000000e+00" nType="-99"/>
        </Node>
      </Node>
    </BinaryTree>
    <BinaryTree type="DecisionTree" boostWeight="1.0000000000000000e+00" itree="71">
      <Node pos="s" depth="0" NCoef="0" IVar="-1" Cut="0.0000000000000000e+00" cType="1" res="9.5068179070949554e-02" rms="4.3366727828979492e+00" purity="1.0000000000000000e+00" nType="-99"/>
    </BinaryTree>
    <BinaryTree type="DecisionTree" boostWeight="1.0000000000000000e+00" itree="72">
      <Node pos="s" depth="0" NCoef="0" IVar="0" Cut="1.8438208103179932e+00" cType="1" res="1.9759837538003922e-02" rms="4.3648319244384766e+00" purity="1.0000000000000000e+00" nType="0">
        <Node pos="l" depth="1" NCoef="0" IVar="0" Cut="5.3648263216018677e-01" cType="1" res="-1.7871633172035217e-02" rms="4.3278913497924805e+00" purity="1.0000000000000000e+00" nType="0">
          <Node pos="l" depth="2" NCoef="0" IVar="-1" Cut="0.0000000000000000e+00" cType="1" res="7.1841090917587280e-01" rms="4.5615935325622559e+00" purity="1.0000000000000000e+00" nType="-99"/>
          <Node pos="r" depth="2" NCoef="0" IVar="-1" Cut="0.0000000000000000e+00" cType="1" res="-1.2922732532024384e-01" rms="4.3114624023437500e+00" purity="1.0000000000000000e+00" nType="-99"/>
        </Node>
        <Node pos="r" depth="1" NCoef="0" IVar="0" Cut="5.1568646430969238e+00" cType="1" res="7.6075387001037598e-01" rms="4.9797415733337402e+00" purity="1.0000000000000000e+00" nType="0">
          <Node pos="l" depth="2" NCoef="0" IVar="-1" Cut="0.0000000000000000e+00" cType="1" res="2.0581548213958740e+00" rms="4.9499378204345703e+00" purity="1.0000000000000000e+00" nType="-99"/>
          <Node pos="r" depth="2" NCoef="0" IVar="-1" Cut="0.0000000000000000e+00" cType="1" res="-3.3592887222766876e-02" rms="5.2204937934875488e+00" purity="1.0000000000000000e+00" nType="-99"/>
        </Node>
      </Node>
    </BinaryTree>
    <BinaryTree type="DecisionTree" boostWeight="1.0000000000000000e+00" itree="73">
      <Node pos="s" depth="0" NCoef="0" IVar="0" Cut="3.7055754661560059e+00" cType="1" res="-3.8431666791439056e-02" rms="4.3626432418823242e+00" purity="1.0000000000000000e+00" nType="0">
        <Node pos="l" depth="1" NCoef="0" IVar="0" Cut="1.5943534374237061e+00" cType="1" res="-3.9068628102540970e-02" rms="4.3596735000610352e+00" purity="1.0000000000000000e+00" nType="0">
          <Node pos="l" depth="2" NCoef="0" IVar="-1" Cut="0.0000000000000000e+00" cType="1" res="4.7738105058670044e-03" rms="4.3253221511840820e+00" purity="1.0000000000000000e+00" nType="-99"/>
          <Node pos="r" depth="2" NCoef="0" IVar="-1" Cut="0.0000000000000000e+00" cType="1" res="-1.1484861373901367e+00" rms="4.7022180557250977e+00" purity="1.0000000000000000e+00" nType="-99"/>
        </Node>
        <Node pos="r" depth="1" NCoef="0" IVar="-1" Cut="0.0000000000000000e+00" cType="1" res="2.1056635677814484e-01" rms="4.9918923377990723e+00" purity="1.0000000000000000e+00" nType="-99"/>
      </Node>
    </BinaryTree>
    <BinaryTree type="DecisionTree" boostWeight="1.0000000000000000e+00" itree="74">
      <Node pos="s" depth="0" NCoef="0" IVar="0" Cut="3.7055754661560059e+00" cType="1" res="7.9155102139338851e-04" rms="4.3515071868896484e+00" purity="1.0000000000000000e+00" nType="0">
        <Node pos="l" depth="1" NCoef="0" IVar="0" Cut="2.8217461109161377e+00" cType="1" res="6.4901132136583328e-03" rms="4.3470668792724609e+00" purity="1.0000000000000000e+00" nType="0">
          <Node pos="l" depth="2" NCoef="0" IVar="-1" Cut="0.0000000000000000e+00" cType="1" res="2.3601476103067398e-02" rms="4.3446688652038574e+00" purity="1.0000000000000000e+00" nType="-99"/>
          <Node pos="r" depth="2" NCoef="0" IVar="-1" Cut="0.0000000000000000e+00" cType="1" res="2.8033118247985840e+00" rms="4.6226291656494141e+00" purity="1.0000000000000000e+00" nType="-99"/>
        </Node>
        <Node pos="r" depth="1" NCoef="0" IVar="-1" Cut="0.0000000000000000e+00" cType="1" res="-2.4756267070770264e+00" rms="5.1303830146789551e+00" purity="1.0000000000000000e+00" nType="-99"/>
      </Node>
    </BinaryTree>
    <BinaryTree type="DecisionTree" boostWeight="1.0000000000000000e+00" itree="75">
      <Node pos="s" depth="0" NCoef="0" IVar="0" Cut="4.9975180625915527e+00" cType="1" res="3.2822142820805311e-03" rms="4.3641848564147949e+00" purity="1.0000000000000000e+00" nType="0">
        <Node pos="l" depth="1" NCoef="0" IVar="0" Cut="1.8752754926681519e+00" cType="1" res="6.0149631462991238e-03" rms="4.3610763549804688e+00" purity="1.0000000000000000e+00" nType="0">
          <Node pos="l" depth="2" NCoef="0" IVar="-1" Cut="0.0000000000000000e+00" cType="1" res="9.3870460987091064e-03" rms="4.3389372825622559e+00" purity="1.0000000000000000e+00" nType="-99"/>
          <Node pos="r" depth="2" NCoef="0" IVar="-1" Cut="0.0000000000000000e+00" cType="1" res="-8.6406832933425903e-01" rms="4.8342208862304688e+00" purity="1.0000000000000000e+00" nType="-99"/>
        </Node>
        <Node pos="r" depth="1" NCoef="0" IVar="-1" Cut="0.0000000000000000e+00" cType="1" res="2.7738842368125916e-01" rms="5.2919244766235352e+00" purity="1.0000000000000000e+00" nType="-99"/>
      </Node>
    </BinaryTree>
    <BinaryTree type="DecisionTree" boostWeight="1.0000000000000000e+00" itree="76">
      <Node pos="s" depth="0" NCoef="0" IVar="-1" Cut="0.0000000000000000e+00" cType="1" res="-1.6256935894489288e-02" rms="4.4039001464843750e+00" purity="1.0000000000000000e+00" nType="-99"/>
    </BinaryTree>
    <BinaryTree type="DecisionTree" boostWeight="1.0000000000000000e+00" itree="77">
      <Node pos="s" depth="0" NCoef="0" IVar="0" Cut="3.7069830894470215e+00" cType="1" res="2.0920719951391220e-02" rms="4.3931384086608887e+00" purity="1.0000000000000000e+00" nType="0">
        <Node pos="l" depth="1" NCoef="0" IVar="0" Cut="2.8077294826507568e+00" cType="1" res="1.4606826007366180e-02" rms="4.3857388496398926e+00" purity="1.0000000000000000e+00" nType="0">
          <Node pos="l" depth="2" NCoef="0" IVar="-1" Cut="0.0000000000000000e+00" cType="1" res="3.8426890969276428e-02" rms="4.3807530403137207e+00" purity="1.0000000000000000e+00" nType="-99"/>
          <Node pos="r" depth="2" NCoef="0" IVar="-1" Cut="0.0000000000000000e+00" cType="1" res="-3.5725433826446533e+00" rms="5.0279908180236816e+00" purity="1.0000000000000000e+00" nType="-99"/>
        </Node>
        <Node pos="r" depth="1" NCoef="0" IVar="-1" Cut="0.0000000000000000e+00" cType="1" res="4.3610386848449707e+00" rms="5.4514832496643066e+00" purity="1.0000000000000000e+00" nType="-99"/>
      </Node>
    </BinaryTree>
    <BinaryTree type="DecisionTree" boostWeight="1.0000000000000000e+00" itree="78">
      <Node pos="s" depth="0" NCoef="0" IVar="0" Cut="2.3402349948883057e+00" cType="1" res="6.6825095564126968e-03" rms="4.3990778923034668e+00" purity="1.0000000000000000e+00" nType="0">
        <Node pos="l" depth="1" NCoef="0" IVar="0" Cut="1.3422825336456299e+00" cType="1" res="1.9280523061752319e-02" rms="4.3882765769958496e+00" purity="1.0000000000000000e+00" nType="0">
          <Node pos="l" depth="2" NCoef="0" IVar="-1" Cut="0.0000000000000000e+00" cType="1" res="-9.0904541313648224e-02" rms="4.3231053352355957e+00" purity="1.0000000000000000e+00" nType="-99"/>
          <Node pos="r" depth="2" NCoef="0" IVar="-1" Cut="0.0000000000000000e+00" cType="1" res="4.1548895835876465e-01" rms="4.6779699325561523e+00" purity="1.0000000000000000e+00" nType="-99"/>
        </Node>
        <Node pos="r" depth="1" NCoef="0" IVar="0" Cut="4.3345913887023926e+00" cType="1" res="-7.1797931194305420e-01" rms="4.9272103309631348e+00" purity="1.0000000000000000e+00" nType="0">
          <Node pos="l" depth="2" NCoef="0" IVar="-1" Cut="0.0000000000000000e+00" cType="1" res="-3.5809570550918579e-01" rms="4.9077372550964355e+00" purity="1.0000000000000000e+00" nType="-99"/>
          <Node pos="r" depth="2" NCoef="0" IVar="-1" Cut="0.0000000000000000e+00" cType="1" res="-1.3762707710266113e+00" rms="4.9164080619812012e+00" purity="1.0000000000000000e+00" nType="-99"/>
        </Node>
      </Node>
    </BinaryTree>
    <BinaryTree type="DecisionTree" boostWeight="1.0000000000000000e+00" itree="79">
      <Node pos="s" depth="0" NCoef="0" IVar="0" Cut="3.7055754661560059e+00" cType="1" res="-1.3942174846306443e-03" rms="4.4026303291320801e+00" purity="1.0000000000000000e+00" nType="0">
        <Node pos="l" depth="1" NCoef="0" IVar="0" Cut="1.5941830873489380e+00" cType="1" res="4.4243037700653076e-03" rms="4.3953685760498047e+00" purity="1.0000000000000000e+00" nType="0">
          <Node pos="l" depth="2" NCoef="0" IVar="-1" Cut="0.0000000000000000e+00" cType="1" res="-2.4384468793869019e-02" rms="4.3459630012512207e+00" purity="1.0000000000000000e+00" nType="-99"/>
          <Node pos="r" depth="2" NCoef="0" IVar="-1" Cut="0.0000000000000000e+00" cType="1" res="5.9872245788574219e-01" rms="4.8811120986938477e+00" purity="1.0000000000000000e+00" nType="-99"/>
        </Node>
        <Node pos="r" depth="1" NCoef="0" IVar="-1" Cut="0.0000000000000000e+00" cType="1" res="-2.8065917491912842e+00" rms="5.3795561790466309e+00" purity="1.0000000000000000e+00" nType="-99"/>
      </Node>
    </BinaryTree>
    <BinaryTree type="DecisionTree" boostWeight="1.0000000000000000e+00" itree="80">
      <Node pos="s" depth="0" NCoef="0" IVar="-1" Cut="0.0000000000000000e+00" cType="1" res="2.4580309167504311e-02" rms="4.4009962081909180e+00" purity="1.0000000000000000e+00" nType="-99"/>
    </BinaryTree>
    <BinaryTree type="DecisionTree" boostWeight="1.0000000000000000e+00" itree="81">
      <Node pos="s" depth="0" NCoef="0" IVar="-1" Cut="0.0000000000000000e+00" cType="1" res="7.6396907679736614e-03" rms="4.4074892997741699e+00" purity="1.0000000000000000e+00" nType="-99"/>
    </BinaryTree>
    <BinaryTree type="DecisionTree" boostWeight="1.0000000000000000e+00" itree="82">
      <Node pos="s" depth="0" NCoef="0" IVar="0" Cut="3.7055754661560059e+00" cType="1" res="-3.4989364445209503e-02" rms="4.3808546066284180e+00" purity="1.0000000000000000e+00" nType="0">
        <Node pos="l" depth="1" NCoef="0" IVar="0" Cut="2.4724442958831787e+00" cType="1" res="-4.2887665331363678e-02" rms="4.3744683265686035e+00" purity="1.0000000000000000e+00" nType="0">
          <Node pos="l" depth="2" NCoef="0" IVar="-1" Cut="0.0000000000000000e+00" cType="1" res="-9.6760183572769165e-02" rms="4.3681440353393555e+00" purity="1.0000000000000000e+00" nType="-99"/>
          <Node pos="r" depth="2" NCoef="0" IVar="-1" Cut="0.0000000000000000e+00" cType="1" res="2.2223894596099854e+00" rms="4.9343452453613281e+00" purity="1.0000000000000000e+00" nType="-99"/>
        </Node>
        <Node pos="r" depth="1" NCoef="0" IVar="-1" Cut="0.0000000000000000e+00" cType="1" res="4.3333277702331543e+00" rms="5.2488708496093750e+00" purity="1.0000000000000000e+00" nType="-99"/>
      </Node>
    </BinaryTree>
    <BinaryTree type="DecisionTree" boostWeight="1.0000000000000000e+00" itree="83">
      <Node pos="s" depth="0" NCoef="0" IVar="0" Cut="3.7055754661560059e+00" cType="1" res="7.2029987350106239e-03" rms="4.3678550720214844e+00" purity="1.0000000000000000e+00" nType="0">
        <Node pos="l" depth="1" NCoef="0" IVar="0" Cut="1.0673052072525024e+00" cType="1" res="5.5441302247345448e-03" rms="4.3640184402465820e+00" purity="1.0000000000000000e+00" nType="0">
          <Node pos="l" depth="2" NCoef="0" IVar="-1" Cut="0.0000000000000000e+00" cType="1" res="1.8924626708030701e-01" rms="4.3020181655883789e+00" purity="1.0000000000000000e+00" nType="-99"/>
          <Node pos="r" depth="2" NCoef="0" IVar="-1" Cut="0.0000000000000000e+00" cType="1" res="-1.4390151202678680e-01" rms="4.4444847106933594e+00" purity="1.0000000000000000e+00" nType="-99"/>
        </Node>
        <Node pos="r" depth="1" NCoef="0" IVar="-1" Cut="0.0000000000000000e+00" cType="1" res="-8.4020990133285522e-01" rms="5.0955901145935059e+00" purity="1.0000000000000000e+00" nType="-99"/>
      </Node>
    </BinaryTree>
    <BinaryTree type="DecisionTree" boostWeight="1.0000000000000000e+00" itree="84">
      <Node pos="s" depth="0" NCoef="0" IVar="0" Cut="3.8892474174499512e+00" cType="1" res="1.8385825678706169e-02" rms="4.3807954788208008e+00" purity="1.0000000000000000e+00" nType="0">
        <Node pos="l" depth="1" NCoef="0" IVar="0" Cut="1.8410241603851318e+00" cType="1" res="2.2518988698720932e-02" rms="4.3775820732116699e+00" purity="1.0000000000000000e+00" nType="0">
          <Node pos="l" depth="2" NCoef="0" IVar="-1" Cut="0.0000000000000000e+00" cType="1" res="6.0358233749866486e-02" rms="4.3568592071533203e+00" purity="1.0000000000000000e+00" nType="-99"/>
          <Node pos="r" depth="2" NCoef="0" IVar="-1" Cut="0.0000000000000000e+00" cType="1" res="-7.9656648635864258e-01" rms="4.7940993309020996e+00" purity="1.0000000000000000e+00" nType="-99"/>
        </Node>
        <Node pos="r" depth="1" NCoef="0" IVar="0" Cut="5.0753269195556641e+00" cType="1" res="-8.9303737878799438e-01" rms="4.9560809135437012e+00" purity="1.0000000000000000e+00" nType="0">
          <Node pos="l" depth="2" NCoef="0" IVar="-1" Cut="0.0000000000000000e+00" cType="1" res="-1.4582339525222778e+00" rms="5.0873613357543945e+00" purity="1.0000000000000000e+00" nType="-99"/>
          <Node pos="r" depth="2" NCoef="0" IVar="-1" Cut="0.0000000000000000e+00" cType="1" res="2.2232009470462799e-01" rms="4.7845582962036133e+00" purity="1.0000000000000000e+00" nType="-99"/>
        </Node>
      </Node>
    </BinaryTree>
    <BinaryTree type="DecisionTree" boostWeight="1.0000000000000000e+00" itree="85">
      <Node pos="s" depth="0" NCoef="0" IVar="0" Cut="3.7055754661560059e+00" cType="1" res="-4.9269806593656540e-02" rms="4.3726329803466797e+00" purity="1.0000000000000000e+00" nType="0">
        <Node pos="l" depth="1" NCoef="0" IVar="0" Cut="3.6277791857719421e-01" cType="1" res="-4.0486179292201996e-02" rms="4.3674459457397461e+00" purity="1.0000000000000000e+00" nType="0">
          <Node pos="l" depth="2" NCoef="0" IVar="-1" Cut="0.0000000000000000e+00" cType="1" res="-1.0737394094467163e+00" rms="4.1788535118103027e+00" purity="1.0000000000000000e+00" nType="-99"/>
          <Node pos="r" depth="2" NCoef="0" IVar="-1" Cut="0.0000000000000000e+00" cType="1" res="-5.9064757078886032e-02" rms="4.3702650070190430e+00" purity="1.0000000000000000e+00" nType="-99"/>
        </Node>
        <Node pos="r" depth="1" NCoef="0" IVar="-1" Cut="0.0000000000000000e+00" cType="1" res="-4.3932051658630371e+00" rms="5.0146374702453613e+00" purity="1.0000000000000000e+00" nType="-99"/>
      </Node>
    </BinaryTree>
    <BinaryTree type="DecisionTree" boostWeight="1.0000000000000000e+00" itree="86">
      <Node pos="s" depth="0" NCoef="0" IVar="0" Cut="4.9975180625915527e+00" cType="1" res="2.8981130570173264e-02" rms="4.3752999305725098e+00" purity="1.0000000000000000e+00" nType="0">
        <Node pos="l" depth="1" NCoef="0" IVar="0" Cut="3.2715699672698975e+00" cType="1" res="3.0013002455234528e-02" rms="4.3711600303649902e+00" purity="1.0000000000000000e+00" nType="0">
          <Node pos="l" depth="2" NCoef="0" IVar="-1" Cut="0.0000000000000000e+00" cType="1" res="6.1397735029459000e-02" rms="4.3690595626831055e+00" purity="1.0000000000000000e+00" nType="-99"/>
          <Node pos="r" depth="2" NCoef="0" IVar="-1" Cut="0.0000000000000000e+00" cType="1" res="3.9928379058837891e+00" rms="4.5538339614868164e+00" purity="1.0000000000000000e+00" nType="-99"/>
        </Node>
        <Node pos="r" depth="1" NCoef="0" IVar="-1" Cut="0.0000000000000000e+00" cType="1" res="3.3259479999542236e+00" rms="5.4926657676696777e+00" purity="1.0000000000000000e+00" nType="-99"/>
      </Node>
    </BinaryTree>
    <BinaryTree type="DecisionTree" boostWeight="1.0000000000000000e+00" itree="87">
      <Node pos="s" depth="0" NCoef="0" IVar="0" Cut="1.8452175855636597e+00" cType="1" res="-1.9149811938405037e-02" rms="4.3858752250671387e+00" purity="1.0000000000000000e+00" nType="0">
        <Node pos="l" depth="1" NCoef="0" IVar="0" Cut="1.4094457626342773e+00" cType="1" res="-8.2727586850523949e-03" rms="4.3567013740539551e+00" purity="1.0000000000000000e+00" nType="0">
          <Node pos="l" depth="2" NCoef="0" IVar="-1" Cut="0.0000000000000000e+00" cType="1" res="-5.7799089699983597e-02" rms="4.3237476348876953e+00" purity="1.0000000000000000e+00" nType="-99"/>
          <Node pos="r" depth="2" NCoef="0" IVar="-1" Cut="0.0000000000000000e+00" cType="1" res="1.4644601941108704e-01" rms="4.6090130805969238e+00" purity="1.0000000000000000e+00" nType="-99"/>
        </Node>
        <Node pos="r" depth="1" NCoef="0" IVar="0" Cut="4.3306174278259277e+00" cType="1" res="-2.3606100678443909e-01" rms="4.9267468452453613e+00" purity="1.0000000000000000e+00" nType="0">
          <Node pos="l" depth="2" NCoef="0" IVar="-1" Cut="0.0000000000000000e+00" cType="1" res="-3.9077189564704895e-01" rms="4.9073424339294434e+00" purity="1.0000000000000000e+00" nType="-99"/>
          <Node pos="r" depth="2" NCoef="0" IVar="-1" Cut="0.0000000000000000e+00" cType="1" res="-1.7202417552471161e-01" rms="5.1260108947753906e+00" purity="1.0000000000000000e+00" nType="-99"/>
        </Node>
      </Node>
    </BinaryTree>
    <BinaryTree type="DecisionTree" boostWeight="1.0000000000000000e+00" itree="88">
      <Node pos="s" depth="0" NCoef="0" IVar="-1" Cut="0.0000000000000000e+00" cType="1" res="5.8719437569379807e-02" rms="4.3958735466003418e+00" purity="1.0000000000000000e+00" nType="-99"/>
    </BinaryTree>
    <BinaryTree type="DecisionTree" boostWeight="1.0000000000000000e+00" itree="89">
      <Node pos="s" depth="0" NCoef="0" IVar="-1" Cut="0.0000000000000000e+00" cType="1" res="3.8015816360712051e-02" rms="4.3928246498107910e+00" purity="1.0000000000000000e+00" nType="-99"/>
    </BinaryTree>
    <BinaryTree type="DecisionTree" boostWeight="1.0000000000000000e+00" itree="90">
      <Node pos="s" depth="0" NCoef="0" IVar="0" Cut="4.9989147186279297e+00" cType="1" res="-4.0481653064489365e-02" rms="4.3887934684753418e+00" purity="1.0000000000000000e+00" nType="0">
        <Node pos="l" depth="1" NCoef="0" IVar="0" Cut="3.2590274810791016e+00" cType="1" res="-4.3126218020915985e-02" rms="4.3877096176147461e+00" purity="1.0000000000000000e+00" nType="0">
          <Node pos="l" depth="2" NCoef="0" IVar="-1" Cut="0.0000000000000000e+00" cType="1" res="-9.3611501157283783e-02" rms="4.3850440979003906e+00" purity="1.0000000000000000e+00" nType="-99"/>
          <Node pos="r" depth="2" NCoef="0" IVar="-1" Cut="0.0000000000000000e+00" cType="1" res="-1.8841272592544556e+00" rms="4.7218399047851562e+00" purity="1.0000000000000000e+00" nType="-99"/>
        </Node>
        <Node pos="r" depth="1" NCoef="0" IVar="-1" Cut="0.0000000000000000e+00" cType="1" res="2.3598215579986572e+00" rms="4.7125401496887207e+00" purity="1.0000000000000000e+00" nType="-99"/>
      </Node>
    </BinaryTree>
    <BinaryTree type="DecisionTree" boostWeight="1.0000000000000000e+00" itree="91">
      <Node pos="s" depth="0" NCoef="0" IVar="-1" Cut="0.0000000000000000e+00" cType="1" res="-5.4775673896074295e-02" rms="4.3808813095092773e+00" purity="1.0000000000000000e+00" nType="-99"/>
    </BinaryTree>
    <BinaryTree type="DecisionTree" boostWeight="1.0000000000000000e+00" itree="92">
      <Node pos="s" depth="0" NCoef="0" IVar="0" Cut="5.4962911605834961e+00" cType="1" res="5.2468437701463699e-02" rms="4.3911600112915039e+00" purity="1.0000000000000000e+00" nType="0">
        <Node pos="l" depth="1" NCoef="0" IVar="0" Cut="2.0568616390228271e+00" cType="1" res="5.4753709584474564e-02" rms="4.3910822868347168e+00" purity="1.0000000000000000e+00" nType="0">
          <Node pos="l" depth="2" NCoef="0" IVar="-1" Cut="0.0000000000000000e+00" cType="1" res="8.4188103675842285e-02" rms="4.3785238265991211e+00" purity="1.0000000000000000e+00" nType="-99"/>
          <Node pos="r" depth="2" NCoef="0" IVar="-1" Cut="0.0000000000000000e+00" cType="1" res="1.6307324171066284e+00" rms="4.7912492752075195e+00" purity="1.0000000000000000e+00" nType="-99"/>
        </Node>
        <Node pos="r" depth="1" NCoef="0" IVar="-1" Cut="0.0000000000000000e+00" cType="1" res="-1.9684396982192993e+00" rms="4.3009386062622070e+00" purity="1.0000000000000000e+00" nType="-99"/>
      </Node>
    </BinaryTree>
    <BinaryTree type="DecisionTree" boostWeight="1.0000000000000000e+00" itree="93">
      <Node pos="s" depth="0" NCoef="0" IVar="-1" Cut="0.0000000000000000e+00" cType="1" res="-5.3608849644660950e-02" rms="4.3720765113830566e+00" purity="1.0000000000000000e+00" nType="-99"/>
    </BinaryTree>
    <BinaryTree type="DecisionTree" boostWeight="1.0000000000000000e+00" itree="94">
      <Node pos="s" depth="0" NCoef="0" IVar="-1" Cut="0.0000000000000000e+00" cType="1" res="6.3603699207305908e-02" rms="4.3780355453491211e+00" purity="1.0000000000000000e+00" nType="-99"/>
    </BinaryTree>
    <BinaryTree type="DecisionTree" boostWeight="1.0000000000000000e+00" itree="95">
      <Node pos="s" depth="0" NCoef="0" IVar="0" Cut="4.9975180625915527e+00" cType="1" res="-8.0706216394901276e-02" rms="4.3671293258666992e+00" purity="1.0000000000000000e+00" nType="0">
        <Node pos="l" depth="1" NCoef="0" IVar="0" Cut="3.7370016574859619e+00" cType="1" res="-7.4635758996009827e-02" rms="4.3645005226135254e+00" purity="1.0000000000000000e+00" nType="0">
          <Node pos="l" depth="2" NCoef="0" IVar="-1" Cut="0.0000000000000000e+00" cType="1" res="-1.4910015463829041e-01" rms="4.3605632781982422e+00" purity="1.0000000000000000e+00" nType="-99"/>
          <Node pos="r" depth="2" NCoef="0" IVar="-1" Cut="0.0000000000000000e+00" cType="1" res="4.2302923202514648e+00" rms="5.1759986877441406e+00" purity="1.0000000000000000e+00" nType="-99"/>
        </Node>
        <Node pos="r" depth="1" NCoef="0" IVar="-1" Cut="0.0000000000000000e+00" cType="1" res="-6.2554311752319336e+00" rms="4.7479858398437500e+00" purity="1.0000000000000000e+00" nType="-99"/>
      </Node>
    </BinaryTree>
    <BinaryTree type="DecisionTree" boostWeight="1.0000000000000000e+00" itree="96">
      <Node pos="s" depth="0" NCoef="0" IVar="0" Cut="1.8482016324996948e+00" cType="1" res="1.9329812377691269e-02" rms="4.3655076026916504e+00" purity="1.0000000000000000e+00" nType="0">
        <Node pos="l" depth="1" NCoef="0" IVar="0" Cut="3.6672696471214294e-01" cType="1" res="3.6556825041770935e-02" rms="4.3366394042968750e+00" purity="1.0000000000000000e+00" nType="0">
          <Node pos="l" depth="2" NCoef="0" IVar="-1" Cut="0.0000000000000000e+00" cType="1" res="6.7563062906265259e-01" rms="4.1470465660095215e+00" purity="1.0000000000000000e+00" nType="-99"/>
          <Node pos="r" depth="2" NCoef="0" IVar="-1" Cut="0.0000000000000000e+00" cType="1" res="8.9601233601570129e-02" rms="4.3399643898010254e+00" purity="1.0000000000000000e+00" nType="-99"/>
        </Node>
        <Node pos="r" depth="1" NCoef="0" IVar="0" Cut="4.3317518234252930e+00" cType="1" res="-3.4952628612518311e-01" rms="4.9289026260375977e+00" purity="1.0000000000000000e+00" nType="0">
          <Node pos="l" depth="2" NCoef="0" IVar="-1" Cut="0.0000000000000000e+00" cType="1" res="-6.8301010131835938e-01" rms="4.9131731986999512e+00" purity="1.0000000000000000e+00" nType="-99"/>
          <Node pos="r" depth="2" NCoef="0" IVar="-1" Cut="0.0000000000000000e+00" cType="1" res="3.3428564071655273e+00" rms="5.0802803039550781e+00" purity="1.0000000000000000e+00" nType="-99"/>
        </Node>
      </Node>
    </BinaryTree>
    <BinaryTree type="DecisionTree" boostWeight="1.0000000000000000e+00" itree="97">
      <Node pos="s" depth="0" NCoef="0" IVar="0" Cut="5.5054664611816406e+00" cType="1" res="-4.2323842644691467e-03" rms="4.3711013793945312e+00" purity="1.0000000000000000e+00" nType="0">
        <Node pos="l" depth="1" NCoef="0" IVar="0" Cut="2.5807647705078125e+00" cType="1" res="-6.6921133548021317e-03" rms="4.3679690361022949e+00" purity="1.0000000000000000e+00" nType="0">
          <Node pos="l" depth="2" NCoef="0" IVar="-1" Cut="0.0000000000000000e+00" cType="1" res="-1.3980840332806110e-02" rms="4.3619160652160645e+00" purity="1.0000000000000000e+00" nType="-99"/>
          <Node pos="r" depth="2" NCoef="0" IVar="-1" Cut="0.0000000000000000e+00" cType="1" res="-5.8863478899002075e-01" rms="4.7860531806945801e+00" purity="1.0000000000000000e+00" nType="-99"/>
        </Node>
        <Node pos="r" depth="1" NCoef="0" IVar="-1" Cut="0.0000000000000000e+00" cType="1" res="3.1773414611816406e+00" rms="5.4777932167053223e+00" purity="1.0000000000000000e+00" nType="-99"/>
      </Node>
    </BinaryTree>
    <BinaryTree type="DecisionTree" boostWeight="1.0000000000000000e+00" itree="98">
      <Node pos="s" depth="0" NCoef="0" IVar="-1" Cut="0.0000000000000000e+00" cType="1" res="4.9849729984998703e-02" rms="4.3668303489685059e+00" purity="1.0000000000000000e+00" nType="-99"/>
    </BinaryTree>
    <BinaryTree type="DecisionTree" boostWeight="1.0000000000000000e+00" itree="99">
      <Node pos="s" depth="0" NCoef="0" IVar="0" Cut="2.5101449489593506e+00" cType="1" res="1.6866147518157959e-02" rms="4.3811397552490234e+00" purity="1.0000000000000000e+00" nType="0">
        <Node pos="l" depth="1" NCoef="0" IVar="0" Cut="1.0813788175582886e+00" cType="1" res="3.3240176737308502e-02" rms="4.3718376159667969e+00" purity="1.0000000000000000e+00" nType="0">
          <Node pos="l" depth="2" NCoef="0" IVar="-1" Cut="0.0000000000000000e+00" cType="1" res="-5.9682935476303101e-02" rms="4.2978572845458984e+00" purity="1.0000000000000000e+00" nType="-99"/>
          <Node pos="r" depth="2" NCoef="0" IVar="-1" Cut="0.0000000000000000e+00" cType="1" res="1.5497756004333496e-01" rms="4.4784150123596191e+00" purity="1.0000000000000000e+00" nType="-99"/>
        </Node>
        <Node pos="r" depth="1" NCoef="0" IVar="0" Cut="4.8838796615600586e+00" cType="1" res="-1.0536413192749023e+00" rms="4.8326220512390137e+00" purity="1.0000000000000000e+00" nType="0">
          <Node pos="l" depth="2" NCoef="0" IVar="-1" Cut="0.0000000000000000e+00" cType="1" res="-1.4256317615509033e+00" rms="4.8263359069824219e+00" purity="1.0000000000000000e+00" nType="-99"/>
          <Node pos="r" depth="2" NCoef="0" IVar="-1" Cut="0.0000000000000000e+00" cType="1" res="-1.3082575984299183e-02" rms="4.8467803001403809e+00" purity="1.0000000000000000e+00" nType="-99"/>
        </Node>
      </Node>
    </BinaryTree>
    <BinaryTree type="DecisionTree" boostWeight="1.0000000000000000e+00" itree="100">
      <Node pos="s" depth="0" NCoef="0" IVar="0" Cut="3.7070457935333252e+00" cType="1" res="-5.6510424474254251e-04" rms="4.3949570655822754e+00" purity="1.0000000000000000e+00" nType="0">
        <Node pos="l" depth="1" NCoef="0" IVar="0" Cut="3.6621686816215515e-01" cType="1" res="4.0054447017610073e-03" rms="4.3902516365051270e+00" purity="1.0000000000000000e+00" nType="0">
          <Node pos="l" depth="2" NCoef="0" IVar="-1" Cut="0.0000000000000000e+00" cType="1" res="5.2760010957717896e-01" rms="4.1768803596496582e+00" purity="1.0000000000000000e+00" nType="-99"/>
          <Node pos="r" depth="2" NCoef="0" IVar="-1" Cut="0.0000000000000000e+00" cType="1" res="-3.0920548364520073e-02" rms="4.3940529823303223e+00" purity="1.0000000000000000e+00" nType="-99"/>
        </Node>
        <Node pos="r" depth="1" NCoef="0" IVar="-1" Cut="0.0000000000000000e+00" cType="1" res="-3.6606827378273010e-01" rms="5.0789375305175781e+00" purity="1.0000000000000000e+00" nType="-99"/>
      </Node>
    </BinaryTree>
    <BinaryTree type="DecisionTree" boostWeight="1.0000000000000000e+00" itree="101">
      <Node pos="s" depth="0" NCoef="0" IVar="0" Cut="3.9282603263854980e+00" cType="1" res="-4.1081096976995468e-02" rms="4.3905491828918457e+00" purity="1.0000000000000000e+00" nType="0">
        <Node pos="l" depth="1" NCoef="0" IVar="0" Cut="7.3962527513504028e-01" cType="1" res="-3.4570835530757904e-02" rms="4.3854589462280273e+00" purity="1.0000000000000000e+00" nType="0">
          <Node pos="l" depth="2" NCoef="0" IVar="-1" Cut="0.0000000000000000e+00" cType="1" res="2.5968325138092041e-01" rms="4.5648236274719238e+00" purity="1.0000000000000000e+00" nType="-99"/>
          <Node pos="r" depth="2" NCoef="0" IVar="-1" Cut="0.0000000000000000e+00" cType="1" res="-1.0176596790552139e-01" rms="4.3462057113647461e+00" purity="1.0000000000000000e+00" nType="-99"/>
        </Node>
        <Node pos="r" depth="1" NCoef="0" IVar="-1" Cut="0.0000000000000000e+00" cType="1" res="-3.1063656806945801e+00" rms="5.2399253845214844e+00" purity="1.0000000000000000e+00" nType="-99"/>
      </Node>
    </BinaryTree>
    <BinaryTree type="DecisionTree" boostWeight="1.0000000000000000e+00" itree="102">
      <Node pos="s" depth="0" NCoef="0" IVar="-1" Cut="0.0000000000000000e+00" cType="1" res="1.3506208546459675e-02" rms="4.3945145606994629e+00" purity="1.0000000000000000e+00" nType="-99"/>
    </BinaryTree>
    <BinaryTree type="DecisionTree" boostWeight="1.0000000000000000e+00" itree="103">
      <Node pos="s" depth="0" NCoef="0" IVar="0" Cut="3.7070457935333252e+00" cType="1" res="-3.9238795638084412e-02" rms="4.4109845161437988e+00" purity="1.0000000000000000e+00" nType="0">
        <Node pos="l" depth="1" NCoef="0" IVar="0" Cut="5.4177868366241455e-01" cType="1" res="-3.5505443811416626e-02" rms="4.4066109657287598e+00" purity="1.0000000000000000e+00" nType="0">
          <Node pos="l" depth="2" NCoef="0" IVar="-1" Cut="0.0000000000000000e+00" cType="1" res="-9.2150157690048218e-01" rms="4.7856087684631348e+00" purity="1.0000000000000000e+00" nType="-99"/>
          <Node pos="r" depth="2" NCoef="0" IVar="-1" Cut="0.0000000000000000e+00" cType="1" res="-1.0603540576994419e-02" rms="4.3833785057067871e+00" purity="1.0000000000000000e+00" nType="-99"/>
        </Node>
        <Node pos="r" depth="1" NCoef="0" IVar="-1" Cut="0.0000000000000000e+00" cType="1" res="-9.7807192802429199e-01" rms="5.2226967811584473e+00" purity="1.0000000000000000e+00" nType="-99"/>
      </Node>
    </BinaryTree>
    <BinaryTree type="DecisionTree" boostWeight="1.0000000000000000e+00" itree="104">
      <Node pos="s" depth="0" NCoef="0" IVar="0" Cut="4.5904040336608887e+00" cType="1" res="5.8399390429258347e-02" rms="4.4095368385314941e+00" purity="1.0000000000000000e+00" nType="0">
        <Node pos="l" depth="1" NCoef="0" IVar="0" Cut="3.0056195259094238e+00" cType="1" res="6.2188051640987396e-02" rms="4.4065403938293457e+00" purity="1.0000000000000000e+00" nType="0">
          <Node pos="l" depth="2" NCoef="0" IVar="-1" Cut="0.0000000000000000e+00" cType="1" res="1.1683076620101929e-01" rms="4.4023852348327637e+00" purity="1.0000000000000000e+00" nType="-99"/>
          <Node pos="r" depth="2" NCoef="0" IVar="-1" Cut="0.0000000000000000e+00" cType="1" res="3.8167736530303955e+00" rms="4.8863830566406250e+00" purity="1.0000000000000000e+00" nType="-99"/>
        </Node>
        <Node pos="r" depth="1" NCoef="0" IVar="-1" Cut="0.0000000000000000e+00" cType="1" res="-2.0428645610809326e+00" rms="5.2424082756042480e+00" purity="1.0000000000000000e+00" nType="-99"/>
      </Node>
    </BinaryTree>
    <BinaryTree type="DecisionTree" boostWeight="1.0000000000000000e+00" itree="105">
      <Node pos="s" depth="0" NCoef="0" IVar="-1" Cut="0.0000000000000000e+00" cType="1" res="-1.6177630424499512e-01" rms="4.4001173973083496e+00" purity="1.0000000000000000e+00" nType="-99"/>
    </BinaryTree>
    <BinaryTree type="DecisionTree" boostWeight="1.0000000000000000e+00" itree="106">
      <Node pos="s" depth="0" NCoef="0" IVar="-1" Cut="0.0000000000000000e+00" cType="1" res="9.1484099626541138e-02" rms="4.3726811408996582e+00" purity="1.0000000000000000e+00" nType="-99"/>
    </BinaryTree>
    <BinaryTree type="DecisionTree" boostWeight="1.0000000000000000e+00" itree="107">
      <Node pos="s" depth="0" NCoef="0" IVar="-1" Cut="0.0000000000000000e+00" cType="1" res="-4.3497122824192047e-02" rms="4.3622984886169434e+00" purity="1.0000000000000000e+00" nType="-99"/>
    </BinaryTree>
    <BinaryTree type="DecisionTree" boostWeight="1.0000000000000000e+00" itree="108">
      <Node pos="s" depth="0" NCoef="0" IVar="0" Cut="3.7055754661560059e+00" cType="1" res="4.9034263938665390e-02" rms="4.3579039573669434e+00" purity="1.0000000000000000e+00" nType="0">
        <Node pos="l" depth="1" NCoef="0" IVar="0" Cut="2.9993503093719482e+00" cType="1" res="5.2327446639537811e-02" rms="4.3522429466247559e+00" purity="1.0000000000000000e+00" nType="0">
          <Node pos="l" depth="2" NCoef="0" IVar="-1" Cut="0.0000000000000000e+00" cType="1" res="6.5311022102832794e-02" rms="4.3517441749572754e+00" purity="1.0000000000000000e+00" nType="-99"/>
          <Node pos="r" depth="2" NCoef="0" IVar="-1" Cut="0.0000000000000000e+00" cType="1" res="-1.1094034910202026e+00" rms="4.3415679931640625e+00" purity="1.0000000000000000e+00" nType="-99"/>
        </Node>
        <Node pos="r" depth="1" NCoef="0" IVar="-1" Cut="0.0000000000000000e+00" cType="1" res="-8.1992948055267334e-01" rms="5.3189816474914551e+00" purity="1.0000000000000000e+00" nType="-99"/>
      </Node>
    </BinaryTree>
    <BinaryTree type="DecisionTree" boostWeight="1.0000000000000000e+00" itree="109">
      <Node pos="s" depth="0" NCoef="0" IVar="-1" Cut="0.0000000000000000e+00" cType="1" res="-1.9886890426278114e-02" rms="4.3844614028930664e+00" purity="1.0000000000000000e+00" nType="-99"/>
    </BinaryTree>
    <BinaryTree type="DecisionTree" boostWeight="1.0000000000000000e+00" itree="110">
      <Node pos="s" depth="0" NCoef="0" IVar="0" Cut="3.7055754661560059e+00" cType="1" res="3.7779500707983971e-03" rms="4.3595895767211914e+00" purity="1.0000000000000000e+00" nType="0">
        <Node pos="l" depth="1" NCoef="0" IVar="0" Cut="1.9456431865692139e+00" cType="1" res="-2.4828445166349411e-03" rms="4.3537983894348145e+00" purity="1.0000000000000000e+00" nType="0">
          <Node pos="l" depth="2" NCoef="0" IVar="-1" Cut="0.0000000000000000e+00" cType="1" res="-5.5428609251976013e-02" rms="4.3357858657836914e+00" purity="1.0000000000000000e+00" nType="-99"/>
          <Node pos="r" depth="2" NCoef="0" IVar="-1" Cut="0.0000000000000000e+00" cType="1" res="1.7225710153579712e+00" rms="4.8221716880798340e+00" purity="1.0000000000000000e+00" nType="-99"/>
        </Node>
        <Node pos="r" depth="1" NCoef="0" IVar="-1" Cut="0.0000000000000000e+00" cType="1" res="4.1024627685546875e+00" rms="5.2241983413696289e+00" purity="1.0000000000000000e+00" nType="-99"/>
      </Node>
    </BinaryTree>
    <BinaryTree type="DecisionTree" boostWeight="1.0000000000000000e+00" itree="111">
      <Node pos="s" depth="0" NCoef="0" IVar="-1" Cut="0.0000000000000000e+00" cType="1" res="-2.1830718964338303e-02" rms="4.3401432037353516e+00" purity="1.0000000000000000e+00" nType="-99"/>
    </BinaryTree>
    <BinaryTree type="DecisionTree" boostWeight="1.0000000000000000e+00" itree="112">
      <Node pos="s" depth="0" NCoef="0" IVar="0" Cut="2.5108520984649658e+00" cType="1" res="1.7856756225228310e-02" rms="4.3495044708251953e+00" purity="1.0000000000000000e+00" nType="0">
        <Node pos="l" depth="1" NCoef="0" IVar="0" Cut="1.4419167041778564e+00" cType="1" res="2.3269021883606911e-02" rms="4.3414483070373535e+00" purity="1.0000000000000000e+00" nType="0">
          <Node pos="l" depth="2" NCoef="0" IVar="-1" Cut="0.0000000000000000e+00" cType="1" res="1.0491525381803513e-01" rms="4.2873754501342773e+00" purity="1.0000000000000000e+00" nType="-99"/>
          <Node pos="r" depth="2" NCoef="0" IVar="-1" Cut="0.0000000000000000e+00" cType="1" res="-4.7016447782516479e-01" rms="4.6801905632019043e+00" purity="1.0000000000000000e+00" nType="-99"/>
        </Node>
        <Node pos="r" depth="1" NCoef="0" IVar="0" Cut="4.8877563476562500e+00" cType="1" res="-3.3788999915122986e-01" rms="4.8365054130554199e+00" purity="1.0000000000000000e+00" nType="0">
          <Node pos="l" depth="2" NCoef="0" IVar="-1" Cut="0.0000000000000000e+00" cType="1" res="-1.1643493175506592e+00" rms="4.7233171463012695e+00" purity="1.0000000000000000e+00" nType="-99"/>
          <Node pos="r" depth="2" NCoef="0" IVar="-1" Cut="0.0000000000000000e+00" cType="1" res="9.5347398519515991e-01" rms="5.2019076347351074e+00" purity="1.0000000000000000e+00" nType="-99"/>
        </Node>
      </Node>
    </BinaryTree>
    <BinaryTree type="DecisionTree" boostWeight="1.0000000000000000e+00" itree="113">
      <Node pos="s" depth="0" NCoef="0" IVar="-1" Cut="0.0000000000000000e+00" cType="1" res="9.9162898957729340e-02" rms="4.3572049140930176e+00" purity="1.0000000000000000e+00" nType="-99"/>
    </BinaryTree>
    <BinaryTree type="DecisionTree" boostWeight="1.0000000000000000e+00" itree="114">
      <Node pos="s" depth="0" NCoef="0" IVar="0" Cut="2.5069413185119629e+00" cType="1" res="-4.6442639082670212e-02" rms="4.3310928344726562e+00" purity="1.0000000000000000e+00" nType="0">
        <Node pos="l" depth="1" NCoef="0" IVar="0" Cut="2.3566606044769287e+00" cType="1" res="-3.6581754684448242e-02" rms="4.3164024353027344e+00" purity="1.0000000000000000e+00" nType="0">
          <Node pos="l" depth="2" NCoef="0" IVar="-1" Cut="0.0000000000000000e+00" cType="1" res="-1.0942776501178741e-01" rms="4.3147950172424316e+00" purity="1.0000000000000000e+00" nType="-99"/>
