<?xml version="1.0"?>
<MethodSetup Method="MLP::MLP">
  <GeneralInfo>
    <Info name="TMVA Release" value="4.2.0 [262656]"/>
    <Info name="ROOT Release" value="5.34/18 [336402]"/>
    <Info name="Creator" value="pandolf"/>
    <Info name="Date" value="Mon May 19 11:38:19 2014"/>
    <Info name="Host" value="Darwin pb-d-128-141-154-112.cern.ch 13.1.0 Darwin Kernel Version 13.1.0: Wed Apr 2 23:52:02 PDT 2014; root:xnu-2422.92.1~2/RELEASE_X86_64 x86_64"/>
    <Info name="Dir" value="/Users/pandolf/BTFAnalysis/PositionAnalysis/TMVA"/>
    <Info name="Training events" value="4190"/>
    <Info name="TrainingTime" value="1.26192670e+01"/>
    <Info name="AnalysisType" value="Regression"/>
  </GeneralInfo>
  <Options>
    <Option name="NCycles" modified="Yes">5000</Option>
    <Option name="HiddenLayers" modified="Yes">N+5,N+2</Option>
    <Option name="NeuronType" modified="Yes">tanh</Option>
    <Option name="RandomSeed" modified="No">1</Option>
    <Option name="EstimatorType" modified="No">MSE</Option>
    <Option name="NeuronInputType" modified="No">sum</Option>
    <Option name="V" modified="Yes">False</Option>
    <Option name="VerbosityLevel" modified="No">Default</Option>
    <Option name="VarTransform" modified="Yes">Norm</Option>
    <Option name="H" modified="Yes">False</Option>
    <Option name="CreateMVAPdfs" modified="No">False</Option>
    <Option name="IgnoreNegWeightsInTraining" modified="No">False</Option>
    <Option name="TrainingMethod" modified="Yes">BP</Option>
    <Option name="LearningRate" modified="No">2.000000e-02</Option>
    <Option name="DecayRate" modified="No">1.000000e-02</Option>
    <Option name="TestRate" modified="Yes">6</Option>
    <Option name="EpochMonitoring" modified="No">False</Option>
    <Option name="Sampling" modified="Yes">3.000000e-01</Option>
    <Option name="SamplingEpoch" modified="Yes">8.000000e-01</Option>
    <Option name="SamplingImportance" modified="No">1.000000e+00</Option>
    <Option name="SamplingTraining" modified="No">True</Option>
    <Option name="SamplingTesting" modified="No">False</Option>
    <Option name="ResetStep" modified="No">50</Option>
    <Option name="Tau" modified="No">3.000000e+00</Option>
    <Option name="BPMode" modified="No">sequential</Option>
    <Option name="BatchSize" modified="No">-1</Option>
    <Option name="ConvergenceImprove" modified="Yes">1.000000e-06</Option>
    <Option name="ConvergenceTests" modified="Yes">15</Option>
    <Option name="UseRegulator" modified="No">False</Option>
    <Option name="UpdateLimit" modified="No">10000</Option>
    <Option name="CalculateErrors" modified="No">False</Option>
    <Option name="WeightRange" modified="No">1.000000e+00</Option>
  </Options>
  <Variables NVar="4">
    <Variable VarIndex="0" Expression="cef3_corr[0]/(cef3_corr[0]+cef3_corr[1]+cef3_corr[2]+cef3_corr[3])" Label="cef3_corr[0]/(cef3_corr[0]+cef3_corr[1]+cef3_corr[2]+cef3_corr[3])" Title="CeF3 0" Unit="" Internal="cef3_corr_0__D__cef3_corr_0__P_cef3_corr_1__P_cef3_corr_2__P_cef3_corr_3__" Type="F" Min="6.77223727e-02" Max="5.30460000e-01"/>
    <Variable VarIndex="1" Expression="cef3_corr[1]/(cef3_corr[0]+cef3_corr[1]+cef3_corr[2]+cef3_corr[3])" Label="cef3_corr[1]/(cef3_corr[0]+cef3_corr[1]+cef3_corr[2]+cef3_corr[3])" Title="CeF3 1" Unit="" Internal="cef3_corr_1__D__cef3_corr_0__P_cef3_corr_1__P_cef3_corr_2__P_cef3_corr_3__" Type="F" Min="3.53610665e-02" Max="5.16376615e-01"/>
    <Variable VarIndex="2" Expression="cef3_corr[2]/(cef3_corr[0]+cef3_corr[1]+cef3_corr[2]+cef3_corr[3])" Label="cef3_corr[2]/(cef3_corr[0]+cef3_corr[1]+cef3_corr[2]+cef3_corr[3])" Title="CeF3 2" Unit="" Internal="cef3_corr_2__D__cef3_corr_0__P_cef3_corr_1__P_cef3_corr_2__P_cef3_corr_3__" Type="F" Min="5.29901870e-02" Max="7.03151882e-01"/>
    <Variable VarIndex="3" Expression="cef3_corr[3]/(cef3_corr[0]+cef3_corr[1]+cef3_corr[2]+cef3_corr[3])" Label="cef3_corr[3]/(cef3_corr[0]+cef3_corr[1]+cef3_corr[2]+cef3_corr[3])" Title="CeF3 3" Unit="" Internal="cef3_corr_3__D__cef3_corr_0__P_cef3_corr_1__P_cef3_corr_2__P_cef3_corr_3__" Type="F" Min="3.97924110e-02" Max="6.25240684e-01"/>
  </Variables>
  <Spectators NSpec="0"/>
  <Classes NClass="1">
    <Class Name="Regression" Index="0"/>
  </Classes>
  <Targets NTrgt="1">
    <Target TargetIndex="0" Expression="xPos_calo" Label="xPos_calo" Title="xPos_calo" Unit="" Internal="xPos_calo" Type="F" Min="-2.02909584e+01" Max="2.00556259e+01"/>
  </Targets>
  <Transformations NTransformations="1">
    <Transform Name="Normalize">
      <Selection>
        <Input NInputs="5">
          <Input Type="Variable" Label="cef3_corr[0]/(cef3_corr[0]+cef3_corr[1]+cef3_corr[2]+cef3_corr[3])" Expression="cef3_corr[0]/(cef3_corr[0]+cef3_corr[1]+cef3_corr[2]+cef3_corr[3])"/>
          <Input Type="Variable" Label="cef3_corr[1]/(cef3_corr[0]+cef3_corr[1]+cef3_corr[2]+cef3_corr[3])" Expression="cef3_corr[1]/(cef3_corr[0]+cef3_corr[1]+cef3_corr[2]+cef3_corr[3])"/>
          <Input Type="Variable" Label="cef3_corr[2]/(cef3_corr[0]+cef3_corr[1]+cef3_corr[2]+cef3_corr[3])" Expression="cef3_corr[2]/(cef3_corr[0]+cef3_corr[1]+cef3_corr[2]+cef3_corr[3])"/>
          <Input Type="Variable" Label="cef3_corr[3]/(cef3_corr[0]+cef3_corr[1]+cef3_corr[2]+cef3_corr[3])" Expression="cef3_corr[3]/(cef3_corr[0]+cef3_corr[1]+cef3_corr[2]+cef3_corr[3])"/>
          <Input Type="Target" Label="xPos_calo" Expression="xPos_calo"/>
        </Input>
        <Output NOutputs="5">
          <Output Type="Variable" Label="cef3_corr[0]/(cef3_corr[0]+cef3_corr[1]+cef3_corr[2]+cef3_corr[3])" Expression="cef3_corr[0]/(cef3_corr[0]+cef3_corr[1]+cef3_corr[2]+cef3_corr[3])"/>
          <Output Type="Variable" Label="cef3_corr[1]/(cef3_corr[0]+cef3_corr[1]+cef3_corr[2]+cef3_corr[3])" Expression="cef3_corr[1]/(cef3_corr[0]+cef3_corr[1]+cef3_corr[2]+cef3_corr[3])"/>
          <Output Type="Variable" Label="cef3_corr[2]/(cef3_corr[0]+cef3_corr[1]+cef3_corr[2]+cef3_corr[3])" Expression="cef3_corr[2]/(cef3_corr[0]+cef3_corr[1]+cef3_corr[2]+cef3_corr[3])"/>
          <Output Type="Variable" Label="cef3_corr[3]/(cef3_corr[0]+cef3_corr[1]+cef3_corr[2]+cef3_corr[3])" Expression="cef3_corr[3]/(cef3_corr[0]+cef3_corr[1]+cef3_corr[2]+cef3_corr[3])"/>
          <Output Type="Target" Label="xPos_calo" Expression="xPos_calo"/>
        </Output>
      </Selection>
      <Class ClassIndex="0">
        <Ranges>
          <Range Index="0" Min="6.7722372710704803e-02" Max="5.3046000003814697e-01"/>
          <Range Index="1" Min="3.5361066460609436e-02" Max="5.1637661457061768e-01"/>
          <Range Index="2" Min="5.2990186959505081e-02" Max="7.0315188169479370e-01"/>
          <Range Index="3" Min="3.9792411029338837e-02" Max="6.2524068355560303e-01"/>
          <Range Index="4" Min="-2.0290958404541016e+01" Max="2.0055625915527344e+01"/>
        </Ranges>
      </Class>
    </Transform>
  </Transformations>
  <MVAPdfs/>
  <Weights>
    <Layout NLayers="4">
      <Layer Index="0" NNeurons="5">
        <Neuron NSynapses="9">
          8.0382503122683496e-02 2.0155715850219527e+00 8.6141409390342760e-01 1.5320377461216577e+00 -1.9354769581522004e+00 -1.3192908280079334e+00 -7.6529752867898615e-01 1.9658813339272840e+00 -1.2821228431699683e+00 
        </Neuron>
        <Neuron NSynapses="9">
          -7.5726730708941736e-01 -1.6045954128028721e+00 -2.6169268358473319e-01 -1.1372869639066787e+00 -4.3483233018549311e-01 -6.2937608254568134e-01 7.0202376331029681e-01 -1.9983036393622125e-01 1.5826753187105060e+00 
        </Neuron>
        <Neuron NSynapses="9">
          -3.0157192456515741e-01 1.1115202737072245e+00 -2.6735684845233376e-01 -7.7700877715316574e-01 5.3789329351508031e-01 -4.3503724312594208e-02 -1.2216267963557543e+00 -3.1665072988853865e-01 1.5819906299472528e+00 
        </Neuron>
        <Neuron NSynapses="9">
          -1.1779697606106321e+00 -1.8999885973837727e+00 6.4083679357662848e-02 8.4986835787314052e-01 1.4768471812520585e+00 -4.6619967365041087e-01 -1.5232751334161615e-01 2.8122228617372808e-01 -1.6233999060673396e-01 
        </Neuron>
        <Neuron NSynapses="9">
          -1.4050475874394914e+00 2.0342270061690892e+00 -1.3076730121407187e+00 1.0370828065972824e+00 1.5542638911715045e+00 1.0375089319929918e+00 1.8586510712033888e+00 1.1114339402790008e+00 -9.1490173561261712e-01 
        </Neuron>
      </Layer>
      <Layer Index="1" NNeurons="10">
        <Neuron NSynapses="6">
          -1.6828869486475120e+00 6.1473451606821405e-01 7.1538905394250715e-02 1.6112116880883702e+00 1.6317232087395759e+00 1.1295310110916423e+00 
        </Neuron>
        <Neuron NSynapses="6">
          1.3343874375223299e+00 -1.6252047115458066e+00 1.3187144201550891e+00 -1.8378817520742878e+00 -7.9769935570992034e-01 -1.2085748507155292e+00 
        </Neuron>
        <Neuron NSynapses="6">
          -1.9156063583936163e+00 1.3873845144757186e+00 6.8258381391287670e-01 -1.3755746743401940e+00 4.3744713821575720e-01 -5.7719524757740148e-01 
        </Neuron>
        <Neuron NSynapses="6">
          6.1813952920398574e-01 2.0447102294747048e+00 -3.5139259754967639e-01 2.2364282554046844e-01 -1.3368241193488273e+00 7.9154808793462772e-01 
        </Neuron>
        <Neuron NSynapses="6">
          -7.1522618548393113e-01 -7.2667200384388775e-01 -1.4333502844177204e+00 5.5798988922225767e-01 5.5405568209216483e-01 1.3984979681610488e+00 
        </Neuron>
        <Neuron NSynapses="6">
          -2.0119251539340455e-01 -1.8189273797436192e+00 -1.8643991756603806e+00 8.2102996354815960e-01 3.5019839004811221e-01 2.1127491095391426e+00 
        </Neuron>
        <Neuron NSynapses="6">
          7.8509622094245179e-01 1.2048436976180972e+00 -8.0536015277281925e-01 -1.0294513286702267e+00 -3.5211139211643361e-01 1.6027281509570164e+00 
        </Neuron>
        <Neuron NSynapses="6">
          -1.0877347180564385e+00 -1.4777709848910028e+00 -1.7052447350848692e+00 -7.3280598783695763e-02 -1.5605804026041056e-01 1.6366154603656331e+00 
        </Neuron>
        <Neuron NSynapses="6">
          -1.5745348966666493e+00 -1.0389655902303543e+00 1.6121184801317141e+00 -8.6984123982445494e-01 -1.4146714166628469e+00 -1.5053671476922759e+00 
        </Neuron>
        <Neuron NSynapses="6">
          2.5830730290971060e-01 -1.7069718811495505e+00 -1.6650213775897622e+00 5.5309560026247162e-01 1.5419653110104110e+00 -7.2686700019979356e-01 
        </Neuron>
      </Layer>
      <Layer Index="2" NNeurons="7">
        <Neuron NSynapses="1">
          1.2113621952558460e+00 
        </Neuron>
        <Neuron NSynapses="1">
          -7.4979542902139684e-01 
        </Neuron>
        <Neuron NSynapses="1">
          -4.4473513393274372e-01 
        </Neuron>
        <Neuron NSynapses="1">
          -4.1515435607302850e-02 
        </Neuron>
        <Neuron NSynapses="1">
          9.2711226932495852e-02 
        </Neuron>
        <Neuron NSynapses="1">
          -1.8200259194558492e+00 
        </Neuron>
        <Neuron NSynapses="1">
          -9.6317887192888293e-02 
        </Neuron>
      </Layer>
      <Layer Index="3" NNeurons="1">
        <Neuron NSynapses="0"/>
      </Layer>
    </Layout>
  </Weights>
</MethodSetup>
