<?xml version="1.0"?>
<MethodSetup Method="BDT::BDTG">
  <GeneralInfo>
    <Info name="TMVA Release" value="4.2.0 [262656]"/>
    <Info name="ROOT Release" value="5.34/18 [336402]"/>
    <Info name="Creator" value="pandolf"/>
    <Info name="Date" value="Mon May 19 11:38:22 2014"/>
    <Info name="Host" value="Darwin pb-d-128-141-154-112.cern.ch 13.1.0 Darwin Kernel Version 13.1.0: Wed Apr 2 23:52:02 PDT 2014; root:xnu-2422.92.1~2/RELEASE_X86_64 x86_64"/>
    <Info name="Dir" value="/Users/pandolf/BTFAnalysis/PositionAnalysis/TMVA"/>
    <Info name="Training events" value="4190"/>
    <Info name="TrainingTime" value="6.11093998e-01"/>
    <Info name="AnalysisType" value="Regression"/>
  </GeneralInfo>
  <Options>
    <Option name="V" modified="Yes">False</Option>
    <Option name="VerbosityLevel" modified="No">Default</Option>
    <Option name="VarTransform" modified="No">None</Option>
    <Option name="H" modified="Yes">False</Option>
    <Option name="CreateMVAPdfs" modified="No">False</Option>
    <Option name="IgnoreNegWeightsInTraining" modified="No">False</Option>
    <Option name="NTrees" modified="Yes">200</Option>
    <Option name="MaxDepth" modified="No">2</Option>
    <Option name="MinNodeSize" modified="No">0.2%</Option>
    <Option name="nCuts" modified="Yes">20</Option>
    <Option name="BoostType" modified="Yes">Grad</Option>
    <Option name="AdaBoostR2Loss" modified="No">quadratic</Option>
    <Option name="UseBaggedBoost" modified="No">True</Option>
    <Option name="Shrinkage" modified="Yes">1.000000e+00</Option>
    <Option name="AdaBoostBeta" modified="No">5.000000e-01</Option>
    <Option name="UseRandomisedTrees" modified="No">False</Option>
    <Option name="UseNvars" modified="No">2</Option>
    <Option name="UsePoissonNvars" modified="No">True</Option>
    <Option name="BaggedSampleFraction" modified="No">6.000000e-01</Option>
    <Option name="UseYesNoLeaf" modified="No">False</Option>
    <Option name="NegWeightTreatment" modified="No">ignorenegweightsintraining</Option>
    <Option name="Css" modified="No">1.000000e+00</Option>
    <Option name="Cts_sb" modified="No">1.000000e+00</Option>
    <Option name="Ctb_ss" modified="No">1.000000e+00</Option>
    <Option name="Cbb" modified="No">1.000000e+00</Option>
    <Option name="NodePurityLimit" modified="No">5.000000e-01</Option>
    <Option name="SeparationType" modified="Yes">giniindex</Option>
    <Option name="DoBoostMonitor" modified="No">False</Option>
    <Option name="UseFisherCuts" modified="No">False</Option>
    <Option name="MinLinCorrForFisher" modified="No">8.000000e-01</Option>
    <Option name="UseExclusiveVars" modified="No">False</Option>
    <Option name="DoPreselection" modified="No">False</Option>
    <Option name="SigToBkgFraction" modified="No">1.000000e+00</Option>
    <Option name="PruneMethod" modified="No">nopruning</Option>
    <Option name="PruneStrength" modified="No">0.000000e+00</Option>
    <Option name="PruningValFraction" modified="No">5.000000e-01</Option>
    <Option name="nEventsMin" modified="No">0</Option>
    <Option name="UseBaggedGrad" modified="Yes">True</Option>
    <Option name="GradBaggingFraction" modified="No">6.000000e-01</Option>
    <Option name="UseNTrainEvents" modified="No">0</Option>
    <Option name="NNodesMax" modified="Yes">5</Option>
  </Options>
  <Variables NVar="4">
    <Variable VarIndex="0" Expression="cef3_corr[0]/(cef3_corr[0]+cef3_corr[1]+cef3_corr[2]+cef3_corr[3])" Label="cef3_corr[0]/(cef3_corr[0]+cef3_corr[1]+cef3_corr[2]+cef3_corr[3])" Title="CeF3 0" Unit="" Internal="cef3_corr_0__D__cef3_corr_0__P_cef3_corr_1__P_cef3_corr_2__P_cef3_corr_3__" Type="F" Min="6.77223727e-02" Max="5.30460000e-01"/>
    <Variable VarIndex="1" Expression="cef3_corr[1]/(cef3_corr[0]+cef3_corr[1]+cef3_corr[2]+cef3_corr[3])" Label="cef3_corr[1]/(cef3_corr[0]+cef3_corr[1]+cef3_corr[2]+cef3_corr[3])" Title="CeF3 1" Unit="" Internal="cef3_corr_1__D__cef3_corr_0__P_cef3_corr_1__P_cef3_corr_2__P_cef3_corr_3__" Type="F" Min="3.53610665e-02" Max="5.16376615e-01"/>
    <Variable VarIndex="2" Expression="cef3_corr[2]/(cef3_corr[0]+cef3_corr[1]+cef3_corr[2]+cef3_corr[3])" Label="cef3_corr[2]/(cef3_corr[0]+cef3_corr[1]+cef3_corr[2]+cef3_corr[3])" Title="CeF3 2" Unit="" Internal="cef3_corr_2__D__cef3_corr_0__P_cef3_corr_1__P_cef3_corr_2__P_cef3_corr_3__" Type="F" Min="5.29901870e-02" Max="7.03151882e-01"/>
    <Variable VarIndex="3" Expression="cef3_corr[3]/(cef3_corr[0]+cef3_corr[1]+cef3_corr[2]+cef3_corr[3])" Label="cef3_corr[3]/(cef3_corr[0]+cef3_corr[1]+cef3_corr[2]+cef3_corr[3])" Title="CeF3 3" Unit="" Internal="cef3_corr_3__D__cef3_corr_0__P_cef3_corr_1__P_cef3_corr_2__P_cef3_corr_3__" Type="F" Min="3.97924110e-02" Max="6.25240684e-01"/>
  </Variables>
  <Spectators NSpec="0"/>
  <Classes NClass="1">
    <Class Name="Regression" Index="0"/>
  </Classes>
  <Targets NTrgt="1">
    <Target TargetIndex="0" Expression="xPos_calo" Label="xPos_calo" Title="xPos_calo" Unit="" Internal="xPos_calo" Type="F" Min="-2.02909584e+01" Max="2.00556259e+01"/>
  </Targets>
  <Transformations NTransformations="0"/>
  <MVAPdfs/>
  <Weights NTrees="200" AnalysisType="1">
    <BinaryTree type="DecisionTree" boostWeight="-1.0263235569000244e+00" itree="0">
      <Node pos="s" depth="0" NCoef="0" IVar="1" Cut="2.8217682242393494e-01" cType="1" res="5.9777546674013138e-02" rms="3.6152200698852539e+00" purity="1.0000000000000000e+00" nType="0">
        <Node pos="l" depth="1" NCoef="0" IVar="2" Cut="1.8202319741249084e-01" cType="1" res="-1.9680321216583252e-01" rms="3.5985572338104248e+00" purity="1.0000000000000000e+00" nType="0">
          <Node pos="l" depth="2" NCoef="0" IVar="-1" Cut="0.0000000000000000e+00" cType="1" res="-3.3290271759033203e+00" rms="3.2749967575073242e+00" purity="1.0000000000000000e+00" nType="-99"/>
          <Node pos="r" depth="2" NCoef="0" IVar="-1" Cut="0.0000000000000000e+00" cType="1" res="-1.6799136996269226e-01" rms="3.5872182846069336e+00" purity="1.0000000000000000e+00" nType="-99"/>
        </Node>
        <Node pos="r" depth="1" NCoef="0" IVar="3" Cut="2.2756721079349518e-01" cType="1" res="8.8117468357086182e-01" rms="3.5453033447265625e+00" purity="1.0000000000000000e+00" nType="0">
          <Node pos="l" depth="2" NCoef="0" IVar="-1" Cut="0.0000000000000000e+00" cType="1" res="2.1197910308837891e+00" rms="3.5638458728790283e+00" purity="1.0000000000000000e+00" nType="-99"/>
          <Node pos="r" depth="2" NCoef="0" IVar="-1" Cut="0.0000000000000000e+00" cType="1" res="5.5922454595565796e-01" rms="3.4602785110473633e+00" purity="1.0000000000000000e+00" nType="-99"/>
        </Node>
      </Node>
    </BinaryTree>
    <BinaryTree type="DecisionTree" boostWeight="1.0000000000000000e+00" itree="1">
      <Node pos="s" depth="0" NCoef="0" IVar="0" Cut="2.5120851397514343e-01" cType="1" res="-5.7275027036666870e-01" rms="4.7391166687011719e+00" purity="1.0000000000000000e+00" nType="0">
        <Node pos="l" depth="1" NCoef="0" IVar="2" Cut="3.6424914002418518e-01" cType="1" res="-2.9899388551712036e-01" rms="4.6151270866394043e+00" purity="1.0000000000000000e+00" nType="0">
          <Node pos="l" depth="2" NCoef="0" IVar="-1" Cut="0.0000000000000000e+00" cType="1" res="1.2674118578433990e-01" rms="4.5911335945129395e+00" purity="1.0000000000000000e+00" nType="-99"/>
          <Node pos="r" depth="2" NCoef="0" IVar="-1" Cut="0.0000000000000000e+00" cType="1" res="4.4671258926391602e+00" rms="4.7987241744995117e+00" purity="1.0000000000000000e+00" nType="-99"/>
        </Node>
        <Node pos="r" depth="1" NCoef="0" IVar="2" Cut="1.4857795834541321e-01" cType="1" res="-9.5073258876800537e-01" rms="4.8799877166748047e+00" purity="1.0000000000000000e+00" nType="0">
          <Node pos="l" depth="2" NCoef="0" IVar="-1" Cut="0.0000000000000000e+00" cType="1" res="2.1100044250488281e-01" rms="9.1021986007690430e+00" purity="1.0000000000000000e+00" nType="-99"/>
          <Node pos="r" depth="2" NCoef="0" IVar="-1" Cut="0.0000000000000000e+00" cType="1" res="-3.0516093969345093e-01" rms="4.8045287132263184e+00" purity="1.0000000000000000e+00" nType="-99"/>
        </Node>
      </Node>
    </BinaryTree>
    <BinaryTree type="DecisionTree" boostWeight="1.0000000000000000e+00" itree="2">
      <Node pos="s" depth="0" NCoef="0" IVar="2" Cut="4.2451116442680359e-01" cType="1" res="-2.2216945886611938e-01" rms="4.2332005500793457e+00" purity="1.0000000000000000e+00" nType="0">
        <Node pos="l" depth="1" NCoef="0" IVar="1" Cut="4.2099145054817200e-01" cType="1" res="-2.4150621891021729e-01" rms="4.2076563835144043e+00" purity="1.0000000000000000e+00" nType="0">
          <Node pos="l" depth="2" NCoef="0" IVar="-1" Cut="0.0000000000000000e+00" cType="1" res="5.9929724782705307e-02" rms="4.1871080398559570e+00" purity="1.0000000000000000e+00" nType="-99"/>
          <Node pos="r" depth="2" NCoef="0" IVar="-1" Cut="0.0000000000000000e+00" cType="1" res="1.1395724296569824e+01" rms="6.0844225883483887e+00" purity="1.0000000000000000e+00" nType="-99"/>
        </Node>
        <Node pos="r" depth="1" NCoef="0" IVar="-1" Cut="0.0000000000000000e+00" cType="1" res="1.1988663673400879e+01" rms="6.8529911041259766e+00" purity="1.0000000000000000e+00" nType="-99"/>
      </Node>
    </BinaryTree>
    <BinaryTree type="DecisionTree" boostWeight="1.0000000000000000e+00" itree="3">
      <Node pos="s" depth="0" NCoef="0" IVar="2" Cut="4.0326413512229919e-01" cType="1" res="-2.3936423659324646e-01" rms="4.0443401336669922e+00" purity="1.0000000000000000e+00" nType="0">
        <Node pos="l" depth="1" NCoef="0" IVar="2" Cut="2.9450777173042297e-01" cType="1" res="-2.6611828804016113e-01" rms="4.0285820960998535e+00" purity="1.0000000000000000e+00" nType="0">
          <Node pos="l" depth="2" NCoef="0" IVar="-1" Cut="0.0000000000000000e+00" cType="1" res="-3.1157252192497253e-01" rms="4.0171957015991211e+00" purity="1.0000000000000000e+00" nType="-99"/>
          <Node pos="r" depth="2" NCoef="0" IVar="-1" Cut="0.0000000000000000e+00" cType="1" res="8.4067320823669434e-01" rms="3.9928348064422607e+00" purity="1.0000000000000000e+00" nType="-99"/>
        </Node>
        <Node pos="r" depth="1" NCoef="0" IVar="-1" Cut="0.0000000000000000e+00" cType="1" res="-2.0596063137054443e+00" rms="2.7542693614959717e+00" purity="1.0000000000000000e+00" nType="-99"/>
      </Node>
    </BinaryTree>
    <BinaryTree type="DecisionTree" boostWeight="1.0000000000000000e+00" itree="4">
      <Node pos="s" depth="0" NCoef="0" IVar="1" Cut="2.8652709722518921e-01" cType="1" res="-1.3655172288417816e-01" rms="3.7824399471282959e+00" purity="1.0000000000000000e+00" nType="0">
        <Node pos="l" depth="1" NCoef="0" IVar="3" Cut="3.0094060301780701e-01" cType="1" res="-2.3041469976305962e-02" rms="3.7436273097991943e+00" purity="1.0000000000000000e+00" nType="0">
          <Node pos="l" depth="2" NCoef="0" IVar="-1" Cut="0.0000000000000000e+00" cType="1" res="2.9441997408866882e-01" rms="3.7480273246765137e+00" purity="1.0000000000000000e+00" nType="-99"/>
          <Node pos="r" depth="2" NCoef="0" IVar="-1" Cut="0.0000000000000000e+00" cType="1" res="-4.0485602617263794e-01" rms="3.6662631034851074e+00" purity="1.0000000000000000e+00" nType="-99"/>
        </Node>
        <Node pos="r" depth="1" NCoef="0" IVar="0" Cut="3.3155772089958191e-01" cType="1" res="-5.7473301887512207e-01" rms="3.8977847099304199e+00" purity="1.0000000000000000e+00" nType="0">
          <Node pos="l" depth="2" NCoef="0" IVar="-1" Cut="0.0000000000000000e+00" cType="1" res="-7.1846532821655273e-01" rms="3.8833189010620117e+00" purity="1.0000000000000000e+00" nType="-99"/>
          <Node pos="r" depth="2" NCoef="0" IVar="-1" Cut="0.0000000000000000e+00" cType="1" res="5.0630531311035156e+00" rms="2.6386580467224121e+00" purity="1.0000000000000000e+00" nType="-99"/>
        </Node>
      </Node>
    </BinaryTree>
    <BinaryTree type="DecisionTree" boostWeight="1.0000000000000000e+00" itree="5">
      <Node pos="s" depth="0" NCoef="0" IVar="2" Cut="1.5314239263534546e-01" cType="1" res="-4.0337510290555656e-04" rms="3.7059564590454102e+00" purity="1.0000000000000000e+00" nType="0">
        <Node pos="l" depth="1" NCoef="0" IVar="0" Cut="2.5204926729202271e-01" cType="1" res="2.4806230068206787e+00" rms="3.2966969013214111e+00" purity="1.0000000000000000e+00" nType="0">
          <Node pos="l" depth="2" NCoef="0" IVar="-1" Cut="0.0000000000000000e+00" cType="1" res="7.2107424736022949e+00" rms="1.5248368978500366e+00" purity="1.0000000000000000e+00" nType="-99"/>
          <Node pos="r" depth="2" NCoef="0" IVar="-1" Cut="0.0000000000000000e+00" cType="1" res="1.9061828851699829e+00" rms="3.6385626792907715e+00" purity="1.0000000000000000e+00" nType="-99"/>
        </Node>
        <Node pos="r" depth="1" NCoef="0" IVar="0" Cut="3.7973934412002563e-01" cType="1" res="-2.5313276797533035e-02" rms="3.7014138698577881e+00" purity="1.0000000000000000e+00" nType="0">
          <Node pos="l" depth="2" NCoef="0" IVar="-1" Cut="0.0000000000000000e+00" cType="1" res="4.7944299876689911e-02" rms="3.6698181629180908e+00" purity="1.0000000000000000e+00" nType="-99"/>
          <Node pos="r" depth="2" NCoef="0" IVar="-1" Cut="0.0000000000000000e+00" cType="1" res="4.4440793991088867e+00" rms="6.9192185401916504e+00" purity="1.0000000000000000e+00" nType="-99"/>
        </Node>
      </Node>
    </BinaryTree>
    <BinaryTree type="DecisionTree" boostWeight="1.0000000000000000e+00" itree="6">
      <Node pos="s" depth="0" NCoef="0" IVar="2" Cut="3.5820209980010986e-01" cType="1" res="3.6323647946119308e-02" rms="3.6677300930023193e+00" purity="1.0000000000000000e+00" nType="0">
        <Node pos="l" depth="1" NCoef="0" IVar="3" Cut="1.9330579042434692e-01" cType="1" res="7.0821590721607208e-02" rms="3.6642293930053711e+00" purity="1.0000000000000000e+00" nType="0">
          <Node pos="l" depth="2" NCoef="0" IVar="-1" Cut="0.0000000000000000e+00" cType="1" res="-1.7969921827316284e+00" rms="3.7233133316040039e+00" purity="1.0000000000000000e+00" nType="-99"/>
          <Node pos="r" depth="2" NCoef="0" IVar="-1" Cut="0.0000000000000000e+00" cType="1" res="2.7056851983070374e-01" rms="3.6483740806579590e+00" purity="1.0000000000000000e+00" nType="-99"/>
        </Node>
        <Node pos="r" depth="1" NCoef="0" IVar="1" Cut="2.4064017832279205e-01" cType="1" res="-2.7660593986511230e+00" rms="2.7544963359832764e+00" purity="1.0000000000000000e+00" nType="0">
          <Node pos="l" depth="2" NCoef="0" IVar="-1" Cut="0.0000000000000000e+00" cType="1" res="-2.2923562526702881e+00" rms="2.7971978187561035e+00" purity="1.0000000000000000e+00" nType="-99"/>
          <Node pos="r" depth="2" NCoef="0" IVar="-1" Cut="0.0000000000000000e+00" cType="1" res="-7.3309655189514160e+00" rms="8.2313261926174164e-02" purity="1.0000000000000000e+00" nType="-99"/>
        </Node>
      </Node>
    </BinaryTree>
    <BinaryTree type="DecisionTree" boostWeight="1.0000000000000000e+00" itree="7">
      <Node pos="s" depth="0" NCoef="0" IVar="3" Cut="3.7691226601600647e-01" cType="1" res="-9.9946856498718262e-02" rms="3.6357204914093018e+00" purity="1.0000000000000000e+00" nType="0">
        <Node pos="l" depth="1" NCoef="0" IVar="1" Cut="2.1860508620738983e-01" cType="1" res="-8.3627790212631226e-02" rms="3.6338901519775391e+00" purity="1.0000000000000000e+00" nType="0">
          <Node pos="l" depth="2" NCoef="0" IVar="-1" Cut="0.0000000000000000e+00" cType="1" res="-7.6799339056015015e-01" rms="3.6299760341644287e+00" purity="1.0000000000000000e+00" nType="-99"/>
          <Node pos="r" depth="2" NCoef="0" IVar="-1" Cut="0.0000000000000000e+00" cType="1" res="-4.8701234161853790e-02" rms="3.6290495395660400e+00" purity="1.0000000000000000e+00" nType="-99"/>
        </Node>
        <Node pos="r" depth="1" NCoef="0" IVar="1" Cut="1.8850582838058472e-01" cType="1" res="-3.1742081642150879e+00" rms="2.4947249889373779e+00" purity="1.0000000000000000e+00" nType="0">
          <Node pos="l" depth="2" NCoef="0" IVar="-1" Cut="0.0000000000000000e+00" cType="1" res="-3.1594891548156738e+00" rms="2.4983875751495361e+00" purity="1.0000000000000000e+00" nType="-99"/>
          <Node pos="r" depth="2" NCoef="0" IVar="-1" Cut="0.0000000000000000e+00" cType="1" res="-6.9965248107910156e+00" rms="2.0094482898712158e+00" purity="1.0000000000000000e+00" nType="-99"/>
        </Node>
      </Node>
    </BinaryTree>
    <BinaryTree type="DecisionTree" boostWeight="1.0000000000000000e+00" itree="8">
      <Node pos="s" depth="0" NCoef="0" IVar="0" Cut="3.7621411681175232e-01" cType="1" res="-1.4916953444480896e-01" rms="3.6291806697845459e+00" purity="1.0000000000000000e+00" nType="0">
        <Node pos="l" depth="1" NCoef="0" IVar="2" Cut="3.1770062446594238e-01" cType="1" res="-1.3277022540569305e-01" rms="3.6279544830322266e+00" purity="1.0000000000000000e+00" nType="0">
          <Node pos="l" depth="2" NCoef="0" IVar="-1" Cut="0.0000000000000000e+00" cType="1" res="3.8059388753026724e-03" rms="3.6142935752868652e+00" purity="1.0000000000000000e+00" nType="-99"/>
          <Node pos="r" depth="2" NCoef="0" IVar="-1" Cut="0.0000000000000000e+00" cType="1" res="-1.2697066068649292e+00" rms="3.6835160255432129e+00" purity="1.0000000000000000e+00" nType="-99"/>
        </Node>
        <Node pos="r" depth="1" NCoef="0" IVar="3" Cut="2.1522688865661621e-01" cType="1" res="-3.5984888076782227e+00" rms="1.7573767900466919e+00" purity="1.0000000000000000e+00" nType="0">
          <Node pos="l" depth="2" NCoef="0" IVar="-1" Cut="0.0000000000000000e+00" cType="1" res="-4.6919674873352051e+00" rms="2.2553796768188477e+00" purity="1.0000000000000000e+00" nType="-99"/>
          <Node pos="r" depth="2" NCoef="0" IVar="-1" Cut="0.0000000000000000e+00" cType="1" res="-5.4182095527648926e+00" rms="7.1005517244338989e-01" purity="1.0000000000000000e+00" nType="-99"/>
        </Node>
      </Node>
    </BinaryTree>
    <BinaryTree type="DecisionTree" boostWeight="1.0000000000000000e+00" itree="9">
      <Node pos="s" depth="0" NCoef="0" IVar="3" Cut="3.1248602271080017e-01" cType="1" res="7.1788012981414795e-02" rms="3.6039731502532959e+00" purity="1.0000000000000000e+00" nType="0">
        <Node pos="l" depth="1" NCoef="0" IVar="0" Cut="3.4295159578323364e-01" cType="1" res="5.4740356281399727e-03" rms="3.6034734249114990e+00" purity="1.0000000000000000e+00" nType="0">
          <Node pos="l" depth="2" NCoef="0" IVar="-1" Cut="0.0000000000000000e+00" cType="1" res="5.1077894866466522e-02" rms="3.6078722476959229e+00" purity="1.0000000000000000e+00" nType="-99"/>
          <Node pos="r" depth="2" NCoef="0" IVar="-1" Cut="0.0000000000000000e+00" cType="1" res="3.4583981037139893e+00" rms="2.7131721973419189e+00" purity="1.0000000000000000e+00" nType="-99"/>
        </Node>
        <Node pos="r" depth="1" NCoef="0" IVar="2" Cut="1.5372738242149353e-01" cType="1" res="9.5167982578277588e-01" rms="3.4934029579162598e+00" purity="1.0000000000000000e+00" nType="0">
          <Node pos="l" depth="2" NCoef="0" IVar="-1" Cut="0.0000000000000000e+00" cType="1" res="-1.3392916917800903e+00" rms="3.4227640628814697e+00" purity="1.0000000000000000e+00" nType="-99"/>
          <Node pos="r" depth="2" NCoef="0" IVar="-1" Cut="0.0000000000000000e+00" cType="1" res="1.7051844596862793e+00" rms="3.4154851436614990e+00" purity="1.0000000000000000e+00" nType="-99"/>
        </Node>
      </Node>
    </BinaryTree>
    <BinaryTree type="DecisionTree" boostWeight="1.0000000000000000e+00" itree="10">
      <Node pos="s" depth="0" NCoef="0" IVar="3" Cut="1.7918485403060913e-01" cType="1" res="9.8613418638706207e-02" rms="3.5933790206909180e+00" purity="1.0000000000000000e+00" nType="0">
        <Node pos="l" depth="1" NCoef="0" IVar="0" Cut="3.4874847531318665e-01" cType="1" res="1.4078612327575684e+00" rms="3.6752016544342041e+00" purity="1.0000000000000000e+00" nType="0">
          <Node pos="l" depth="2" NCoef="0" IVar="-1" Cut="0.0000000000000000e+00" cType="1" res="2.8500223159790039e+00" rms="3.5429885387420654e+00" purity="1.0000000000000000e+00" nType="-99"/>
          <Node pos="r" depth="2" NCoef="0" IVar="-1" Cut="0.0000000000000000e+00" cType="1" res="-4.6625981330871582e+00" rms="1.6041011810302734e+00" purity="1.0000000000000000e+00" nType="-99"/>
        </Node>
        <Node pos="r" depth="1" NCoef="0" IVar="1" Cut="3.2310178875923157e-01" cType="1" res="3.1165668740868568e-02" rms="3.5761542320251465e+00" purity="1.0000000000000000e+00" nType="0">
          <Node pos="l" depth="2" NCoef="0" IVar="-1" Cut="0.0000000000000000e+00" cType="1" res="-8.0664545297622681e-02" rms="3.5580439567565918e+00" purity="1.0000000000000000e+00" nType="-99"/>
          <Node pos="r" depth="2" NCoef="0" IVar="-1" Cut="0.0000000000000000e+00" cType="1" res="1.7070422172546387e+00" rms="3.7347385883331299e+00" purity="1.0000000000000000e+00" nType="-99"/>
        </Node>
      </Node>
    </BinaryTree>
    <BinaryTree type="DecisionTree" boostWeight="1.0000000000000000e+00" itree="11">
      <Node pos="s" depth="0" NCoef="0" IVar="1" Cut="2.9387649893760681e-01" cType="1" res="-4.5045599341392517e-02" rms="3.6514537334442139e+00" purity="1.0000000000000000e+00" nType="0">
        <Node pos="l" depth="1" NCoef="0" IVar="3" Cut="3.1857728958129883e-01" cType="1" res="-1.5480673313140869e-01" rms="3.6238713264465332e+00" purity="1.0000000000000000e+00" nType="0">
          <Node pos="l" depth="2" NCoef="0" IVar="-1" Cut="0.0000000000000000e+00" cType="1" res="-1.0892067104578018e-01" rms="3.6050674915313721e+00" purity="1.0000000000000000e+00" nType="-99"/>
          <Node pos="r" depth="2" NCoef="0" IVar="-1" Cut="0.0000000000000000e+00" cType="1" res="-1.9436018466949463e+00" rms="3.7891688346862793e+00" purity="1.0000000000000000e+00" nType="-99"/>
        </Node>
        <Node pos="r" depth="1" NCoef="0" IVar="2" Cut="2.9861569404602051e-01" cType="1" res="5.1429271697998047e-01" rms="3.7391810417175293e+00" purity="1.0000000000000000e+00" nType="0">
          <Node pos="l" depth="2" NCoef="0" IVar="-1" Cut="0.0000000000000000e+00" cType="1" res="3.1278356909751892e-01" rms="3.7478461265563965e+00" purity="1.0000000000000000e+00" nType="-99"/>
          <Node pos="r" depth="2" NCoef="0" IVar="-1" Cut="0.0000000000000000e+00" cType="1" res="3.0604710578918457e+00" rms="2.4103972911834717e+00" purity="1.0000000000000000e+00" nType="-99"/>
        </Node>
      </Node>
    </BinaryTree>
    <BinaryTree type="DecisionTree" boostWeight="1.0000000000000000e+00" itree="12">
      <Node pos="s" depth="0" NCoef="0" IVar="0" Cut="3.2560211420059204e-01" cType="1" res="1.1791882105171680e-02" rms="3.6844313144683838e+00" purity="1.0000000000000000e+00" nType="0">
        <Node pos="l" depth="1" NCoef="0" IVar="0" Cut="1.6041196882724762e-01" cType="1" res="5.8808952569961548e-02" rms="3.6716289520263672e+00" purity="1.0000000000000000e+00" nType="0">
          <Node pos="l" depth="2" NCoef="0" IVar="-1" Cut="0.0000000000000000e+00" cType="1" res="2.4426264762878418e+00" rms="3.4867498874664307e+00" purity="1.0000000000000000e+00" nType="-99"/>
          <Node pos="r" depth="2" NCoef="0" IVar="-1" Cut="0.0000000000000000e+00" cType="1" res="4.6402011066675186e-02" rms="3.6690728664398193e+00" purity="1.0000000000000000e+00" nType="-99"/>
        </Node>
        <Node pos="r" depth="1" NCoef="0" IVar="2" Cut="1.9566702842712402e-01" cType="1" res="-1.3752117156982422e+00" rms="3.7900156974792480e+00" purity="1.0000000000000000e+00" nType="0">
          <Node pos="l" depth="2" NCoef="0" IVar="-1" Cut="0.0000000000000000e+00" cType="1" res="-5.1921744346618652e+00" rms="2.8430552482604980e+00" purity="1.0000000000000000e+00" nType="-99"/>
          <Node pos="r" depth="2" NCoef="0" IVar="-1" Cut="0.0000000000000000e+00" cType="1" res="-2.1219938993453979e-01" rms="3.8515346050262451e+00" purity="1.0000000000000000e+00" nType="-99"/>
        </Node>
      </Node>
    </BinaryTree>
    <BinaryTree type="DecisionTree" boostWeight="1.0000000000000000e+00" itree="13">
      <Node pos="s" depth="0" NCoef="0" IVar="0" Cut="2.7171009778976440e-01" cType="1" res="-9.8617129027843475e-02" rms="3.6478490829467773e+00" purity="1.0000000000000000e+00" nType="0">
        <Node pos="l" depth="1" NCoef="0" IVar="2" Cut="2.2218111157417297e-01" cType="1" res="-2.4249389767646790e-01" rms="3.6531708240509033e+00" purity="1.0000000000000000e+00" nType="0">
          <Node pos="l" depth="2" NCoef="0" IVar="-1" Cut="0.0000000000000000e+00" cType="1" res="-1.1334556341171265e+00" rms="3.6364254951477051e+00" purity="1.0000000000000000e+00" nType="-99"/>
          <Node pos="r" depth="2" NCoef="0" IVar="-1" Cut="0.0000000000000000e+00" cType="1" res="-2.0152443647384644e-01" rms="3.6450722217559814e+00" purity="1.0000000000000000e+00" nType="-99"/>
        </Node>
        <Node pos="r" depth="1" NCoef="0" IVar="3" Cut="2.7761957049369812e-01" cType="1" res="3.3057081699371338e-01" rms="3.5979084968566895e+00" purity="1.0000000000000000e+00" nType="0">
          <Node pos="l" depth="2" NCoef="0" IVar="-1" Cut="0.0000000000000000e+00" cType="1" res="3.7636509537696838e-01" rms="3.5857815742492676e+00" purity="1.0000000000000000e+00" nType="-99"/>
          <Node pos="r" depth="2" NCoef="0" IVar="-1" Cut="0.0000000000000000e+00" cType="1" res="2.6852972507476807e+00" rms="3.3972992897033691e+00" purity="1.0000000000000000e+00" nType="-99"/>
        </Node>
      </Node>
    </BinaryTree>
    <BinaryTree type="DecisionTree" boostWeight="1.0000000000000000e+00" itree="14">
      <Node pos="s" depth="0" NCoef="0" IVar="3" Cut="3.7535017728805542e-01" cType="1" res="-1.4458440244197845e-02" rms="3.6606616973876953e+00" purity="1.0000000000000000e+00" nType="0">
        <Node pos="l" depth="1" NCoef="0" IVar="1" Cut="3.9436578750610352e-01" cType="1" res="-4.0545959025621414e-02" rms="3.6536917686462402e+00" purity="1.0000000000000000e+00" nType="0">
          <Node pos="l" depth="2" NCoef="0" IVar="-1" Cut="0.0000000000000000e+00" cType="1" res="1.4900454320013523e-02" rms="3.6507296562194824e+00" purity="1.0000000000000000e+00" nType="-99"/>
          <Node pos="r" depth="2" NCoef="0" IVar="-1" Cut="0.0000000000000000e+00" cType="1" res="-3.8693950176239014e+00" rms="3.0732576847076416e+00" purity="1.0000000000000000e+00" nType="-99"/>
        </Node>
        <Node pos="r" depth="1" NCoef="0" IVar="2" Cut="1.8864798545837402e-01" cType="1" res="2.9132728576660156e+00" rms="3.2363352775573730e+00" purity="1.0000000000000000e+00" nType="0">
          <Node pos="l" depth="2" NCoef="0" IVar="-1" Cut="0.0000000000000000e+00" cType="1" res="7.4254493713378906e+00" rms="1.5612096786499023e+00" purity="1.0000000000000000e+00" nType="-99"/>
          <Node pos="r" depth="2" NCoef="0" IVar="-1" Cut="0.0000000000000000e+00" cType="1" res="1.5814964771270752e+00" rms="3.3981430530548096e+00" purity="1.0000000000000000e+00" nType="-99"/>
        </Node>
      </Node>
    </BinaryTree>
    <BinaryTree type="DecisionTree" boostWeight="1.0000000000000000e+00" itree="15">
      <Node pos="s" depth="0" NCoef="0" IVar="1" Cut="2.9387649893760681e-01" cType="1" res="1.1224564909934998e-01" rms="3.5945327281951904e+00" purity="1.0000000000000000e+00" nType="0">
        <Node pos="l" depth="1" NCoef="0" IVar="3" Cut="2.6612082123756409e-01" cType="1" res="2.2067648172378540e-01" rms="3.5825352668762207e+00" purity="1.0000000000000000e+00" nType="0">
          <Node pos="l" depth="2" NCoef="0" IVar="-1" Cut="0.0000000000000000e+00" cType="1" res="1.2693853676319122e-01" rms="3.5944232940673828e+00" purity="1.0000000000000000e+00" nType="-99"/>
          <Node pos="r" depth="2" NCoef="0" IVar="-1" Cut="0.0000000000000000e+00" cType="1" res="7.0177996158599854e-01" rms="3.5488438606262207e+00" purity="1.0000000000000000e+00" nType="-99"/>
        </Node>
        <Node pos="r" depth="1" NCoef="0" IVar="3" Cut="1.5881268680095673e-01" cType="1" res="-4.0370014309883118e-01" rms="3.6066946983337402e+00" purity="1.0000000000000000e+00" nType="0">
          <Node pos="l" depth="2" NCoef="0" IVar="-1" Cut="0.0000000000000000e+00" cType="1" res="-4.3338913917541504e+00" rms="1.8831117153167725e+00" purity="1.0000000000000000e+00" nType="-99"/>
          <Node pos="r" depth="2" NCoef="0" IVar="-1" Cut="0.0000000000000000e+00" cType="1" res="-3.8010770082473755e-01" rms="3.6072022914886475e+00" purity="1.0000000000000000e+00" nType="-99"/>
        </Node>
      </Node>
    </BinaryTree>
    <BinaryTree type="DecisionTree" boostWeight="1.0000000000000000e+00" itree="16">
      <Node pos="s" depth="0" NCoef="0" IVar="1" Cut="1.9569958746433258e-01" cType="1" res="-1.7643451690673828e-01" rms="3.6009871959686279e+00" purity="1.0000000000000000e+00" nType="0">
        <Node pos="l" depth="1" NCoef="0" IVar="3" Cut="2.2791519761085510e-01" cType="1" res="-1.0084509849548340e+00" rms="3.5270781517028809e+00" purity="1.0000000000000000e+00" nType="0">
          <Node pos="l" depth="2" NCoef="0" IVar="-1" Cut="0.0000000000000000e+00" cType="1" res="3.9816635847091675e-01" rms="3.6328291893005371e+00" purity="1.0000000000000000e+00" nType="-99"/>
          <Node pos="r" depth="2" NCoef="0" IVar="-1" Cut="0.0000000000000000e+00" cType="1" res="-2.1223890781402588e+00" rms="3.4329953193664551e+00" purity="1.0000000000000000e+00" nType="-99"/>
        </Node>
        <Node pos="r" depth="1" NCoef="0" IVar="1" Cut="2.7205377817153931e-01" cType="1" res="-9.1803558170795441e-02" rms="3.5976545810699463e+00" purity="1.0000000000000000e+00" nType="0">
          <Node pos="l" depth="2" NCoef="0" IVar="-1" Cut="0.0000000000000000e+00" cType="1" res="-3.8951054215431213e-02" rms="3.5607676506042480e+00" purity="1.0000000000000000e+00" nType="-99"/>
          <Node pos="r" depth="2" NCoef="0" IVar="-1" Cut="0.0000000000000000e+00" cType="1" res="-5.5215895175933838e-01" rms="3.6350126266479492e+00" purity="1.0000000000000000e+00" nType="-99"/>
        </Node>
      </Node>
    </BinaryTree>
    <BinaryTree type="DecisionTree" boostWeight="1.0000000000000000e+00" itree="17">
      <Node pos="s" depth="0" NCoef="0" IVar="0" Cut="2.7171009778976440e-01" cType="1" res="3.8500268012285233e-02" rms="3.5555973052978516e+00" purity="1.0000000000000000e+00" nType="0">
        <Node pos="l" depth="1" NCoef="0" IVar="0" Cut="1.7441509664058685e-01" cType="1" res="1.6980180144309998e-01" rms="3.5393688678741455e+00" purity="1.0000000000000000e+00" nType="0">
          <Node pos="l" depth="2" NCoef="0" IVar="-1" Cut="0.0000000000000000e+00" cType="1" res="-5.1611328125000000e-01" rms="3.4270210266113281e+00" purity="1.0000000000000000e+00" nType="-99"/>
          <Node pos="r" depth="2" NCoef="0" IVar="-1" Cut="0.0000000000000000e+00" cType="1" res="4.8851597309112549e-01" rms="3.5394794940948486e+00" purity="1.0000000000000000e+00" nType="-99"/>
        </Node>
        <Node pos="r" depth="1" NCoef="0" IVar="1" Cut="2.0795156061649323e-01" cType="1" res="-3.4473106265068054e-01" rms="3.5750732421875000e+00" purity="1.0000000000000000e+00" nType="0">
          <Node pos="l" depth="2" NCoef="0" IVar="-1" Cut="0.0000000000000000e+00" cType="1" res="1.0900394916534424e+00" rms="3.6461730003356934e+00" purity="1.0000000000000000e+00" nType="-99"/>
          <Node pos="r" depth="2" NCoef="0" IVar="-1" Cut="0.0000000000000000e+00" cType="1" res="-7.9638367891311646e-01" rms="3.5168986320495605e+00" purity="1.0000000000000000e+00" nType="-99"/>
        </Node>
      </Node>
    </BinaryTree>
    <BinaryTree type="DecisionTree" boostWeight="1.0000000000000000e+00" itree="18">
      <Node pos="s" depth="0" NCoef="0" IVar="2" Cut="1.4587043225765228e-01" cType="1" res="4.1241139173507690e-02" rms="3.5691785812377930e+00" purity="1.0000000000000000e+00" nType="0">
        <Node pos="l" depth="1" NCoef="0" IVar="3" Cut="2.6952755451202393e-01" cType="1" res="-2.8723068237304688e+00" rms="3.4077079296112061e+00" purity="1.0000000000000000e+00" nType="0">
          <Node pos="l" depth="2" NCoef="0" IVar="-1" Cut="0.0000000000000000e+00" cType="1" res="1.1120446920394897e+00" rms="3.9266819953918457e+00" purity="1.0000000000000000e+00" nType="-99"/>
          <Node pos="r" depth="2" NCoef="0" IVar="-1" Cut="0.0000000000000000e+00" cType="1" res="-9.0171604156494141e+00" rms="1.9184267520904541e+00" purity="1.0000000000000000e+00" nType="-99"/>
        </Node>
        <Node pos="r" depth="1" NCoef="0" IVar="0" Cut="1.3847960531711578e-01" cType="1" res="6.1204988509416580e-02" rms="3.5620486736297607e+00" purity="1.0000000000000000e+00" nType="0">
          <Node pos="l" depth="2" NCoef="0" IVar="-1" Cut="0.0000000000000000e+00" cType="1" res="-3.9507956504821777e+00" rms="2.6000769138336182e+00" purity="1.0000000000000000e+00" nType="-99"/>
          <Node pos="r" depth="2" NCoef="0" IVar="-1" Cut="0.0000000000000000e+00" cType="1" res="4.4334616512060165e-02" rms="3.5588324069976807e+00" purity="1.0000000000000000e+00" nType="-99"/>
        </Node>
      </Node>
    </BinaryTree>
    <BinaryTree type="DecisionTree" boostWeight="1.0000000000000000e+00" itree="19">
      <Node pos="s" depth="0" NCoef="0" IVar="2" Cut="3.0781710147857666e-01" cType="1" res="-2.1680932492017746e-02" rms="3.5569365024566650e+00" purity="1.0000000000000000e+00" nType="0">
        <Node pos="l" depth="1" NCoef="0" IVar="1" Cut="1.9752064347267151e-01" cType="1" res="-9.4438925385475159e-02" rms="3.5586898326873779e+00" purity="1.0000000000000000e+00" nType="0">
          <Node pos="l" depth="2" NCoef="0" IVar="-1" Cut="0.0000000000000000e+00" cType="1" res="1.0811266899108887e+00" rms="3.6787567138671875e+00" purity="1.0000000000000000e+00" nType="-99"/>
          <Node pos="r" depth="2" NCoef="0" IVar="-1" Cut="0.0000000000000000e+00" cType="1" res="-2.9920178651809692e-01" rms="3.5412402153015137e+00" purity="1.0000000000000000e+00" nType="-99"/>
        </Node>
        <Node pos="r" depth="1" NCoef="0" IVar="0" Cut="2.0095734298229218e-01" cType="1" res="6.2110793590545654e-01" rms="3.4758634567260742e+00" purity="1.0000000000000000e+00" nType="0">
          <Node pos="l" depth="2" NCoef="0" IVar="-1" Cut="0.0000000000000000e+00" cType="1" res="2.4404208660125732e+00" rms="3.1650116443634033e+00" purity="1.0000000000000000e+00" nType="-99"/>
          <Node pos="r" depth="2" NCoef="0" IVar="-1" Cut="0.0000000000000000e+00" cType="1" res="1.6837403178215027e-01" rms="3.5132029056549072e+00" purity="1.0000000000000000e+00" nType="-99"/>
        </Node>
      </Node>
    </BinaryTree>
    <BinaryTree type="DecisionTree" boostWeight="1.0000000000000000e+00" itree="20">
      <Node pos="s" depth="0" NCoef="0" IVar="2" Cut="2.3289316892623901e-01" cType="1" res="1.8463619053363800e-01" rms="3.5658903121948242e+00" purity="1.0000000000000000e+00" nType="0">
        <Node pos="l" depth="1" NCoef="0" IVar="3" Cut="3.1199246644973755e-01" cType="1" res="5.6472295522689819e-01" rms="3.5716216564178467e+00" purity="1.0000000000000000e+00" nType="0">
          <Node pos="l" depth="2" NCoef="0" IVar="-1" Cut="0.0000000000000000e+00" cType="1" res="1.0741845369338989e+00" rms="3.5612878799438477e+00" purity="1.0000000000000000e+00" nType="-99"/>
          <Node pos="r" depth="2" NCoef="0" IVar="-1" Cut="0.0000000000000000e+00" cType="1" res="-4.2290776968002319e-01" rms="3.4973380565643311e+00" purity="1.0000000000000000e+00" nType="-99"/>
        </Node>
        <Node pos="r" depth="1" NCoef="0" IVar="1" Cut="1.8221719563007355e-01" cType="1" res="-1.4977730810642242e-02" rms="3.5466003417968750e+00" purity="1.0000000000000000e+00" nType="0">
          <Node pos="l" depth="2" NCoef="0" IVar="-1" Cut="0.0000000000000000e+00" cType="1" res="5.3272652626037598e-01" rms="3.6097433567047119e+00" purity="1.0000000000000000e+00" nType="-99"/>
          <Node pos="r" depth="2" NCoef="0" IVar="-1" Cut="0.0000000000000000e+00" cType="1" res="-8.1624880433082581e-02" rms="3.5351302623748779e+00" purity="1.0000000000000000e+00" nType="-99"/>
        </Node>
      </Node>
    </BinaryTree>
    <BinaryTree type="DecisionTree" boostWeight="1.0000000000000000e+00" itree="21">
      <Node pos="s" depth="0" NCoef="0" IVar="1" Cut="2.6977410912513733e-01" cType="1" res="-7.1325480937957764e-02" rms="3.5443580150604248e+00" purity="1.0000000000000000e+00" nType="0">
        <Node pos="l" depth="1" NCoef="0" IVar="2" Cut="1.8877701461315155e-01" cType="1" res="-2.3098315298557281e-01" rms="3.4993004798889160e+00" purity="1.0000000000000000e+00" nType="0">
          <Node pos="l" depth="2" NCoef="0" IVar="-1" Cut="0.0000000000000000e+00" cType="1" res="8.3062517642974854e-01" rms="3.4994049072265625e+00" purity="1.0000000000000000e+00" nType="-99"/>
          <Node pos="r" depth="2" NCoef="0" IVar="-1" Cut="0.0000000000000000e+00" cType="1" res="-5.2385258674621582e-01" rms="3.4926860332489014e+00" purity="1.0000000000000000e+00" nType="-99"/>
        </Node>
        <Node pos="r" depth="1" NCoef="0" IVar="0" Cut="2.2196824848651886e-01" cType="1" res="2.5457176566123962e-01" rms="3.6127624511718750e+00" purity="1.0000000000000000e+00" nType="0">
          <Node pos="l" depth="2" NCoef="0" IVar="-1" Cut="0.0000000000000000e+00" cType="1" res="8.3031094074249268e-01" rms="3.4994421005249023e+00" purity="1.0000000000000000e+00" nType="-99"/>
          <Node pos="r" depth="2" NCoef="0" IVar="-1" Cut="0.0000000000000000e+00" cType="1" res="-3.3973738551139832e-01" rms="3.6574399471282959e+00" purity="1.0000000000000000e+00" nType="-99"/>
        </Node>
      </Node>
    </BinaryTree>
    <BinaryTree type="DecisionTree" boostWeight="1.0000000000000000e+00" itree="22">
      <Node pos="s" depth="0" NCoef="0" IVar="3" Cut="2.6952961087226868e-01" cType="1" res="3.0329832807183266e-02" rms="3.6084189414978027e+00" purity="1.0000000000000000e+00" nType="0">
        <Node pos="l" depth="1" NCoef="0" IVar="1" Cut="1.5363885462284088e-01" cType="1" res="1.8450114130973816e-01" rms="3.5889682769775391e+00" purity="1.0000000000000000e+00" nType="0">
          <Node pos="l" depth="2" NCoef="0" IVar="-1" Cut="0.0000000000000000e+00" cType="1" res="-7.8268556594848633e+00" rms="1.1462284326553345e+00" purity="1.0000000000000000e+00" nType="-99"/>
          <Node pos="r" depth="2" NCoef="0" IVar="-1" Cut="0.0000000000000000e+00" cType="1" res="3.9861080050468445e-01" rms="3.5818741321563721e+00" purity="1.0000000000000000e+00" nType="-99"/>
        </Node>
        <Node pos="r" depth="1" NCoef="0" IVar="3" Cut="3.5432225465774536e-01" cType="1" res="-3.4477823972702026e-01" rms="3.6280529499053955e+00" purity="1.0000000000000000e+00" nType="0">
          <Node pos="l" depth="2" NCoef="0" IVar="-1" Cut="0.0000000000000000e+00" cType="1" res="-6.7222595214843750e-01" rms="3.5989084243774414e+00" purity="1.0000000000000000e+00" nType="-99"/>
          <Node pos="r" depth="2" NCoef="0" IVar="-1" Cut="0.0000000000000000e+00" cType="1" res="2.7935373783111572e+00" rms="3.7083981037139893e+00" purity="1.0000000000000000e+00" nType="-99"/>
        </Node>
      </Node>
    </BinaryTree>
    <BinaryTree type="DecisionTree" boostWeight="1.0000000000000000e+00" itree="23">
      <Node pos="s" depth="0" NCoef="0" IVar="2" Cut="4.2451116442680359e-01" cType="1" res="-1.2867485173046589e-02" rms="3.6324706077575684e+00" purity="1.0000000000000000e+00" nType="0">
        <Node pos="l" depth="1" NCoef="0" IVar="3" Cut="3.0180212855339050e-01" cType="1" res="-2.6154599618166685e-03" rms="3.6307187080383301e+00" purity="1.0000000000000000e+00" nType="0">
          <Node pos="l" depth="2" NCoef="0" IVar="-1" Cut="0.0000000000000000e+00" cType="1" res="8.5720963776111603e-02" rms="3.6369690895080566e+00" purity="1.0000000000000000e+00" nType="-99"/>
          <Node pos="r" depth="2" NCoef="0" IVar="-1" Cut="0.0000000000000000e+00" cType="1" res="-3.2681995630264282e-01" rms="3.5424315929412842e+00" purity="1.0000000000000000e+00" nType="-99"/>
        </Node>
        <Node pos="r" depth="1" NCoef="0" IVar="-1" Cut="0.0000000000000000e+00" cType="1" res="3.8170208930969238e+00" rms="2.6369864940643311e+00" purity="1.0000000000000000e+00" nType="-99"/>
      </Node>
    </BinaryTree>
    <BinaryTree type="DecisionTree" boostWeight="1.0000000000000000e+00" itree="24">
      <Node pos="s" depth="0" NCoef="0" IVar="3" Cut="2.1871373057365417e-01" cType="1" res="-1.3376319408416748e-01" rms="3.6873295307159424e+00" purity="1.0000000000000000e+00" nType="0">
        <Node pos="l" depth="1" NCoef="0" IVar="2" Cut="4.2257606983184814e-01" cType="1" res="-5.2491629123687744e-01" rms="3.7135848999023438e+00" purity="1.0000000000000000e+00" nType="0">
          <Node pos="l" depth="2" NCoef="0" IVar="-1" Cut="0.0000000000000000e+00" cType="1" res="-7.6357722282409668e-01" rms="3.7024652957916260e+00" purity="1.0000000000000000e+00" nType="-99"/>
          <Node pos="r" depth="2" NCoef="0" IVar="-1" Cut="0.0000000000000000e+00" cType="1" res="-1.0707806587219238e+01" rms="9.5191252231597900e-01" purity="1.0000000000000000e+00" nType="-99"/>
        </Node>
        <Node pos="r" depth="1" NCoef="0" IVar="2" Cut="3.1886163353919983e-01" cType="1" res="-1.5344272367656231e-02" rms="3.6711344718933105e+00" purity="1.0000000000000000e+00" nType="0">
          <Node pos="l" depth="2" NCoef="0" IVar="-1" Cut="0.0000000000000000e+00" cType="1" res="-3.5336323082447052e-02" rms="3.6736905574798584e+00" purity="1.0000000000000000e+00" nType="-99"/>
          <Node pos="r" depth="2" NCoef="0" IVar="-1" Cut="0.0000000000000000e+00" cType="1" res="8.4879440069198608e-01" rms="3.4613962173461914e+00" purity="1.0000000000000000e+00" nType="-99"/>
        </Node>
      </Node>
    </BinaryTree>
    <BinaryTree type="DecisionTree" boostWeight="1.0000000000000000e+00" itree="25">
      <Node pos="s" depth="0" NCoef="0" IVar="3" Cut="1.5822456777095795e-01" cType="1" res="-3.1716268509626389e-02" rms="3.6167132854461670e+00" purity="1.0000000000000000e+00" nType="0">
        <Node pos="l" depth="1" NCoef="0" IVar="0" Cut="3.1102642416954041e-01" cType="1" res="2.1591589450836182e+00" rms="3.3699488639831543e+00" purity="1.0000000000000000e+00" nType="0">
          <Node pos="l" depth="2" NCoef="0" IVar="-1" Cut="0.0000000000000000e+00" cType="1" res="4.7057356834411621e+00" rms="3.0199465751647949e+00" purity="1.0000000000000000e+00" nType="-99"/>
          <Node pos="r" depth="2" NCoef="0" IVar="-1" Cut="0.0000000000000000e+00" cType="1" res="1.0360772609710693e+00" rms="3.5553238391876221e+00" purity="1.0000000000000000e+00" nType="-99"/>
        </Node>
        <Node pos="r" depth="1" NCoef="0" IVar="0" Cut="1.3145352900028229e-01" cType="1" res="-6.6323041915893555e-02" rms="3.6098241806030273e+00" purity="1.0000000000000000e+00" nType="0">
          <Node pos="l" depth="2" NCoef="0" IVar="-1" Cut="0.0000000000000000e+00" cType="1" res="7.6411423683166504e+00" rms="1.0696564912796021e+00" purity="1.0000000000000000e+00" nType="-99"/>
          <Node pos="r" depth="2" NCoef="0" IVar="-1" Cut="0.0000000000000000e+00" cType="1" res="-3.6200184375047684e-02" rms="3.6056787967681885e+00" purity="1.0000000000000000e+00" nType="-99"/>
        </Node>
      </Node>
    </BinaryTree>
    <BinaryTree type="DecisionTree" boostWeight="1.0000000000000000e+00" itree="26">
      <Node pos="s" depth="0" NCoef="0" IVar="1" Cut="1.9569958746433258e-01" cType="1" res="-1.0585730522871017e-01" rms="3.6163260936737061e+00" purity="1.0000000000000000e+00" nType="0">
        <Node pos="l" depth="1" NCoef="0" IVar="1" Cut="1.5749807655811310e-01" cType="1" res="-6.7390501499176025e-01" rms="3.7670829296112061e+00" purity="1.0000000000000000e+00" nType="0">
          <Node pos="l" depth="2" NCoef="0" IVar="-1" Cut="0.0000000000000000e+00" cType="1" res="1.5708066225051880e+00" rms="3.5634934902191162e+00" purity="1.0000000000000000e+00" nType="-99"/>
          <Node pos="r" depth="2" NCoef="0" IVar="-1" Cut="0.0000000000000000e+00" cType="1" res="-1.3135145902633667e+00" rms="3.7463839054107666e+00" purity="1.0000000000000000e+00" nType="-99"/>
        </Node>
        <Node pos="r" depth="1" NCoef="0" IVar="2" Cut="2.9621270298957825e-01" cType="1" res="-4.6505350619554520e-02" rms="3.5950348377227783e+00" purity="1.0000000000000000e+00" nType="0">
          <Node pos="l" depth="2" NCoef="0" IVar="-1" Cut="0.0000000000000000e+00" cType="1" res="1.2762190401554108e-01" rms="3.5967917442321777e+00" purity="1.0000000000000000e+00" nType="-99"/>
          <Node pos="r" depth="2" NCoef="0" IVar="-1" Cut="0.0000000000000000e+00" cType="1" res="-9.7479987144470215e-01" rms="3.5249199867248535e+00" purity="1.0000000000000000e+00" nType="-99"/>
        </Node>
      </Node>
    </BinaryTree>
    <BinaryTree type="DecisionTree" boostWeight="1.0000000000000000e+00" itree="27">
      <Node pos="s" depth="0" NCoef="0" IVar="0" Cut="2.0243124663829803e-01" cType="1" res="4.6544995158910751e-02" rms="3.6225712299346924e+00" purity="1.0000000000000000e+00" nType="0">
        <Node pos="l" depth="1" NCoef="0" IVar="2" Cut="3.0781710147857666e-01" cType="1" res="-5.2461868524551392e-01" rms="3.6315813064575195e+00" purity="1.0000000000000000e+00" nType="0">
          <Node pos="l" depth="2" NCoef="0" IVar="-1" Cut="0.0000000000000000e+00" cType="1" res="-1.4541414380073547e-01" rms="3.5921559333801270e+00" purity="1.0000000000000000e+00" nType="-99"/>
          <Node pos="r" depth="2" NCoef="0" IVar="-1" Cut="0.0000000000000000e+00" cType="1" res="-2.3792912960052490e+00" rms="3.5291309356689453e+00" purity="1.0000000000000000e+00" nType="-99"/>
        </Node>
        <Node pos="r" depth="1" NCoef="0" IVar="2" Cut="2.5839519500732422e-01" cType="1" res="1.5245614945888519e-01" rms="3.6109821796417236e+00" purity="1.0000000000000000e+00" nType="0">
          <Node pos="l" depth="2" NCoef="0" IVar="-1" Cut="0.0000000000000000e+00" cType="1" res="-1.0629426687955856e-01" rms="3.5907602310180664e+00" purity="1.0000000000000000e+00" nType="-99"/>
          <Node pos="r" depth="2" NCoef="0" IVar="-1" Cut="0.0000000000000000e+00" cType="1" res="1.0012011528015137e+00" rms="3.6072664260864258e+00" purity="1.0000000000000000e+00" nType="-99"/>
        </Node>
      </Node>
    </BinaryTree>
    <BinaryTree type="DecisionTree" boostWeight="1.0000000000000000e+00" itree="28">
      <Node pos="s" depth="0" NCoef="0" IVar="1" Cut="3.1410378217697144e-01" cType="1" res="5.1387351006269455e-02" rms="3.6739792823791504e+00" purity="1.0000000000000000e+00" nType="0">
        <Node pos="l" depth="1" NCoef="0" IVar="3" Cut="2.1744064986705780e-01" cType="1" res="1.2314062565565109e-01" rms="3.6541256904602051e+00" purity="1.0000000000000000e+00" nType="0">
          <Node pos="l" depth="2" NCoef="0" IVar="-1" Cut="0.0000000000000000e+00" cType="1" res="6.7476099729537964e-01" rms="3.6567246913909912e+00" purity="1.0000000000000000e+00" nType="-99"/>
          <Node pos="r" depth="2" NCoef="0" IVar="-1" Cut="0.0000000000000000e+00" cType="1" res="-4.1858572512865067e-02" rms="3.6431579589843750e+00" purity="1.0000000000000000e+00" nType="-99"/>
        </Node>
        <Node pos="r" depth="1" NCoef="0" IVar="2" Cut="2.2369049489498138e-01" cType="1" res="-6.9656610488891602e-01" rms="3.7949433326721191e+00" purity="1.0000000000000000e+00" nType="0">
          <Node pos="l" depth="2" NCoef="0" IVar="-1" Cut="0.0000000000000000e+00" cType="1" res="1.8762697279453278e-01" rms="3.8468430042266846e+00" purity="1.0000000000000000e+00" nType="-99"/>
          <Node pos="r" depth="2" NCoef="0" IVar="-1" Cut="0.0000000000000000e+00" cType="1" res="-2.6337933540344238e+00" rms="3.4396774768829346e+00" purity="1.0000000000000000e+00" nType="-99"/>
        </Node>
      </Node>
    </BinaryTree>
    <BinaryTree type="DecisionTree" boostWeight="1.0000000000000000e+00" itree="29">
      <Node pos="s" depth="0" NCoef="0" IVar="3" Cut="3.7433427572250366e-01" cType="1" res="-4.8120945692062378e-02" rms="3.6457815170288086e+00" purity="1.0000000000000000e+00" nType="0">
        <Node pos="l" depth="1" NCoef="0" IVar="3" Cut="3.0719235539436340e-01" cType="1" res="-3.0025295913219452e-02" rms="3.6458809375762939e+00" purity="1.0000000000000000e+00" nType="0">
          <Node pos="l" depth="2" NCoef="0" IVar="-1" Cut="0.0000000000000000e+00" cType="1" res="-1.9634959101676941e-01" rms="3.6395390033721924e+00" purity="1.0000000000000000e+00" nType="-99"/>
          <Node pos="r" depth="2" NCoef="0" IVar="-1" Cut="0.0000000000000000e+00" cType="1" res="1.2540574073791504e+00" rms="3.5757806301116943e+00" purity="1.0000000000000000e+00" nType="-99"/>
        </Node>
        <Node pos="r" depth="1" NCoef="0" IVar="1" Cut="1.7735752463340759e-01" cType="1" res="-3.1231753826141357e+00" rms="1.9123160839080811e+00" purity="1.0000000000000000e+00" nType="0">
          <Node pos="l" depth="2" NCoef="0" IVar="-1" Cut="0.0000000000000000e+00" cType="1" res="-5.4243788719177246e+00" rms="1.2048225402832031e+00" purity="1.0000000000000000e+00" nType="-99"/>
          <Node pos="r" depth="2" NCoef="0" IVar="-1" Cut="0.0000000000000000e+00" cType="1" res="-1.7083550691604614e+00" rms="1.4999941587448120e+00" purity="1.0000000000000000e+00" nType="-99"/>
        </Node>
      </Node>
    </BinaryTree>
    <BinaryTree type="DecisionTree" boostWeight="1.0000000000000000e+00" itree="30">
      <Node pos="s" depth="0" NCoef="0" IVar="1" Cut="4.2475461959838867e-01" cType="1" res="5.2054822444915771e-02" rms="3.6447548866271973e+00" purity="1.0000000000000000e+00" nType="0">
        <Node pos="l" depth="1" NCoef="0" IVar="3" Cut="2.6282033324241638e-01" cType="1" res="6.4941197633743286e-02" rms="3.6399204730987549e+00" purity="1.0000000000000000e+00" nType="0">
          <Node pos="l" depth="2" NCoef="0" IVar="-1" Cut="0.0000000000000000e+00" cType="1" res="-5.1318578422069550e-02" rms="3.6379323005676270e+00" purity="1.0000000000000000e+00" nType="-99"/>
          <Node pos="r" depth="2" NCoef="0" IVar="-1" Cut="0.0000000000000000e+00" cType="1" res="6.8213915824890137e-01" rms="3.6195576190948486e+00" purity="1.0000000000000000e+00" nType="-99"/>
        </Node>
        <Node pos="r" depth="1" NCoef="0" IVar="-1" Cut="0.0000000000000000e+00" cType="1" res="-8.8108043670654297e+00" rms="9.5649212598800659e-02" purity="1.0000000000000000e+00" nType="-99"/>
      </Node>
    </BinaryTree>
    <BinaryTree type="DecisionTree" boostWeight="1.0000000000000000e+00" itree="31">
      <Node pos="s" depth="0" NCoef="0" IVar="2" Cut="3.4146827459335327e-01" cType="1" res="-6.9633804261684418e-02" rms="3.6573588848114014e+00" purity="1.0000000000000000e+00" nType="0">
        <Node pos="l" depth="1" NCoef="0" IVar="3" Cut="2.3607943952083588e-01" cType="1" res="-1.0323979705572128e-01" rms="3.6548168659210205e+00" purity="1.0000000000000000e+00" nType="0">
          <Node pos="l" depth="2" NCoef="0" IVar="-1" Cut="0.0000000000000000e+00" cType="1" res="4.2840442061424255e-01" rms="3.7067058086395264e+00" purity="1.0000000000000000e+00" nType="-99"/>
          <Node pos="r" depth="2" NCoef="0" IVar="-1" Cut="0.0000000000000000e+00" cType="1" res="-5.7769221067428589e-01" rms="3.6113250255584717e+00" purity="1.0000000000000000e+00" nType="-99"/>
        </Node>
        <Node pos="r" depth="1" NCoef="0" IVar="3" Cut="2.6035416126251221e-01" cType="1" res="1.3309959173202515e+00" rms="3.4845588207244873e+00" purity="1.0000000000000000e+00" nType="0">
          <Node pos="l" depth="2" NCoef="0" IVar="-1" Cut="0.0000000000000000e+00" cType="1" res="2.9032740592956543e+00" rms="3.1138622760772705e+00" purity="1.0000000000000000e+00" nType="-99"/>
          <Node pos="r" depth="2" NCoef="0" IVar="-1" Cut="0.0000000000000000e+00" cType="1" res="-3.9275872707366943e+00" rms="1.8113007545471191e+00" purity="1.0000000000000000e+00" nType="-99"/>
        </Node>
      </Node>
    </BinaryTree>
    <BinaryTree type="DecisionTree" boostWeight="1.0000000000000000e+00" itree="32">
      <Node pos="s" depth="0" NCoef="0" IVar="3" Cut="1.9330579042434692e-01" cType="1" res="3.4620337188243866e-02" rms="3.6714539527893066e+00" purity="1.0000000000000000e+00" nType="0">
        <Node pos="l" depth="1" NCoef="0" IVar="1" Cut="3.8084381818771362e-01" cType="1" res="-5.3881561756134033e-01" rms="4.1064562797546387e+00" purity="1.0000000000000000e+00" nType="0">
          <Node pos="l" depth="2" NCoef="0" IVar="-1" Cut="0.0000000000000000e+00" cType="1" res="-1.8155783414840698e+00" rms="4.0764331817626953e+00" purity="1.0000000000000000e+00" nType="-99"/>
          <Node pos="r" depth="2" NCoef="0" IVar="-1" Cut="0.0000000000000000e+00" cType="1" res="1.0235002517700195e+01" rms="1.0217821598052979e+00" purity="1.0000000000000000e+00" nType="-99"/>
        </Node>
        <Node pos="r" depth="1" NCoef="0" IVar="1" Cut="3.5474196076393127e-01" cType="1" res="8.6272202432155609e-02" rms="3.6252624988555908e+00" purity="1.0000000000000000e+00" nType="0">
          <Node pos="l" depth="2" NCoef="0" IVar="-1" Cut="0.0000000000000000e+00" cType="1" res="2.2689132392406464e-01" rms="3.6260790824890137e+00" purity="1.0000000000000000e+00" nType="-99"/>
          <Node pos="r" depth="2" NCoef="0" IVar="-1" Cut="0.0000000000000000e+00" cType="1" res="-1.9681136608123779e+00" rms="3.1788008213043213e+00" purity="1.0000000000000000e+00" nType="-99"/>
        </Node>
      </Node>
    </BinaryTree>
    <BinaryTree type="DecisionTree" boostWeight="1.0000000000000000e+00" itree="33">
      <Node pos="s" depth="0" NCoef="0" IVar="0" Cut="2.2910474240779877e-01" cType="1" res="4.4916034676134586e-03" rms="3.6173005104064941e+00" purity="1.0000000000000000e+00" nType="0">
        <Node pos="l" depth="1" NCoef="0" IVar="3" Cut="3.8753277063369751e-01" cType="1" res="3.5613879561424255e-01" rms="3.5537078380584717e+00" purity="1.0000000000000000e+00" nType="0">
          <Node pos="l" depth="2" NCoef="0" IVar="-1" Cut="0.0000000000000000e+00" cType="1" res="4.3709129095077515e-01" rms="3.5524213314056396e+00" purity="1.0000000000000000e+00" nType="-99"/>
          <Node pos="r" depth="2" NCoef="0" IVar="-1" Cut="0.0000000000000000e+00" cType="1" res="-1.3045530319213867e+00" rms="2.2852921485900879e+00" purity="1.0000000000000000e+00" nType="-99"/>
        </Node>
        <Node pos="r" depth="1" NCoef="0" IVar="2" Cut="3.2508683204650879e-01" cType="1" res="-1.7288611829280853e-01" rms="3.6360764503479004e+00" purity="1.0000000000000000e+00" nType="0">
          <Node pos="l" depth="2" NCoef="0" IVar="-1" Cut="0.0000000000000000e+00" cType="1" res="-2.0424044132232666e-01" rms="3.6246774196624756e+00" purity="1.0000000000000000e+00" nType="-99"/>
          <Node pos="r" depth="2" NCoef="0" IVar="-1" Cut="0.0000000000000000e+00" cType="1" res="-2.2808108329772949e+00" rms="3.8378930091857910e+00" purity="1.0000000000000000e+00" nType="-99"/>
        </Node>
      </Node>
    </BinaryTree>
    <BinaryTree type="DecisionTree" boostWeight="1.0000000000000000e+00" itree="34">
      <Node pos="s" depth="0" NCoef="0" IVar="1" Cut="1.4037638902664185e-01" cType="1" res="-1.3553220033645630e-01" rms="3.6573712825775146e+00" purity="1.0000000000000000e+00" nType="0">
        <Node pos="l" depth="1" NCoef="0" IVar="3" Cut="2.6684811711311340e-01" cType="1" res="2.3978283405303955e+00" rms="3.8162546157836914e+00" purity="1.0000000000000000e+00" nType="0">
          <Node pos="l" depth="2" NCoef="0" IVar="-1" Cut="0.0000000000000000e+00" cType="1" res="7.6245126724243164e+00" rms="9.8330008983612061e-01" purity="1.0000000000000000e+00" nType="-99"/>
          <Node pos="r" depth="2" NCoef="0" IVar="-1" Cut="0.0000000000000000e+00" cType="1" res="3.2834475040435791e+00" rms="4.4779744148254395e+00" purity="1.0000000000000000e+00" nType="-99"/>
        </Node>
        <Node pos="r" depth="1" NCoef="0" IVar="2" Cut="1.4389139413833618e-01" cType="1" res="-1.4867414534091949e-01" rms="3.6519498825073242e+00" purity="1.0000000000000000e+00" nType="0">
          <Node pos="l" depth="2" NCoef="0" IVar="-1" Cut="0.0000000000000000e+00" cType="1" res="-4.9459075927734375e+00" rms="3.2941994667053223e+00" purity="1.0000000000000000e+00" nType="-99"/>
          <Node pos="r" depth="2" NCoef="0" IVar="-1" Cut="0.0000000000000000e+00" cType="1" res="-2.1016892790794373e-01" rms="3.6494896411895752e+00" purity="1.0000000000000000e+00" nType="-99"/>
        </Node>
      </Node>
    </BinaryTree>
    <BinaryTree type="DecisionTree" boostWeight="1.0000000000000000e+00" itree="35">
      <Node pos="s" depth="0" NCoef="0" IVar="3" Cut="1.9330579042434692e-01" cType="1" res="1.2822178006172180e-01" rms="3.6603562831878662e+00" purity="1.0000000000000000e+00" nType="0">
        <Node pos="l" depth="1" NCoef="0" IVar="3" Cut="1.7376805841922760e-01" cType="1" res="9.5809006690979004e-01" rms="3.9068005084991455e+00" purity="1.0000000000000000e+00" nType="0">
          <Node pos="l" depth="2" NCoef="0" IVar="-1" Cut="0.0000000000000000e+00" cType="1" res="8.0214250087738037e-01" rms="4.1587376594543457e+00" purity="1.0000000000000000e+00" nType="-99"/>
          <Node pos="r" depth="2" NCoef="0" IVar="-1" Cut="0.0000000000000000e+00" cType="1" res="2.5261175632476807e+00" rms="3.6395630836486816e+00" purity="1.0000000000000000e+00" nType="-99"/>
        </Node>
        <Node pos="r" depth="1" NCoef="0" IVar="0" Cut="2.3804889619350433e-01" cType="1" res="4.8806879669427872e-02" rms="3.6259531974792480e+00" purity="1.0000000000000000e+00" nType="0">
          <Node pos="l" depth="2" NCoef="0" IVar="-1" Cut="0.0000000000000000e+00" cType="1" res="-2.5414755940437317e-01" rms="3.6074852943420410e+00" purity="1.0000000000000000e+00" nType="-99"/>
          <Node pos="r" depth="2" NCoef="0" IVar="-1" Cut="0.0000000000000000e+00" cType="1" res="5.2071046829223633e-01" rms="3.6306767463684082e+00" purity="1.0000000000000000e+00" nType="-99"/>
        </Node>
      </Node>
    </BinaryTree>
    <BinaryTree type="DecisionTree" boostWeight="1.0000000000000000e+00" itree="36">
      <Node pos="s" depth="0" NCoef="0" IVar="0" Cut="1.7419768869876862e-01" cType="1" res="-5.1647260785102844e-02" rms="3.6422219276428223e+00" purity="1.0000000000000000e+00" nType="0">
        <Node pos="l" depth="1" NCoef="0" IVar="3" Cut="3.1857728958129883e-01" cType="1" res="9.9434912204742432e-01" rms="3.7178332805633545e+00" purity="1.0000000000000000e+00" nType="0">
          <Node pos="l" depth="2" NCoef="0" IVar="-1" Cut="0.0000000000000000e+00" cType="1" res="2.4354727268218994e+00" rms="3.5259742736816406e+00" purity="1.0000000000000000e+00" nType="-99"/>
          <Node pos="r" depth="2" NCoef="0" IVar="-1" Cut="0.0000000000000000e+00" cType="1" res="-1.9242399930953979e+00" rms="3.5370643138885498e+00" purity="1.0000000000000000e+00" nType="-99"/>
        </Node>
        <Node pos="r" depth="1" NCoef="0" IVar="2" Cut="1.3423576951026917e-01" cType="1" res="-1.1210194230079651e-01" rms="3.6285984516143799e+00" purity="1.0000000000000000e+00" nType="0">
          <Node pos="l" depth="2" NCoef="0" IVar="-1" Cut="0.0000000000000000e+00" cType="1" res="6.7544083595275879e+00" rms="3.3794589042663574e+00" purity="1.0000000000000000e+00" nType="-99"/>
          <Node pos="r" depth="2" NCoef="0" IVar="-1" Cut="0.0000000000000000e+00" cType="1" res="-2.2000151872634888e-01" rms="3.6234025955200195e+00" purity="1.0000000000000000e+00" nType="-99"/>
        </Node>
      </Node>
    </BinaryTree>
    <BinaryTree type="DecisionTree" boostWeight="1.0000000000000000e+00" itree="37">
      <Node pos="s" depth="0" NCoef="0" IVar="2" Cut="4.4184651970863342e-01" cType="1" res="6.4226381480693817e-02" rms="3.7059588432312012e+00" purity="1.0000000000000000e+00" nType="0">
        <Node pos="l" depth="1" NCoef="0" IVar="2" Cut="3.3223402500152588e-01" cType="1" res="7.2745218873023987e-02" rms="3.7057309150695801e+00" purity="1.0000000000000000e+00" nType="0">
          <Node pos="l" depth="2" NCoef="0" IVar="-1" Cut="0.0000000000000000e+00" cType="1" res="1.3715800642967224e-01" rms="3.7070107460021973e+00" purity="1.0000000000000000e+00" nType="-99"/>
          <Node pos="r" depth="2" NCoef="0" IVar="-1" Cut="0.0000000000000000e+00" cType="1" res="1.3293755054473877e+00" rms="3.5364832878112793e+00" purity="1.0000000000000000e+00" nType="-99"/>
        </Node>
        <Node pos="r" depth="1" NCoef="0" IVar="-1" Cut="0.0000000000000000e+00" cType="1" res="-3.4372639656066895e+00" rms="1.3738299608230591e+00" purity="1.0000000000000000e+00" nType="-99"/>
      </Node>
    </BinaryTree>
    <BinaryTree type="DecisionTree" boostWeight="1.0000000000000000e+00" itree="38">
      <Node pos="s" depth="0" NCoef="0" IVar="2" Cut="1.1491034924983978e-01" cType="1" res="-1.8747630715370178e-01" rms="3.6596646308898926e+00" purity="1.0000000000000000e+00" nType="0">
        <Node pos="l" depth="1" NCoef="0" IVar="-1" Cut="0.0000000000000000e+00" cType="1" res="7.3151693344116211e+00" rms="1.1335045099258423e+00" purity="1.0000000000000000e+00" nType="-99"/>
        <Node pos="r" depth="1" NCoef="0" IVar="2" Cut="4.2643678188323975e-01" cType="1" res="-1.9646123051643372e-01" rms="3.6575212478637695e+00" purity="1.0000000000000000e+00" nType="0">
          <Node pos="l" depth="2" NCoef="0" IVar="-1" Cut="0.0000000000000000e+00" cType="1" res="-2.9637899994850159e-01" rms="3.6562905311584473e+00" purity="1.0000000000000000e+00" nType="-99"/>
          <Node pos="r" depth="2" NCoef="0" IVar="-1" Cut="0.0000000000000000e+00" cType="1" res="-1.9377849102020264e+00" rms="2.1089591979980469e+00" purity="1.0000000000000000e+00" nType="-99"/>
        </Node>
      </Node>
    </BinaryTree>
    <BinaryTree type="DecisionTree" boostWeight="1.0000000000000000e+00" itree="39">
      <Node pos="s" depth="0" NCoef="0" IVar="0" Cut="1.5946544706821442e-01" cType="1" res="-1.2255609780550003e-01" rms="3.6503262519836426e+00" purity="1.0000000000000000e+00" nType="0">
        <Node pos="l" depth="1" NCoef="0" IVar="1" Cut="3.4866178035736084e-01" cType="1" res="-1.3914965391159058e+00" rms="3.6606929302215576e+00" purity="1.0000000000000000e+00" nType="0">
          <Node pos="l" depth="2" NCoef="0" IVar="-1" Cut="0.0000000000000000e+00" cType="1" res="-2.6838560104370117e+00" rms="3.4055726528167725e+00" purity="1.0000000000000000e+00" nType="-99"/>
          <Node pos="r" depth="2" NCoef="0" IVar="-1" Cut="0.0000000000000000e+00" cType="1" res="3.9544716477394104e-01" rms="4.0567178726196289e+00" purity="1.0000000000000000e+00" nType="-99"/>
        </Node>
        <Node pos="r" depth="1" NCoef="0" IVar="3" Cut="2.3297140002250671e-01" cType="1" res="-8.8076859712600708e-02" rms="3.6438827514648438e+00" purity="1.0000000000000000e+00" nType="0">
          <Node pos="l" depth="2" NCoef="0" IVar="-1" Cut="0.0000000000000000e+00" cType="1" res="-5.6944102048873901e-01" rms="3.7715296745300293e+00" purity="1.0000000000000000e+00" nType="-99"/>
          <Node pos="r" depth="2" NCoef="0" IVar="-1" Cut="0.0000000000000000e+00" cType="1" res="3.1141993403434753e-01" rms="3.5595905780792236e+00" purity="1.0000000000000000e+00" nType="-99"/>
        </Node>
      </Node>
    </BinaryTree>
    <BinaryTree type="DecisionTree" boostWeight="1.0000000000000000e+00" itree="40">
      <Node pos="s" depth="0" NCoef="0" IVar="0" Cut="1.0172032564878464e-01" cType="1" res="1.0603451728820801e-01" rms="3.6422941684722900e+00" purity="1.0000000000000000e+00" nType="0">
        <Node pos="l" depth="1" NCoef="0" IVar="-1" Cut="0.0000000000000000e+00" cType="1" res="-1.0293447494506836e+01" rms="5.3632445633411407e-02" purity="1.0000000000000000e+00" nType="-99"/>
        <Node pos="r" depth="1" NCoef="0" IVar="2" Cut="1.3838788866996765e-01" cType="1" res="1.1902150511741638e-01" rms="3.6372325420379639e+00" purity="1.0000000000000000e+00" nType="0">
          <Node pos="l" depth="2" NCoef="0" IVar="-1" Cut="0.0000000000000000e+00" cType="1" res="-6.5802211761474609e+00" rms="2.1674742698669434e+00" purity="1.0000000000000000e+00" nType="-99"/>
          <Node pos="r" depth="2" NCoef="0" IVar="-1" Cut="0.0000000000000000e+00" cType="1" res="2.6356381177902222e-01" rms="3.6331839561462402e+00" purity="1.0000000000000000e+00" nType="-99"/>
        </Node>
      </Node>
    </BinaryTree>
    <BinaryTree type="DecisionTree" boostWeight="1.0000000000000000e+00" itree="41">
      <Node pos="s" depth="0" NCoef="0" IVar="3" Cut="3.1857728958129883e-01" cType="1" res="1.8643394112586975e-02" rms="3.6388990879058838e+00" purity="1.0000000000000000e+00" nType="0">
        <Node pos="l" depth="1" NCoef="0" IVar="3" Cut="2.9174458980560303e-01" cType="1" res="-4.4331029057502747e-02" rms="3.6309726238250732e+00" purity="1.0000000000000000e+00" nType="0">
          <Node pos="l" depth="2" NCoef="0" IVar="-1" Cut="0.0000000000000000e+00" cType="1" res="-4.4634696096181870e-02" rms="3.6252942085266113e+00" purity="1.0000000000000000e+00" nType="-99"/>
          <Node pos="r" depth="2" NCoef="0" IVar="-1" Cut="0.0000000000000000e+00" cType="1" res="-9.2055112123489380e-01" rms="3.6294178962707520e+00" purity="1.0000000000000000e+00" nType="-99"/>
        </Node>
        <Node pos="r" depth="1" NCoef="0" IVar="2" Cut="1.6123405098915100e-01" cType="1" res="9.7535413503646851e-01" rms="3.6251170635223389e+00" purity="1.0000000000000000e+00" nType="0">
          <Node pos="l" depth="2" NCoef="0" IVar="-1" Cut="0.0000000000000000e+00" cType="1" res="7.3781495094299316e+00" rms="4.0043401718139648e-01" purity="1.0000000000000000e+00" nType="-99"/>
          <Node pos="r" depth="2" NCoef="0" IVar="-1" Cut="0.0000000000000000e+00" cType="1" res="9.0855431556701660e-01" rms="3.5758261680603027e+00" purity="1.0000000000000000e+00" nType="-99"/>
        </Node>
      </Node>
    </BinaryTree>
    <BinaryTree type="DecisionTree" boostWeight="1.0000000000000000e+00" itree="42">
      <Node pos="s" depth="0" NCoef="0" IVar="0" Cut="3.9309158921241760e-01" cType="1" res="-1.8951699137687683e-01" rms="3.6314778327941895e+00" purity="1.0000000000000000e+00" nType="0">
        <Node pos="l" depth="1" NCoef="0" IVar="0" Cut="3.0613458156585693e-01" cType="1" res="-2.0094160735607147e-01" rms="3.6280326843261719e+00" purity="1.0000000000000000e+00" nType="0">
          <Node pos="l" depth="2" NCoef="0" IVar="-1" Cut="0.0000000000000000e+00" cType="1" res="-1.8909549713134766e-01" rms="3.6228187084197998e+00" purity="1.0000000000000000e+00" nType="-99"/>
          <Node pos="r" depth="2" NCoef="0" IVar="-1" Cut="0.0000000000000000e+00" cType="1" res="-9.6667879819869995e-01" rms="3.6351661682128906e+00" purity="1.0000000000000000e+00" nType="-99"/>
        </Node>
        <Node pos="r" depth="1" NCoef="0" IVar="-1" Cut="0.0000000000000000e+00" cType="1" res="1.8910718917846680e+01" rms="2.8452403545379639e+00" purity="1.0000000000000000e+00" nType="-99"/>
      </Node>
    </BinaryTree>
    <BinaryTree type="DecisionTree" boostWeight="1.0000000000000000e+00" itree="43">
      <Node pos="s" depth="0" NCoef="0" IVar="2" Cut="4.6467030048370361e-01" cType="1" res="8.3014428615570068e-02" rms="3.6431488990783691e+00" purity="1.0000000000000000e+00" nType="0">
        <Node pos="l" depth="1" NCoef="0" IVar="1" Cut="1.4522774517536163e-01" cType="1" res="7.3658436536788940e-02" rms="3.6407470703125000e+00" purity="1.0000000000000000e+00" nType="0">
          <Node pos="l" depth="2" NCoef="0" IVar="-1" Cut="0.0000000000000000e+00" cType="1" res="-4.4349474906921387e+00" rms="3.5161418914794922e+00" purity="1.0000000000000000e+00" nType="-99"/>
          <Node pos="r" depth="2" NCoef="0" IVar="-1" Cut="0.0000000000000000e+00" cType="1" res="2.7431964874267578e-01" rms="3.6360073089599609e+00" purity="1.0000000000000000e+00" nType="-99"/>
        </Node>
        <Node pos="r" depth="1" NCoef="0" IVar="-1" Cut="0.0000000000000000e+00" cType="1" res="6.4841470718383789e+00" rms="5.3692227602005005e-01" purity="1.0000000000000000e+00" nType="-99"/>
      </Node>
    </BinaryTree>
    <BinaryTree type="DecisionTree" boostWeight="1.0000000000000000e+00" itree="44">
      <Node pos="s" depth="0" NCoef="0" IVar="1" Cut="2.5880032777786255e-01" cType="1" res="6.1308693140745163e-02" rms="3.6003632545471191e+00" purity="1.0000000000000000e+00" nType="0">
        <Node pos="l" depth="1" NCoef="0" IVar="0" Cut="3.8863307237625122e-01" cType="1" res="-1.7448063194751740e-01" rms="3.6026368141174316e+00" purity="1.0000000000000000e+00" nType="0">
          <Node pos="l" depth="2" NCoef="0" IVar="-1" Cut="0.0000000000000000e+00" cType="1" res="-2.5388795137405396e-01" rms="3.5939888954162598e+00" purity="1.0000000000000000e+00" nType="-99"/>
          <Node pos="r" depth="2" NCoef="0" IVar="-1" Cut="0.0000000000000000e+00" cType="1" res="-8.1901950836181641e+00" rms="2.6046020984649658e+00" purity="1.0000000000000000e+00" nType="-99"/>
        </Node>
        <Node pos="r" depth="1" NCoef="0" IVar="2" Cut="1.4580222964286804e-01" cType="1" res="3.9096674323081970e-01" rms="3.5711784362792969e+00" purity="1.0000000000000000e+00" nType="0">
          <Node pos="l" depth="2" NCoef="0" IVar="-1" Cut="0.0000000000000000e+00" cType="1" res="5.5820989608764648e+00" rms="1.5844826698303223e+00" purity="1.0000000000000000e+00" nType="-99"/>
          <Node pos="r" depth="2" NCoef="0" IVar="-1" Cut="0.0000000000000000e+00" cType="1" res="3.9075925946235657e-01" rms="3.5691387653350830e+00" purity="1.0000000000000000e+00" nType="-99"/>
        </Node>
      </Node>
    </BinaryTree>
    <BinaryTree type="DecisionTree" boostWeight="1.0000000000000000e+00" itree="45">
      <Node pos="s" depth="0" NCoef="0" IVar="2" Cut="2.3079755902290344e-01" cType="1" res="1.0344065725803375e-01" rms="3.5937190055847168e+00" purity="1.0000000000000000e+00" nType="0">
        <Node pos="l" depth="1" NCoef="0" IVar="3" Cut="2.4167959392070770e-01" cType="1" res="-1.7230869829654694e-01" rms="3.6689624786376953e+00" purity="1.0000000000000000e+00" nType="0">
          <Node pos="l" depth="2" NCoef="0" IVar="-1" Cut="0.0000000000000000e+00" cType="1" res="1.0686641931533813e+00" rms="3.6567449569702148e+00" purity="1.0000000000000000e+00" nType="-99"/>
          <Node pos="r" depth="2" NCoef="0" IVar="-1" Cut="0.0000000000000000e+00" cType="1" res="-9.8265302181243896e-01" rms="3.5935878753662109e+00" purity="1.0000000000000000e+00" nType="-99"/>
        </Node>
        <Node pos="r" depth="1" NCoef="0" IVar="2" Cut="2.6395076513290405e-01" cType="1" res="2.3029175400733948e-01" rms="3.5513882637023926e+00" purity="1.0000000000000000e+00" nType="0">
          <Node pos="l" depth="2" NCoef="0" IVar="-1" Cut="0.0000000000000000e+00" cType="1" res="6.7855119705200195e-01" rms="3.4294700622558594e+00" purity="1.0000000000000000e+00" nType="-99"/>
          <Node pos="r" depth="2" NCoef="0" IVar="-1" Cut="0.0000000000000000e+00" cType="1" res="6.8538258783519268e-03" rms="3.6264386177062988e+00" purity="1.0000000000000000e+00" nType="-99"/>
        </Node>
      </Node>
    </BinaryTree>
    <BinaryTree type="DecisionTree" boostWeight="1.0000000000000000e+00" itree="46">
      <Node pos="s" depth="0" NCoef="0" IVar="0" Cut="3.1540814042091370e-01" cType="1" res="-1.3119038939476013e-01" rms="3.6516838073730469e+00" purity="1.0000000000000000e+00" nType="0">
        <Node pos="l" depth="1" NCoef="0" IVar="3" Cut="4.1976869106292725e-01" cType="1" res="-2.2225050628185272e-01" rms="3.6293764114379883e+00" purity="1.0000000000000000e+00" nType="0">
          <Node pos="l" depth="2" NCoef="0" IVar="-1" Cut="0.0000000000000000e+00" cType="1" res="-4.0153738856315613e-01" rms="3.6241476535797119e+00" purity="1.0000000000000000e+00" nType="-99"/>
          <Node pos="r" depth="2" NCoef="0" IVar="-1" Cut="0.0000000000000000e+00" cType="1" res="4.9360537528991699e+00" rms="3.3047738075256348e+00" purity="1.0000000000000000e+00" nType="-99"/>
        </Node>
        <Node pos="r" depth="1" NCoef="0" IVar="1" Cut="2.7045556902885437e-01" cType="1" res="1.1674753427505493e+00" rms="3.7210724353790283e+00" purity="1.0000000000000000e+00" nType="0">
          <Node pos="l" depth="2" NCoef="0" IVar="-1" Cut="0.0000000000000000e+00" cType="1" res="1.4093335866928101e+00" rms="3.7587840557098389e+00" purity="1.0000000000000000e+00" nType="-99"/>
          <Node pos="r" depth="2" NCoef="0" IVar="-1" Cut="0.0000000000000000e+00" cType="1" res="3.7088136672973633e+00" rms="1.6527967453002930e+00" purity="1.0000000000000000e+00" nType="-99"/>
        </Node>
      </Node>
    </BinaryTree>
    <BinaryTree type="DecisionTree" boostWeight="1.0000000000000000e+00" itree="47">
      <Node pos="s" depth="0" NCoef="0" IVar="0" Cut="3.9824923872947693e-01" cType="1" res="-2.0728502422571182e-02" rms="3.6623733043670654e+00" purity="1.0000000000000000e+00" nType="0">
        <Node pos="l" depth="1" NCoef="0" IVar="1" Cut="2.1860508620738983e-01" cType="1" res="-7.5218286365270615e-03" rms="3.6605002880096436e+00" purity="1.0000000000000000e+00" nType="0">
          <Node pos="l" depth="2" NCoef="0" IVar="-1" Cut="0.0000000000000000e+00" cType="1" res="6.9453257322311401e-01" rms="3.6318624019622803e+00" purity="1.0000000000000000e+00" nType="-99"/>
          <Node pos="r" depth="2" NCoef="0" IVar="-1" Cut="0.0000000000000000e+00" cType="1" res="-8.6357451975345612e-02" rms="3.6599998474121094e+00" purity="1.0000000000000000e+00" nType="-99"/>
        </Node>
        <Node pos="r" depth="1" NCoef="0" IVar="-1" Cut="0.0000000000000000e+00" cType="1" res="-1.6504110336303711e+01" rms="1.7728772163391113e+00" purity="1.0000000000000000e+00" nType="-99"/>
      </Node>
    </BinaryTree>
    <BinaryTree type="DecisionTree" boostWeight="1.0000000000000000e+00" itree="48">
      <Node pos="s" depth="0" NCoef="0" IVar="3" Cut="2.2388780117034912e-01" cType="1" res="-3.4351766109466553e-02" rms="3.6440825462341309e+00" purity="1.0000000000000000e+00" nType="0">
        <Node pos="l" depth="1" NCoef="0" IVar="1" Cut="3.6952796578407288e-01" cType="1" res="-4.5529651641845703e-01" rms="3.7467772960662842e+00" purity="1.0000000000000000e+00" nType="0">
          <Node pos="l" depth="2" NCoef="0" IVar="-1" Cut="0.0000000000000000e+00" cType="1" res="-5.8264786005020142e-01" rms="3.7515990734100342e+00" purity="1.0000000000000000e+00" nType="-99"/>
          <Node pos="r" depth="2" NCoef="0" IVar="-1" Cut="0.0000000000000000e+00" cType="1" res="-3.3971123695373535e+00" rms="2.7954468727111816e+00" purity="1.0000000000000000e+00" nType="-99"/>
        </Node>
        <Node pos="r" depth="1" NCoef="0" IVar="1" Cut="1.9096498191356659e-01" cType="1" res="1.1598563939332962e-01" rms="3.5947711467742920e+00" purity="1.0000000000000000e+00" nType="0">
          <Node pos="l" depth="2" NCoef="0" IVar="-1" Cut="0.0000000000000000e+00" cType="1" res="5.7559722661972046e-01" rms="3.6452209949493408e+00" purity="1.0000000000000000e+00" nType="-99"/>
          <Node pos="r" depth="2" NCoef="0" IVar="-1" Cut="0.0000000000000000e+00" cType="1" res="2.0649096369743347e-01" rms="3.5850412845611572e+00" purity="1.0000000000000000e+00" nType="-99"/>
        </Node>
      </Node>
    </BinaryTree>
    <BinaryTree type="DecisionTree" boostWeight="1.0000000000000000e+00" itree="49">
      <Node pos="s" depth="0" NCoef="0" IVar="3" Cut="3.2034546136856079e-01" cType="1" res="2.6149837300181389e-02" rms="3.5711760520935059e+00" purity="1.0000000000000000e+00" nType="0">
        <Node pos="l" depth="1" NCoef="0" IVar="3" Cut="2.9849058389663696e-01" cType="1" res="7.8292973339557648e-02" rms="3.5469474792480469e+00" purity="1.0000000000000000e+00" nType="0">
          <Node pos="l" depth="2" NCoef="0" IVar="-1" Cut="0.0000000000000000e+00" cType="1" res="3.8726650178432465e-02" rms="3.5680463314056396e+00" purity="1.0000000000000000e+00" nType="-99"/>
          <Node pos="r" depth="2" NCoef="0" IVar="-1" Cut="0.0000000000000000e+00" cType="1" res="1.3506939411163330e+00" rms="3.0733962059020996e+00" purity="1.0000000000000000e+00" nType="-99"/>
        </Node>
        <Node pos="r" depth="1" NCoef="0" IVar="1" Cut="2.3542305827140808e-01" cType="1" res="-9.4760251045227051e-01" rms="3.8697564601898193e+00" purity="1.0000000000000000e+00" nType="0">
          <Node pos="l" depth="2" NCoef="0" IVar="-1" Cut="0.0000000000000000e+00" cType="1" res="-2.6606972217559814e+00" rms="3.5560078620910645e+00" purity="1.0000000000000000e+00" nType="-99"/>
          <Node pos="r" depth="2" NCoef="0" IVar="-1" Cut="0.0000000000000000e+00" cType="1" res="1.8552064895629883e+00" rms="4.0316476821899414e+00" purity="1.0000000000000000e+00" nType="-99"/>
        </Node>
      </Node>
    </BinaryTree>
    <BinaryTree type="DecisionTree" boostWeight="1.0000000000000000e+00" itree="50">
      <Node pos="s" depth="0" NCoef="0" IVar="0" Cut="2.2196824848651886e-01" cType="1" res="-7.1509599685668945e-02" rms="3.5993514060974121e+00" purity="1.0000000000000000e+00" nType="0">
        <Node pos="l" depth="1" NCoef="0" IVar="3" Cut="1.8698310852050781e-01" cType="1" res="-2.9073780775070190e-01" rms="3.5226130485534668e+00" purity="1.0000000000000000e+00" nType="0">
          <Node pos="l" depth="2" NCoef="0" IVar="-1" Cut="0.0000000000000000e+00" cType="1" res="-2.7843515872955322e+00" rms="3.6816086769104004e+00" purity="1.0000000000000000e+00" nType="-99"/>
          <Node pos="r" depth="2" NCoef="0" IVar="-1" Cut="0.0000000000000000e+00" cType="1" res="-5.0291597843170166e-01" rms="3.5024166107177734e+00" purity="1.0000000000000000e+00" nType="-99"/>
        </Node>
        <Node pos="r" depth="1" NCoef="0" IVar="3" Cut="2.1960988640785217e-01" cType="1" res="1.5846623107790947e-02" rms="3.6257860660552979e+00" purity="1.0000000000000000e+00" nType="0">
          <Node pos="l" depth="2" NCoef="0" IVar="-1" Cut="0.0000000000000000e+00" cType="1" res="9.4662940502166748e-01" rms="3.6844425201416016e+00" purity="1.0000000000000000e+00" nType="-99"/>
          <Node pos="r" depth="2" NCoef="0" IVar="-1" Cut="0.0000000000000000e+00" cType="1" res="-2.0521382987499237e-01" rms="3.5876140594482422e+00" purity="1.0000000000000000e+00" nType="-99"/>
        </Node>
      </Node>
    </BinaryTree>
    <BinaryTree type="DecisionTree" boostWeight="1.0000000000000000e+00" itree="51">
      <Node pos="s" depth="0" NCoef="0" IVar="3" Cut="3.7974402308464050e-01" cType="1" res="-2.8977259993553162e-02" rms="3.6053388118743896e+00" purity="1.0000000000000000e+00" nType="0">
        <Node pos="l" depth="1" NCoef="0" IVar="0" Cut="3.1537270545959473e-01" cType="1" res="-4.4912755489349365e-02" rms="3.6015605926513672e+00" purity="1.0000000000000000e+00" nType="0">
          <Node pos="l" depth="2" NCoef="0" IVar="-1" Cut="0.0000000000000000e+00" cType="1" res="4.6043261885643005e-02" rms="3.5904312133789062e+00" purity="1.0000000000000000e+00" nType="-99"/>
          <Node pos="r" depth="2" NCoef="0" IVar="-1" Cut="0.0000000000000000e+00" cType="1" res="-1.3773474693298340e+00" rms="3.7034404277801514e+00" purity="1.0000000000000000e+00" nType="-99"/>
        </Node>
        <Node pos="r" depth="1" NCoef="0" IVar="1" Cut="1.8876722455024719e-01" cType="1" res="2.6152529716491699e+00" rms="3.2376689910888672e+00" purity="1.0000000000000000e+00" nType="0">
          <Node pos="l" depth="2" NCoef="0" IVar="-1" Cut="0.0000000000000000e+00" cType="1" res="4.6964306831359863e+00" rms="2.7166550159454346e+00" purity="1.0000000000000000e+00" nType="-99"/>
          <Node pos="r" depth="2" NCoef="0" IVar="-1" Cut="0.0000000000000000e+00" cType="1" res="4.7407550811767578e+00" rms="3.4895505905151367e+00" purity="1.0000000000000000e+00" nType="-99"/>
        </Node>
      </Node>
    </BinaryTree>
    <BinaryTree type="DecisionTree" boostWeight="1.0000000000000000e+00" itree="52">
      <Node pos="s" depth="0" NCoef="0" IVar="0" Cut="3.9838504791259766e-01" cType="1" res="1.9735464826226234e-02" rms="3.6319866180419922e+00" purity="1.0000000000000000e+00" nType="0">
        <Node pos="l" depth="1" NCoef="0" IVar="1" Cut="3.7771344184875488e-01" cType="1" res="7.9044448211789131e-03" rms="3.6265618801116943e+00" purity="1.0000000000000000e+00" nType="0">
          <Node pos="l" depth="2" NCoef="0" IVar="-1" Cut="0.0000000000000000e+00" cType="1" res="5.5288702249526978e-02" rms="3.6224868297576904e+00" purity="1.0000000000000000e+00" nType="-99"/>
          <Node pos="r" depth="2" NCoef="0" IVar="-1" Cut="0.0000000000000000e+00" cType="1" res="-1.8854782581329346e+00" rms="3.4967331886291504e+00" purity="1.0000000000000000e+00" nType="-99"/>
        </Node>
        <Node pos="r" depth="1" NCoef="0" IVar="-1" Cut="0.0000000000000000e+00" cType="1" res="1.4047583580017090e+01" rms="3.4229309558868408e+00" purity="1.0000000000000000e+00" nType="-99"/>
      </Node>
    </BinaryTree>
    <BinaryTree type="DecisionTree" boostWeight="1.0000000000000000e+00" itree="53">
      <Node pos="s" depth="0" NCoef="0" IVar="3" Cut="2.6952961087226868e-01" cType="1" res="-4.4062811881303787e-02" rms="3.6666810512542725e+00" purity="1.0000000000000000e+00" nType="0">
        <Node pos="l" depth="1" NCoef="0" IVar="1" Cut="2.1091634035110474e-01" cType="1" res="-2.0261539518833160e-01" rms="3.6583032608032227e+00" purity="1.0000000000000000e+00" nType="0">
          <Node pos="l" depth="2" NCoef="0" IVar="-1" Cut="0.0000000000000000e+00" cType="1" res="-1.6189885139465332e+00" rms="3.6736259460449219e+00" purity="1.0000000000000000e+00" nType="-99"/>
          <Node pos="r" depth="2" NCoef="0" IVar="-1" Cut="0.0000000000000000e+00" cType="1" res="-8.6341544985771179e-02" rms="3.6399731636047363e+00" purity="1.0000000000000000e+00" nType="-99"/>
        </Node>
        <Node pos="r" depth="1" NCoef="0" IVar="3" Cut="3.5432225465774536e-01" cType="1" res="3.2948005199432373e-01" rms="3.6592857837677002e+00" purity="1.0000000000000000e+00" nType="0">
          <Node pos="l" depth="2" NCoef="0" IVar="-1" Cut="0.0000000000000000e+00" cType="1" res="5.8194714784622192e-01" rms="3.6383504867553711e+00" purity="1.0000000000000000e+00" nType="-99"/>
          <Node pos="r" depth="2" NCoef="0" IVar="-1" Cut="0.0000000000000000e+00" cType="1" res="-3.2293591499328613e+00" rms="3.4925382137298584e+00" purity="1.0000000000000000e+00" nType="-99"/>
        </Node>
      </Node>
    </BinaryTree>
    <BinaryTree type="DecisionTree" boostWeight="1.0000000000000000e+00" itree="54">
      <Node pos="s" depth="0" NCoef="0" IVar="1" Cut="4.0775689482688904e-01" cType="1" res="-4.5422807335853577e-02" rms="3.6421744823455811e+00" purity="1.0000000000000000e+00" nType="0">
        <Node pos="l" depth="1" NCoef="0" IVar="2" Cut="3.8127857446670532e-01" cType="1" res="-6.8040512502193451e-02" rms="3.6360201835632324e+00" purity="1.0000000000000000e+00" nType="0">
          <Node pos="l" depth="2" NCoef="0" IVar="-1" Cut="0.0000000000000000e+00" cType="1" res="-1.3117510080337524e-01" rms="3.6354355812072754e+00" purity="1.0000000000000000e+00" nType="-99"/>
          <Node pos="r" depth="2" NCoef="0" IVar="-1" Cut="0.0000000000000000e+00" cType="1" res="5.0990042686462402e+00" rms="2.2364315986633301e+00" purity="1.0000000000000000e+00" nType="-99"/>
        </Node>
        <Node pos="r" depth="1" NCoef="0" IVar="1" Cut="4.3490701913833618e-01" cType="1" res="4.5535106658935547e+00" rms="1.0577427148818970e+00" purity="1.0000000000000000e+00" nType="0">
          <Node pos="l" depth="2" NCoef="0" IVar="-1" Cut="0.0000000000000000e+00" cType="1" res="6.3337883949279785e+00" rms="1.2409961223602295e+00" purity="1.0000000000000000e+00" nType="-99"/>
          <Node pos="r" depth="2" NCoef="0" IVar="-1" Cut="0.0000000000000000e+00" cType="1" res="1.0575354576110840e+01" rms="2.5236931443214417e-01" purity="1.0000000000000000e+00" nType="-99"/>
        </Node>
      </Node>
    </BinaryTree>
    <BinaryTree type="DecisionTree" boostWeight="1.0000000000000000e+00" itree="55">
      <Node pos="s" depth="0" NCoef="0" IVar="0" Cut="1.7789800465106964e-01" cType="1" res="5.1498621702194214e-02" rms="3.6641457080841064e+00" purity="1.0000000000000000e+00" nType="0">
        <Node pos="l" depth="1" NCoef="0" IVar="0" Cut="1.7242507636547089e-01" cType="1" res="-6.8048435449600220e-01" rms="3.2705731391906738e+00" purity="1.0000000000000000e+00" nType="0">
          <Node pos="l" depth="2" NCoef="0" IVar="-1" Cut="0.0000000000000000e+00" cType="1" res="-4.8498624563217163e-01" rms="3.2141218185424805e+00" purity="1.0000000000000000e+00" nType="-99"/>
          <Node pos="r" depth="2" NCoef="0" IVar="-1" Cut="0.0000000000000000e+00" cType="1" res="-2.5292577743530273e+00" rms="3.1716847419738770e+00" purity="1.0000000000000000e+00" nType="-99"/>
        </Node>
        <Node pos="r" depth="1" NCoef="0" IVar="3" Cut="1.3850675523281097e-01" cType="1" res="8.7593063712120056e-02" rms="3.6786985397338867e+00" purity="1.0000000000000000e+00" nType="0">
          <Node pos="l" depth="2" NCoef="0" IVar="-1" Cut="0.0000000000000000e+00" cType="1" res="-6.2051162719726562e+00" rms="3.4430603981018066e+00" purity="1.0000000000000000e+00" nType="-99"/>
          <Node pos="r" depth="2" NCoef="0" IVar="-1" Cut="0.0000000000000000e+00" cType="1" res="2.3713313043117523e-01" rms="3.6744046211242676e+00" purity="1.0000000000000000e+00" nType="-99"/>
        </Node>
      </Node>
    </BinaryTree>
    <BinaryTree type="DecisionTree" boostWeight="1.0000000000000000e+00" itree="56">
      <Node pos="s" depth="0" NCoef="0" IVar="3" Cut="1.9770196080207825e-01" cType="1" res="3.1694278120994568e-02" rms="3.6208758354187012e+00" purity="1.0000000000000000e+00" nType="0">
        <Node pos="l" depth="1" NCoef="0" IVar="2" Cut="2.3497253656387329e-01" cType="1" res="8.7290030717849731e-01" rms="4.0051460266113281e+00" purity="1.0000000000000000e+00" nType="0">
          <Node pos="l" depth="2" NCoef="0" IVar="-1" Cut="0.0000000000000000e+00" cType="1" res="-9.0839129686355591e-01" rms="3.8835763931274414e+00" purity="1.0000000000000000e+00" nType="-99"/>
          <Node pos="r" depth="2" NCoef="0" IVar="-1" Cut="0.0000000000000000e+00" cType="1" res="2.2017443180084229e+00" rms="3.9419088363647461e+00" purity="1.0000000000000000e+00" nType="-99"/>
        </Node>
        <Node pos="r" depth="1" NCoef="0" IVar="3" Cut="3.4437051415443420e-01" cType="1" res="-6.7824274301528931e-02" rms="3.5595555305480957e+00" purity="1.0000000000000000e+00" nType="0">
          <Node pos="l" depth="2" NCoef="0" IVar="-1" Cut="0.0000000000000000e+00" cType="1" res="-2.2809897363185883e-01" rms="3.5554335117340088e+00" purity="1.0000000000000000e+00" nType="-99"/>
          <Node pos="r" depth="2" NCoef="0" IVar="-1" Cut="0.0000000000000000e+00" cType="1" res="3.1588695049285889e+00" rms="3.0804593563079834e+00" purity="1.0000000000000000e+00" nType="-99"/>
        </Node>
      </Node>
    </BinaryTree>
    <BinaryTree type="DecisionTree" boostWeight="1.0000000000000000e+00" itree="57">
      <Node pos="s" depth="0" NCoef="0" IVar="3" Cut="2.8485736250877380e-01" cType="1" res="-4.7641159035265446e-03" rms="3.6280865669250488e+00" purity="1.0000000000000000e+00" nType="0">
        <Node pos="l" depth="1" NCoef="0" IVar="0" Cut="2.9775959253311157e-01" cType="1" res="8.7555587291717529e-02" rms="3.6295564174652100e+00" purity="1.0000000000000000e+00" nType="0">
          <Node pos="l" depth="2" NCoef="0" IVar="-1" Cut="0.0000000000000000e+00" cType="1" res="-4.7037908807396889e-03" rms="3.6330504417419434e+00" purity="1.0000000000000000e+00" nType="-99"/>
          <Node pos="r" depth="2" NCoef="0" IVar="-1" Cut="0.0000000000000000e+00" cType="1" res="1.0250492095947266e+00" rms="3.5493371486663818e+00" purity="1.0000000000000000e+00" nType="-99"/>
        </Node>
        <Node pos="r" depth="1" NCoef="0" IVar="0" Cut="2.9156392812728882e-01" cType="1" res="-3.8751760125160217e-01" rms="3.5967977046966553e+00" purity="1.0000000000000000e+00" nType="0">
          <Node pos="l" depth="2" NCoef="0" IVar="-1" Cut="0.0000000000000000e+00" cType="1" res="-8.8944655656814575e-01" rms="3.5732057094573975e+00" purity="1.0000000000000000e+00" nType="-99"/>
          <Node pos="r" depth="2" NCoef="0" IVar="-1" Cut="0.0000000000000000e+00" cType="1" res="3.1921384334564209e+00" rms="3.3885297775268555e+00" purity="1.0000000000000000e+00" nType="-99"/>
        </Node>
      </Node>
    </BinaryTree>
    <BinaryTree type="DecisionTree" boostWeight="1.0000000000000000e+00" itree="58">
      <Node pos="s" depth="0" NCoef="0" IVar="2" Cut="2.7537992596626282e-01" cType="1" res="9.4829551875591278e-02" rms="3.6210329532623291e+00" purity="1.0000000000000000e+00" nType="0">
        <Node pos="l" depth="1" NCoef="0" IVar="3" Cut="2.5476017594337463e-01" cType="1" res="-6.5885022282600403e-02" rms="3.5971903800964355e+00" purity="1.0000000000000000e+00" nType="0">
          <Node pos="l" depth="2" NCoef="0" IVar="-1" Cut="0.0000000000000000e+00" cType="1" res="2.5687524676322937e-01" rms="3.6038789749145508e+00" purity="1.0000000000000000e+00" nType="-99"/>
          <Node pos="r" depth="2" NCoef="0" IVar="-1" Cut="0.0000000000000000e+00" cType="1" res="-3.0037823319435120e-01" rms="3.5698878765106201e+00" purity="1.0000000000000000e+00" nType="-99"/>
        </Node>
        <Node pos="r" depth="1" NCoef="0" IVar="3" Cut="1.9505037367343903e-01" cType="1" res="5.3376001119613647e-01" rms="3.6494805812835693e+00" purity="1.0000000000000000e+00" nType="0">
          <Node pos="l" depth="2" NCoef="0" IVar="-1" Cut="0.0000000000000000e+00" cType="1" res="-2.7460222244262695e+00" rms="3.8767499923706055e+00" purity="1.0000000000000000e+00" nType="-99"/>
          <Node pos="r" depth="2" NCoef="0" IVar="-1" Cut="0.0000000000000000e+00" cType="1" res="1.1531542539596558e+00" rms="3.5460855960845947e+00" purity="1.0000000000000000e+00" nType="-99"/>
        </Node>
      </Node>
    </BinaryTree>
    <BinaryTree type="DecisionTree" boostWeight="1.0000000000000000e+00" itree="59">
      <Node pos="s" depth="0" NCoef="0" IVar="3" Cut="2.4754060804843903e-01" cType="1" res="-1.4979417622089386e-01" rms="3.5805571079254150e+00" purity="1.0000000000000000e+00" nType="0">
        <Node pos="l" depth="1" NCoef="0" IVar="1" Cut="3.1048321723937988e-01" cType="1" res="-3.8299441337585449e-01" rms="3.5872497558593750e+00" purity="1.0000000000000000e+00" nType="0">
          <Node pos="l" depth="2" NCoef="0" IVar="-1" Cut="0.0000000000000000e+00" cType="1" res="-8.6969399452209473e-01" rms="3.5533628463745117e+00" purity="1.0000000000000000e+00" nType="-99"/>
          <Node pos="r" depth="2" NCoef="0" IVar="-1" Cut="0.0000000000000000e+00" cType="1" res="3.2350513339042664e-01" rms="3.6853752136230469e+00" purity="1.0000000000000000e+00" nType="-99"/>
        </Node>
        <Node pos="r" depth="1" NCoef="0" IVar="3" Cut="3.4647408127784729e-01" cType="1" res="7.5059227645397186e-02" rms="3.5596542358398438e+00" purity="1.0000000000000000e+00" nType="0">
          <Node pos="l" depth="2" NCoef="0" IVar="-1" Cut="0.0000000000000000e+00" cType="1" res="2.0346704125404358e-01" rms="3.5440402030944824e+00" purity="1.0000000000000000e+00" nType="-99"/>
          <Node pos="r" depth="2" NCoef="0" IVar="-1" Cut="0.0000000000000000e+00" cType="1" res="-2.6818377971649170e+00" rms="3.6671624183654785e+00" purity="1.0000000000000000e+00" nType="-99"/>
        </Node>
      </Node>
    </BinaryTree>
    <BinaryTree type="DecisionTree" boostWeight="1.0000000000000000e+00" itree="60">
      <Node pos="s" depth="0" NCoef="0" IVar="3" Cut="3.1857728958129883e-01" cType="1" res="-1.3941203057765961e-01" rms="3.6033847332000732e+00" purity="1.0000000000000000e+00" nType="0">
        <Node pos="l" depth="1" NCoef="0" IVar="3" Cut="1.4587754011154175e-01" cType="1" res="-1.9480210542678833e-01" rms="3.5932924747467041e+00" purity="1.0000000000000000e+00" nType="0">
          <Node pos="l" depth="2" NCoef="0" IVar="-1" Cut="0.0000000000000000e+00" cType="1" res="4.8456006050109863e+00" rms="3.4133489131927490e+00" purity="1.0000000000000000e+00" nType="-99"/>
          <Node pos="r" depth="2" NCoef="0" IVar="-1" Cut="0.0000000000000000e+00" cType="1" res="-2.9648607969284058e-01" rms="3.5876610279083252e+00" purity="1.0000000000000000e+00" nType="-99"/>
        </Node>
        <Node pos="r" depth="1" NCoef="0" IVar="2" Cut="2.4936679005622864e-01" cType="1" res="8.7392586469650269e-01" rms="3.6373295783996582e+00" purity="1.0000000000000000e+00" nType="0">
          <Node pos="l" depth="2" NCoef="0" IVar="-1" Cut="0.0000000000000000e+00" cType="1" res="1.7688089609146118e+00" rms="3.6265218257904053e+00" purity="1.0000000000000000e+00" nType="-99"/>
          <Node pos="r" depth="2" NCoef="0" IVar="-1" Cut="0.0000000000000000e+00" cType="1" res="4.1235899925231934e+00" rms="3.3820621967315674e+00" purity="1.0000000000000000e+00" nType="-99"/>
        </Node>
      </Node>
    </BinaryTree>
    <BinaryTree type="DecisionTree" boostWeight="1.0000000000000000e+00" itree="61">
      <Node pos="s" depth="0" NCoef="0" IVar="0" Cut="3.9824923872947693e-01" cType="1" res="1.0631518810987473e-01" rms="3.5460493564605713e+00" purity="1.0000000000000000e+00" nType="0">
        <Node pos="l" depth="1" NCoef="0" IVar="2" Cut="2.5329458713531494e-01" cType="1" res="1.2116883695125580e-01" rms="3.5397949218750000e+00" purity="1.0000000000000000e+00" nType="0">
          <Node pos="l" depth="2" NCoef="0" IVar="-1" Cut="0.0000000000000000e+00" cType="1" res="5.5812501907348633e-01" rms="3.5318386554718018e+00" purity="1.0000000000000000e+00" nType="-99"/>
          <Node pos="r" depth="2" NCoef="0" IVar="-1" Cut="0.0000000000000000e+00" cType="1" res="6.4529426395893097e-02" rms="3.5375592708587646e+00" purity="1.0000000000000000e+00" nType="-99"/>
        </Node>
        <Node pos="r" depth="1" NCoef="0" IVar="-1" Cut="0.0000000000000000e+00" cType="1" res="-8.2438602447509766e+00" rms="5.2493929862976074e-02" purity="1.0000000000000000e+00" nType="-99"/>
      </Node>
    </BinaryTree>
    <BinaryTree type="DecisionTree" boostWeight="1.0000000000000000e+00" itree="62">
      <Node pos="s" depth="0" NCoef="0" IVar="2" Cut="1.4787824451923370e-01" cType="1" res="-7.0588504895567894e-03" rms="3.6655778884887695e+00" purity="1.0000000000000000e+00" nType="0">
        <Node pos="l" depth="1" NCoef="0" IVar="1" Cut="2.8910055756568909e-01" cType="1" res="-3.5036265850067139e+00" rms="2.5349633693695068e+00" purity="1.0000000000000000e+00" nType="0">
          <Node pos="l" depth="2" NCoef="0" IVar="-1" Cut="0.0000000000000000e+00" cType="1" res="-6.5864195823669434e+00" rms="1.3138040304183960e+00" purity="1.0000000000000000e+00" nType="-99"/>
          <Node pos="r" depth="2" NCoef="0" IVar="-1" Cut="0.0000000000000000e+00" cType="1" res="-3.7941906452178955e+00" rms="3.1590156555175781e+00" purity="1.0000000000000000e+00" nType="-99"/>
        </Node>
        <Node pos="r" depth="1" NCoef="0" IVar="1" Cut="4.2586633563041687e-01" cType="1" res="1.9367080181837082e-02" rms="3.6601018905639648e+00" purity="1.0000000000000000e+00" nType="0">
          <Node pos="l" depth="2" NCoef="0" IVar="-1" Cut="0.0000000000000000e+00" cType="1" res="-1.1455167084932327e-02" rms="3.6559615135192871e+00" purity="1.0000000000000000e+00" nType="-99"/>
          <Node pos="r" depth="2" NCoef="0" IVar="-1" Cut="0.0000000000000000e+00" cType="1" res="-1.0802083015441895e+01" rms="1.3434504270553589e+00" purity="1.0000000000000000e+00" nType="-99"/>
        </Node>
      </Node>
    </BinaryTree>
    <BinaryTree type="DecisionTree" boostWeight="1.0000000000000000e+00" itree="63">
      <Node pos="s" depth="0" NCoef="0" IVar="3" Cut="1.3235454261302948e-01" cType="1" res="6.5965153276920319e-02" rms="3.6907429695129395e+00" purity="1.0000000000000000e+00" nType="0">
        <Node pos="l" depth="1" NCoef="0" IVar="-1" Cut="0.0000000000000000e+00" cType="1" res="-7.0235621929168701e-01" rms="3.4347531795501709e+00" purity="1.0000000000000000e+00" nType="-99"/>
        <Node pos="r" depth="1" NCoef="0" IVar="3" Cut="3.1779357790946960e-01" cType="1" res="7.8313156962394714e-02" rms="3.6852109432220459e+00" purity="1.0000000000000000e+00" nType="0">
          <Node pos="l" depth="2" NCoef="0" IVar="-1" Cut="0.0000000000000000e+00" cType="1" res="9.6635244786739349e-02" rms="3.6731569766998291e+00" purity="1.0000000000000000e+00" nType="-99"/>
          <Node pos="r" depth="2" NCoef="0" IVar="-1" Cut="0.0000000000000000e+00" cType="1" res="-1.7554486989974976e+00" rms="3.7986898422241211e+00" purity="1.0000000000000000e+00" nType="-99"/>
        </Node>
      </Node>
    </BinaryTree>
    <BinaryTree type="DecisionTree" boostWeight="1.0000000000000000e+00" itree="64">
      <Node pos="s" depth="0" NCoef="0" IVar="3" Cut="3.5561150312423706e-01" cType="1" res="-4.7602006234228611e-03" rms="3.6701219081878662e+00" purity="1.0000000000000000e+00" nType="0">
        <Node pos="l" depth="1" NCoef="0" IVar="2" Cut="2.9349493980407715e-01" cType="1" res="-2.4637134745717049e-02" rms="3.6632707118988037e+00" purity="1.0000000000000000e+00" nType="0">
          <Node pos="l" depth="2" NCoef="0" IVar="-1" Cut="0.0000000000000000e+00" cType="1" res="-2.1291728317737579e-01" rms="3.6931400299072266e+00" purity="1.0000000000000000e+00" nType="-99"/>
          <Node pos="r" depth="2" NCoef="0" IVar="-1" Cut="0.0000000000000000e+00" cType="1" res="4.5953920483589172e-01" rms="3.4790987968444824e+00" purity="1.0000000000000000e+00" nType="-99"/>
        </Node>
        <Node pos="r" depth="1" NCoef="0" IVar="1" Cut="2.1608616411685944e-01" cType="1" res="1.9495398998260498e+00" rms="3.8146450519561768e+00" purity="1.0000000000000000e+00" nType="0">
          <Node pos="l" depth="2" NCoef="0" IVar="-1" Cut="0.0000000000000000e+00" cType="1" res="1.3792809247970581e+00" rms="3.8375775814056396e+00" purity="1.0000000000000000e+00" nType="-99"/>
          <Node pos="r" depth="2" NCoef="0" IVar="-1" Cut="0.0000000000000000e+00" cType="1" res="1.6671255111694336e+01" rms="8.4120047092437744e-01" purity="1.0000000000000000e+00" nType="-99"/>
        </Node>
      </Node>
    </BinaryTree>
    <BinaryTree type="DecisionTree" boostWeight="1.0000000000000000e+00" itree="65">
      <Node pos="s" depth="0" NCoef="0" IVar="2" Cut="3.7921762466430664e-01" cType="1" res="2.2968933917582035e-03" rms="3.6477081775665283e+00" purity="1.0000000000000000e+00" nType="0">
        <Node pos="l" depth="1" NCoef="0" IVar="2" Cut="2.7031350135803223e-01" cType="1" res="1.6049917787313461e-02" rms="3.6499381065368652e+00" purity="1.0000000000000000e+00" nType="0">
          <Node pos="l" depth="2" NCoef="0" IVar="-1" Cut="0.0000000000000000e+00" cType="1" res="-6.6737398505210876e-02" rms="3.6599302291870117e+00" purity="1.0000000000000000e+00" nType="-99"/>
          <Node pos="r" depth="2" NCoef="0" IVar="-1" Cut="0.0000000000000000e+00" cType="1" res="2.9094204306602478e-01" rms="3.6086666584014893e+00" purity="1.0000000000000000e+00" nType="-99"/>
        </Node>
        <Node pos="r" depth="1" NCoef="0" IVar="2" Cut="4.4504132866859436e-01" cType="1" res="-2.2495317459106445e+00" rms="2.3536114692687988e+00" purity="1.0000000000000000e+00" nType="0">
          <Node pos="l" depth="2" NCoef="0" IVar="-1" Cut="0.0000000000000000e+00" cType="1" res="-3.6526849269866943e+00" rms="2.0898277759552002e+00" purity="1.0000000000000000e+00" nType="-99"/>
          <Node pos="r" depth="2" NCoef="0" IVar="-1" Cut="0.0000000000000000e+00" cType="1" res="-1.3817188739776611e+00" rms="2.4743452072143555e+00" purity="1.0000000000000000e+00" nType="-99"/>
        </Node>
      </Node>
    </BinaryTree>
    <BinaryTree type="DecisionTree" boostWeight="1.0000000000000000e+00" itree="66">
      <Node pos="s" depth="0" NCoef="0" IVar="1" Cut="1.3812561333179474e-01" cType="1" res="6.2474057078361511e-02" rms="3.6512811183929443e+00" purity="1.0000000000000000e+00" nType="0">
